<?xml version="1.0"?>
<opencv_storage>
<opencv_ml_svm>
  <format>3</format>
  <svmType>C_SVC</svmType>
  <kernel>
    <type>POLY</type>
    <degree>2.</degree>
    <gamma>1.</gamma>
    <coef0>1.</coef0></kernel>
  <C>1.</C>
  <term_criteria><iterations>1000</iterations></term_criteria>
  <var_count>531</var_count>
  <class_count>2</class_count>
  <class_labels type_id="opencv-matrix">
    <rows>2</rows>
    <cols>1</cols>
    <dt>i</dt>
    <data>
      0 1</data></class_labels>
  <sv_total>42</sv_total>
  <support_vectors>
    <_>
      657. 114. 30. 56. 27. 43. 40. 32. 49. 170. 93. 121. 57. 78. 105.
      30. 26. 59. 114. 67. 52. 18. 18. 45. 58. 37. 32. 34. 6. 20. 39.
      40. 33. 29. 14. 16. 25. 55. 53. 12. 23. 6. 182. 153. 28. 18. 122.
      128. 35. 10. 2. 33. 5. 11. 28. 6. 108. 91. 503. 201. 77. 22. 60.
      39. 33. 102. 18. 57. 100. 174. 69. 69. 112. 132. 50. 21. 62. 128.
      136. 99. 21. 34. 46. 78. 112. 46. 36. 10. 14. 49. 89. 53. 72. 18.
      20. 36. 91. 97. 45. 38. 5. 92. 118. 77. 29. 60. 121. 24. 25. 4.
      75. 22. 30. 35. 9. 71. 81. 452. 206. 55. 11. 73. 45. 42. 66. 21.
      38. 57. 69. 71. 60. 64. 63. 34. 34. 80. 186. 134. 71. 14. 54. 52.
      89. 149. 71. 30. 5. 19. 60. 212. 135. 71. 15. 34. 53. 114. 293.
      70. 33. 0. 45. 68. 76. 31. 46. 63. 30. 19. 3. 72. 16. 30. 25. 4.
      54. 64. 397. 433. 102. 32. 53. 61. 62. 50. 36. 55. 135. 99. 122.
      64. 70. 110. 34. 47. 42. 108. 80. 64. 6. 42. 58. 58. 88. 46. 28.
      4. 20. 32. 49. 40. 42. 21. 29. 54. 70. 61. 25. 16. 4. 169. 121.
      36. 21. 82. 101. 33. 18. 1. 59. 9. 37. 12. 3. 106. 83. 553. 252.
      83. 35. 54. 36. 46. 89. 34. 53. 135. 151. 79. 65. 104. 143. 57.
      17. 66. 118. 166. 59. 16. 36. 25. 70. 95. 36. 31. 3. 16. 53. 65.
      82. 64. 18. 33. 26. 103. 92. 39. 26. 5. 105. 175. 79. 33. 63. 117.
      47. 17. 6. 58. 14. 22. 20. 10. 56. 83. 415. 299. 80. 29. 59. 36.
      30. 85. 20. 33. 105. 144. 50. 45. 89. 156. 50. 30. 47. 137. 113.
      59. 13. 21. 41. 91. 160. 27. 20. 2. 31. 62. 205. 123. 69. 15. 20.
      33. 104. 138. 34. 25. 5. 102. 142. 79. 30. 51. 115. 35. 8. 7. 50.
      11. 12. 27. 3. 47. 58. 384. 444. 98. 35. 42. 45. 51. 76. 43. 59.
      118. 88. 125. 54. 73. 118. 23. 25. 54. 107. 66. 43. 13. 32. 60.
      66. 60. 30. 28. 5. 31. 45. 80. 94. 47. 21. 35. 45. 52. 83. 25. 23.
      5. 148. 121. 50. 18. 83. 132. 41. 9. 0. 42. 16. 23. 19. 3. 95. 76.
      553. 279. 34. 30. 67. 63. 46. 124. 24. 39. 48. 80. 43. 53. 69. 54.
      20. 26. 33. 156. 119. 46. 16. 59. 45. 102. 175. 41. 24. 0. 24. 70.
      195. 295. 68. 17. 37. 50. 100. 154. 78. 26. 4. 86. 83. 57. 23. 31.
      108. 24. 19. 6. 48. 21. 45. 26. 4. 27. 74. 381. 354. 19. 24. 44.
      48. 43. 68. 16. 26. 65. 77. 31. 33. 70. 142. 23. 20. 44. 184. 134.
      52. 16. 37. 47. 92. 139. 60. 14. 9. 32. 62. 196. 152. 40. 23. 36.
      54. 129. 302. 57. 19. 10. 65. 91. 78. 16. 31. 101. 26. 9. 2. 59.
      21. 40. 26. 9. 22. 80. 377.</_>
    <_>
      1252. 54. 88. 76. 48. 58. 45. 58. 37. 124. 23. 34. 61. 23. 16. 5.
      69. 62. 137. 27. 41. 13. 53. 40. 29. 27. 1. 1. 1. 84. 72. 203. 52.
      73. 16. 24. 52. 43. 96. 8. 9. 1. 122. 29. 71. 8. 21. 17. 2. 4. 0.
      45. 9. 22. 8. 3. 15. 34. 248. 1078. 52. 63. 52. 48. 45. 29. 72.
      40. 117. 28. 64. 71. 41. 32. 4. 85. 80. 193. 46. 67. 14. 37. 50.
      53. 48. 30. 19. 2. 47. 46. 152. 85. 53. 11. 34. 38. 23. 32. 12.
      13. 3. 138. 20. 57. 15. 17. 28. 7. 12. 0. 70. 7. 36. 9. 1. 20. 28.
      320. 624. 64. 38. 47. 34. 58. 74. 36. 52. 123. 51. 78. 47. 89. 90.
      14. 48. 70. 56. 105. 77. 22. 25. 52. 47. 48. 29. 25. 6. 49. 57.
      87. 87. 53. 22. 28. 61. 66. 62. 27. 25. 5. 110. 71. 80. 24. 28.
      64. 20. 14. 3. 60. 21. 34. 34. 10. 40. 68. 455. 370. 62. 42. 61.
      22. 72. 100. 41. 63. 223. 162. 58. 64. 86. 236. 33. 28. 32. 71.
      56. 65. 7. 22. 32. 33. 44. 34. 26. 1. 24. 43. 114. 124. 81. 20.
      16. 39. 63. 120. 52. 27. 5. 111. 160. 62. 11. 33. 135. 24. 12. 1.
      25. 8. 12. 21. 6. 39. 37. 323. 162. 63. 12. 68. 14. 30. 98. 9. 21.
      68. 125. 54. 51. 58. 98. 33. 18. 65. 160. 84. 56. 19. 20. 33. 67.
      68. 121. 28. 8. 14. 66. 145. 143. 82. 22. 21. 35. 85. 147. 108.
      50. 9. 70. 206. 70. 42. 59. 124. 43. 10. 5. 54. 19. 12. 41. 3. 48.
      73. 377. 263. 56. 34. 70. 30. 39. 121. 24. 27. 89. 91. 26. 39. 49.
      83. 14. 21. 33. 138. 78. 33. 14. 26. 29. 73. 98. 22. 13. 4. 32.
      61. 169. 230. 84. 13. 22. 51. 124. 187. 86. 28. 3. 133. 173. 84.
      32. 33. 118. 31. 14. 2. 53. 5. 29. 19. 3. 33. 52. 353. 909. 36.
      52. 73. 37. 53. 82. 55. 50. 169. 108. 35. 41. 29. 28. 5. 53. 55.
      120. 49. 51. 11. 31. 53. 76. 130. 10. 13. 1. 58. 72. 122. 58. 72.
      10. 26. 55. 32. 60. 7. 15. 1. 147. 33. 45. 11. 25. 103. 11. 8. 0.
      81. 6. 27. 11. 3. 20. 33. 327. 728. 47. 39. 51. 45. 59. 51. 38.
      59. 137. 57. 54. 60. 59. 51. 7. 38. 47. 107. 126. 75. 21. 56. 60.
      48. 76. 38. 19. 4. 49. 71. 163. 79. 47. 12. 26. 70. 43. 118. 45.
      12. 4. 123. 42. 60. 8. 28. 70. 18. 14. 3. 52. 14. 27. 8. 3. 39.
      44. 345. 408. 43. 36. 58. 60. 57. 86. 35. 53. 85. 58. 72. 46. 70.
      49. 10. 31. 53. 109. 94. 56. 27. 65. 39. 88. 126. 28. 18. 4. 52.
      48. 129. 133. 50. 17. 25. 46. 72. 159. 35. 24. 4. 75. 46. 51. 28.
      27. 121. 16. 19. 2. 73. 18. 29. 21. 5. 41. 72. 492.</_>
    <_>
      583. 33. 29. 54. 39. 40. 56. 27. 32. 142. 33. 51. 49. 74. 92. 16.
      57. 69. 77. 114. 45. 6. 50. 54. 51. 50. 19. 21. 1. 58. 77. 86. 27.
      22. 10. 20. 61. 151. 280. 19. 9. 2. 124. 108. 108. 12. 36. 48. 19.
      14. 2. 49. 30. 19. 12. 2. 41. 65. 419. 345. 23. 32. 55. 50. 33.
      54. 35. 33. 38. 42. 19. 45. 51. 30. 5. 28. 53. 236. 230. 27. 13.
      67. 41. 82. 289. 19. 3. 0. 34. 67. 263. 82. 71. 12. 25. 37. 73.
      480. 35. 23. 3. 48. 53. 57. 13. 8. 61. 7. 16. 2. 46. 22. 35. 12.
      1. 7. 25. 298. 313. 11. 43. 69. 106. 72. 84. 24. 56. 29. 32. 2.
      50. 77. 29. 18. 10. 41. 137. 201. 50. 15. 67. 27. 60. 234. 27. 4.
      2. 25. 41. 414. 302. 70. 31. 53. 41. 47. 235. 40. 11. 4. 22. 17.
      49. 12. 12. 30. 3. 22. 4. 47. 8. 50. 8. 2. 14. 44. 346. 105. 44.
      11. 33. 9. 17. 86. 7. 44. 151. 166. 56. 46. 157. 632. 44. 14. 45.
      63. 109. 93. 22. 15. 37. 81. 49. 35. 35. 10. 24. 57. 41. 98. 42.
      18. 7. 42. 100. 48. 24. 16. 3. 102. 237. 69. 37. 35. 162. 33. 18.
      10. 53. 16. 12. 31. 3. 30. 41. 269. 67. 33. 6. 25. 10. 28. 85. 10.
      37. 112. 229. 20. 29. 66. 174. 44. 13. 22. 59. 138. 66. 14. 17.
      25. 108. 101. 34. 8. 1. 7. 42. 58. 136. 59. 13. 11. 24. 146. 102.
      29. 11. 2. 213. 531. 105. 15. 41. 268. 83. 16. 5. 74. 22. 13. 22.
      6. 34. 34. 191. 191. 97. 14. 50. 18. 36. 114. 22. 36. 74. 145. 85.
      62. 103. 93. 32. 12. 54. 129. 108. 71. 10. 21. 29. 106. 260. 34.
      32. 6. 21. 72. 71. 121. 82. 10. 10. 26. 82. 62. 40. 26. 6. 106.
      197. 53. 32. 98. 122. 31. 10. 5. 54. 10. 12. 23. 6. 70. 50. 342.
      326. 39. 18. 30. 28. 25. 118. 19. 28. 84. 83. 47. 42. 42. 33. 10.
      32. 44. 66. 49. 43. 11. 45. 58. 153. 233. 23. 21. 8. 31. 51. 118.
      247. 84. 17. 16. 65. 88. 180. 39. 12. 1. 114. 43. 66. 25. 38. 158.
      16. 35. 6. 99. 12. 28. 11. 2. 41. 47. 446. 171. 26. 11. 41. 38.
      29. 98. 22. 47. 62. 115. 38. 43. 57. 130. 21. 11. 35. 170. 105.
      54. 12. 41. 34. 108. 225. 22. 8. 1. 19. 58. 272. 209. 51. 16. 28.
      42. 102. 233. 45. 21. 2. 112. 85. 43. 12. 24. 184. 32. 21. 4. 82.
      20. 28. 16. 3. 27. 32. 296. 264. 27. 48. 57. 37. 63. 110. 59. 64.
      107. 63. 17. 86. 131. 46. 13. 29. 51. 211. 151. 91. 15. 37. 27.
      61. 192. 26. 17. 5. 31. 63. 213. 165. 55. 12. 31. 32. 130. 332.
      29. 11. 1. 38. 64. 71. 12. 11. 23. 12. 12. 1. 38. 12. 22. 11. 2.
      20. 35. 300.</_>
    <_>
      583. 84. 38. 60. 27. 27. 56. 39. 31. 68. 33. 92. 150. 57. 42. 9.
      49. 52. 88. 31. 60. 11. 35. 51. 51. 32. 37. 108. 13. 52. 99. 104.
      36. 35. 9. 14. 50. 72. 30. 35. 22. 6. 156. 79. 53. 58. 68. 62. 15.
      15. 7. 38. 10. 14. 13. 8. 94. 95. 531. 174. 79. 22. 46. 26. 23.
      53. 25. 16. 22. 42. 81. 123. 60. 45. 14. 22. 48. 183. 95. 42. 14.
      31. 31. 64. 141. 176. 98. 15. 19. 100. 126. 96. 65. 20. 22. 24.
      63. 77. 107. 43. 9. 20. 42. 62. 103. 61. 66. 12. 30. 11. 53. 19.
      36. 36. 13. 80. 120. 548. 165. 91. 14. 47. 19. 21. 101. 17. 32.
      44. 114. 109. 104. 53. 30. 23. 16. 44. 88. 55. 63. 27. 18. 25.
      135. 160. 62. 83. 20. 20. 111. 91. 121. 102. 9. 22. 45. 46. 35.
      90. 36. 12. 43. 43. 32. 107. 83. 91. 23. 30. 12. 106. 7. 12. 39.
      8. 90. 124. 524. 634. 99. 31. 82. 27. 39. 153. 46. 48. 118. 184.
      50. 49. 44. 27. 18. 19. 46. 75. 32. 44. 11. 30. 32. 46. 67. 21.
      33. 8. 45. 81. 109. 178. 100. 13. 17. 32. 47. 59. 44. 30. 4. 114.
      36. 46. 41. 76. 56. 7. 18. 5. 60. 9. 17. 12. 0. 51. 67. 407. 168.
      120. 15. 54. 23. 24. 116. 18. 31. 27. 62. 82. 76. 49. 49. 21. 18.
      28. 69. 70. 40. 18. 29. 18. 56. 110. 59. 90. 10. 27. 141. 177.
      142. 90. 21. 22. 25. 69. 138. 155. 41. 10. 36. 61. 74. 105. 86.
      71. 18. 17. 16. 73. 17. 22. 31. 9. 63. 90. 497. 168. 111. 26. 72.
      23. 30. 91. 13. 24. 41. 81. 81. 122. 65. 68. 26. 14. 46. 53. 65.
      66. 22. 18. 28. 74. 36. 50. 97. 13. 26. 127. 86. 81. 102. 18. 14.
      29. 100. 102. 72. 52. 13. 44. 66. 87. 111. 92. 94. 26. 24. 11. 64.
      10. 12. 28. 9. 86. 116. 568. 1195. 47. 53. 67. 38. 40. 31. 45. 42.
      155. 35. 46. 40. 33. 30. 12. 58. 55. 90. 22. 36. 9. 43. 42. 26.
      32. 6. 14. 1. 94. 103. 130. 37. 48. 7. 23. 49. 41. 56. 4. 10. 1.
      216. 48. 58. 11. 47. 41. 8. 6. 2. 43. 9. 19. 9. 1. 48. 26. 356.
      731. 69. 54. 61. 52. 48. 67. 50. 51. 76. 36. 43. 50. 44. 34. 8.
      26. 29. 84. 41. 40. 13. 45. 47. 54. 64. 31. 14. 2. 97. 89. 158.
      114. 68. 12. 32. 73. 110. 68. 35. 32. 5. 128. 95. 61. 30. 38. 34.
      18. 21. 1. 47. 13. 24. 17. 5. 29. 72. 404. 381. 88. 31. 55. 19.
      41. 101. 28. 35. 65. 114. 71. 80. 64. 49. 31. 18. 33. 93. 58. 71.
      25. 31. 25. 99. 83. 58. 65. 14. 31. 65. 124. 125. 97. 9. 30. 48.
      61. 73. 63. 34. 6. 75. 53. 67. 55. 65. 67. 27. 23. 6. 64. 24. 23.
      43. 11. 62. 78. 459.</_>
    <_>
      279. 127. 18. 75. 24. 37. 83. 15. 36. 141. 174. 130. 47. 65. 149.
      38. 16. 42. 128. 115. 44. 14. 24. 26. 60. 73. 34. 28. 5. 7. 33.
      78. 43. 53. 19. 28. 28. 81. 70. 35. 42. 6. 138. 181. 49. 27. 97.
      158. 47. 13. 4. 46. 11. 24. 20. 8. 109. 90. 504. 173. 60. 12. 38.
      23. 33. 78. 14. 26. 98. 168. 83. 44. 86. 128. 40. 24. 54. 125. 92.
      75. 20. 29. 54. 136. 199. 38. 27. 9. 9. 53. 77. 119. 68. 10. 15.
      41. 107. 77. 40. 26. 6. 141. 208. 78. 31. 41. 158. 43. 24. 8. 83.
      42. 23. 36. 12. 56. 66. 412. 316. 86. 21. 39. 23. 42. 56. 19. 28.
      106. 133. 73. 47. 61. 143. 35. 31. 54. 62. 82. 53. 18. 40. 43.
      113. 150. 25. 23. 7. 27. 52. 86. 161. 73. 26. 18. 44. 64. 191. 40.
      20. 11. 113. 98. 67. 39. 70. 119. 28. 29. 13. 95. 23. 24. 30. 9.
      53. 84. 460. 369. 59. 26. 58. 68. 44. 82. 17. 36. 92. 95. 75. 47.
      60. 81. 19. 19. 42. 149. 137. 44. 18. 56. 37. 49. 115. 33. 34. 6.
      14. 46. 158. 196. 64. 23. 36. 31. 59. 169. 73. 19. 5. 138. 91. 61.
      18. 55. 143. 44. 14. 4. 42. 18. 34. 14. 6. 66. 52. 436. 119. 46.
      12. 66. 34. 35. 132. 7. 27. 95. 154. 29. 35. 77. 145. 38. 15. 32.
      86. 114. 77. 13. 43. 23. 97. 148. 39. 34. 1. 11. 56. 195. 257.
      116. 19. 19. 46. 127. 246. 90. 37. 5. 81. 180. 78. 39. 33. 162.
      37. 19. 8. 69. 13. 26. 19. 3. 22. 37. 273. 137. 42. 15. 41. 37.
      44. 98. 32. 61. 142. 252. 34. 48. 139. 215. 61. 9. 27. 68. 278.
      110. 37. 20. 26. 81. 167. 34. 40. 8. 8. 29. 94. 94. 55. 21. 24.
      22. 112. 174. 38. 19. 13. 52. 138. 81. 17. 37. 95. 19. 17. 1. 58.
      28. 24. 20. 7. 39. 59. 398. 273. 65. 27. 36. 59. 48. 86. 34. 47.
      122. 143. 73. 53. 108. 181. 51. 16. 36. 93. 230. 82. 30. 41. 32.
      59. 128. 48. 15. 5. 14. 26. 97. 136. 66. 27. 56. 25. 48. 143. 40.
      21. 3. 78. 51. 39. 14. 72. 158. 30. 16. 4. 49. 22. 37. 18. 3. 78.
      71. 433. 122. 33. 15. 40. 62. 43. 63. 11. 39. 21. 40. 22. 27. 67.
      59. 33. 9. 21. 148. 387. 68. 31. 60. 43. 67. 238. 88. 21. 7. 12.
      25. 139. 293. 69. 25. 59. 41. 79. 352. 90. 25. 10. 30. 53. 74. 19.
      15. 49. 30. 26. 6. 71. 40. 69. 20. 8. 24. 75. 383. 169. 53. 10.
      29. 48. 22. 72. 17. 44. 61. 99. 90. 59. 63. 98. 33. 13. 55. 90.
      155. 77. 30. 39. 38. 99. 130. 69. 31. 10. 13. 39. 87. 116. 73. 21.
      33. 36. 94. 173. 44. 26. 5. 122. 196. 76. 25. 51. 165. 61. 13. 18.
      76. 27. 29. 27. 8. 71. 93. 475.</_>
    <_>
      585. 113. 25. 60. 22. 41. 38. 48. 44. 135. 61. 144. 57. 53. 57. 8.
      40. 49. 69. 18. 50. 6. 28. 86. 70. 14. 19. 21. 5. 32. 60. 71. 27.
      41. 11. 13. 75. 78. 97. 18. 33. 3. 292. 129. 63. 25. 72. 157. 18.
      16. 5. 53. 15. 19. 36. 8. 78. 66. 519. 367. 113. 20. 54. 37. 41.
      59. 19. 29. 136. 95. 114. 39. 82. 87. 26. 28. 46. 53. 75. 60. 3.
      41. 39. 70. 62. 23. 19. 3. 41. 60. 131. 59. 38. 19. 18. 50. 111.
      289. 44. 24. 6. 183. 119. 62. 25. 84. 141. 31. 16. 8. 41. 15. 17.
      23. 6. 78. 72. 445. 243. 77. 34. 94. 32. 70. 96. 18. 29. 97. 98.
      59. 37. 92. 142. 29. 18. 34. 123. 123. 75. 12. 33. 30. 60. 68. 21.
      19. 1. 30. 72. 215. 128. 71. 24. 19. 41. 147. 232. 52. 39. 8. 103.
      149. 85. 22. 64. 90. 30. 16. 3. 61. 17. 12. 24. 6. 49. 62. 361.
      311. 105. 32. 46. 26. 42. 61. 27. 30. 68. 139. 108. 57. 62. 101.
      13. 26. 68. 50. 54. 58. 15. 36. 52. 77. 54. 25. 22. 5. 29. 59. 56.
      50. 50. 10. 18. 51. 104. 82. 22. 24. 2. 199. 238. 79. 38. 84. 278.
      52. 18. 7. 83. 17. 22. 33. 8. 74. 69. 470. 107. 45. 10. 49. 19.
      40. 134. 5. 31. 87. 219. 26. 28. 59. 152. 54. 7. 36. 107. 171. 69.
      15. 26. 28. 103. 177. 57. 22. 11. 16. 60. 142. 225. 92. 24. 13.
      43. 68. 157. 62. 31. 5. 120. 271. 50. 30. 34. 222. 51. 10. 4. 58.
      12. 15. 24. 4. 40. 47. 272. 311. 50. 30. 71. 25. 73. 166. 24. 54.
      142. 166. 45. 62. 58. 131. 35. 16. 32. 104. 94. 43. 11. 21. 29.
      85. 106. 44. 21. 3. 28. 42. 171. 210. 101. 17. 18. 33. 108. 153.
      43. 25. 3. 92. 161. 52. 10. 41. 192. 25. 5. 2. 46. 8. 20. 14. 8.
      39. 51. 326. 589. 106. 32. 58. 33. 47. 46. 39. 66. 132. 71. 124.
      66. 46. 70. 19. 55. 52. 56. 31. 42. 16. 46. 69. 103. 135. 29. 49.
      4. 42. 47. 54. 25. 32. 11. 16. 77. 55. 20. 15. 34. 7. 178. 91. 36.
      17. 85. 126. 24. 15. 4. 89. 6. 12. 25. 4. 75. 65. 578. 457. 57.
      27. 52. 35. 37. 40. 50. 45. 133. 84. 94. 75. 76. 145. 31. 46. 69.
      185. 91. 38. 14. 38. 71. 79. 275. 39. 24. 5. 39. 35. 96. 45. 43.
      11. 23. 53. 58. 43. 17. 13. 2. 160. 73. 35. 16. 53. 138. 22. 18.
      3. 63. 14. 24. 19. 2. 75. 55. 436. 352. 30. 40. 60. 48. 62. 69.
      31. 67. 77. 67. 30. 49. 147. 112. 22. 47. 68. 196. 288. 80. 22.
      58. 47. 114. 210. 63. 14. 4. 23. 32. 111. 90. 55. 32. 39. 35. 85.
      165. 33. 11. 6. 74. 53. 54. 11. 13. 91. 13. 24. 4. 66. 22. 44. 20.
      12. 20. 42. 342.</_>
    <_>
      343. 116. 34. 59. 25. 44. 54. 25. 35. 203. 151. 131. 43. 52. 135.
      43. 24. 59. 137. 44. 34. 11. 27. 21. 38. 30. 76. 27. 3. 21. 51.
      76. 39. 48. 12. 28. 27. 50. 36. 35. 18. 12. 183. 140. 35. 35. 137.
      125. 42. 6. 7. 42. 9. 19. 19. 0. 118. 115. 587. 284. 118. 32. 56.
      42. 51. 82. 22. 36. 77. 100. 96. 56. 59. 110. 45. 22. 50. 134. 82.
      63. 16. 24. 29. 66. 47. 47. 38. 6. 21. 97. 171. 75. 50. 11. 26.
      39. 59. 121. 73. 27. 7. 87. 126. 53. 49. 76. 146. 32. 14. 6. 61.
      15. 19. 35. 7. 77. 103. 523. 400. 97. 35. 50. 32. 56. 49. 62. 61.
      103. 83. 71. 80. 80. 101. 21. 30. 48. 159. 125. 43. 13. 45. 42.
      48. 76. 30. 16. 2. 46. 96. 156. 33. 39. 9. 22. 44. 131. 216. 62.
      23. 4. 80. 114. 81. 37. 78. 33. 13. 12. 4. 45. 20. 27. 18. 2. 54.
      68. 471. 335. 119. 30. 57. 31. 28. 98. 40. 39. 119. 105. 126. 69.
      72. 138. 17. 30. 53. 64. 51. 62. 12. 26. 46. 66. 75. 33. 37. 8.
      34. 69. 76. 80. 64. 14. 14. 52. 77. 51. 49. 25. 3. 123. 193. 59.
      49. 97. 150. 30. 15. 5. 38. 14. 22. 28. 3. 101. 78. 497. 143. 80.
      16. 97. 27. 16. 54. 18. 30. 107. 113. 145. 125. 110. 168. 40. 16.
      75. 162. 128. 58. 17. 23. 33. 80. 104. 96. 73. 10. 16. 44. 168.
      106. 52. 8. 16. 17. 61. 110. 101. 62. 1. 79. 130. 48. 20. 74. 152.
      24. 10. 4. 49. 11. 15. 45. 6. 137. 53. 313. 315. 54. 30. 73. 26.
      50. 103. 30. 66. 135. 135. 36. 72. 84. 104. 29. 19. 80. 213. 196.
      63. 8. 15. 35. 88. 138. 30. 17. 4. 28. 70. 168. 84. 50. 9. 13. 32.
      79. 204. 50. 23. 2. 96. 129. 49. 29. 44. 194. 10. 6. 3. 57. 5. 12.
      18. 2. 45. 43. 294. 326. 112. 26. 63. 42. 55. 75. 26. 49. 175.
      134. 98. 66. 103. 148. 42. 13. 34. 107. 115. 60. 20. 29. 36. 59.
      49. 32. 31. 6. 27. 42. 80. 69. 52. 25. 27. 37. 56. 35. 31. 38. 6.
      158. 79. 29. 28. 99. 140. 40. 8. 5. 43. 9. 21. 23. 4. 78. 87. 589.
      196. 64. 26. 54. 30. 32. 73. 26. 37. 40. 98. 72. 71. 64. 88. 30.
      28. 62. 192. 145. 63. 28. 29. 32. 47. 83. 138. 45. 9. 20. 55. 162.
      114. 69. 31. 32. 26. 73. 160. 119. 38. 14. 37. 78. 76. 39. 61. 66.
      33. 19. 12. 52. 28. 13. 40. 10. 67. 121. 529. 370. 56. 19. 54. 31.
      27. 43. 31. 17. 34. 59. 52. 49. 54. 64. 27. 46. 80. 313. 103. 52.
      10. 36. 49. 90. 98. 80. 24. 10. 39. 52. 153. 82. 40. 19. 30. 36.
      57. 85. 64. 21. 9. 105. 164. 52. 15. 47. 117. 45. 21. 8. 95. 15.
      42. 36. 12. 52. 90. 515.</_>
    <_>
      282. 232. 16. 69. 24. 21. 61. 15. 31. 78. 104. 205. 71. 53. 82.
      22. 16. 47. 145. 94. 64. 10. 18. 25. 37. 67. 92. 58. 10. 18. 63.
      45. 24. 35. 9. 18. 27. 52. 32. 25. 60. 8. 87. 106. 44. 33. 212.
      98. 29. 12. 3. 54. 12. 18. 36. 8. 188. 129. 562. 349. 221. 23. 65.
      14. 22. 51. 14. 16. 49. 50. 201. 49. 29. 48. 19. 27. 89. 84. 24.
      38. 10. 17. 33. 67. 50. 56. 41. 4. 23. 91. 92. 79. 53. 17. 12. 31.
      56. 60. 51. 58. 7. 107. 77. 50. 68. 183. 80. 19. 11. 8. 68. 12.
      22. 65. 3. 203. 124. 606. 641. 225. 46. 63. 18. 42. 40. 39. 45.
      143. 79. 158. 42. 30. 89. 19. 47. 53. 67. 17. 31. 12. 16. 35. 30.
      9. 10. 20. 5. 47. 89. 121. 35. 45. 10. 11. 42. 45. 38. 31. 21. 4.
      105. 48. 43. 72. 195. 65. 10. 7. 4. 41. 3. 17. 20. 2. 150. 104.
      600. 404. 170. 16. 61. 49. 48. 52. 17. 35. 53. 40. 147. 73. 47.
      34. 10. 26. 61. 82. 61. 46. 26. 34. 33. 60. 49. 46. 32. 15. 29.
      100. 144. 125. 52. 13. 27. 41. 41. 81. 84. 45. 3. 75. 48. 48. 61.
      143. 52. 13. 13. 7. 28. 12. 28. 29. 5. 132. 140. 650. 705. 161.
      20. 51. 25. 15. 39. 24. 28. 73. 51. 173. 111. 84. 69. 10. 26. 92.
      221. 220. 55. 9. 18. 22. 56. 86. 67. 46. 4. 37. 58. 80. 40. 27. 9.
      10. 25. 31. 22. 37. 51. 5. 75. 20. 30. 39. 131. 30. 6. 4. 5. 36.
      7. 8. 42. 3. 174. 69. 424. 555. 181. 39. 69. 20. 32. 40. 33. 35.
      70. 79. 293. 82. 48. 66. 16. 28. 98. 70. 34. 45. 6. 13. 16. 64.
      100. 50. 56. 7. 28. 54. 47. 20. 38. 8. 12. 21. 40. 27. 12. 47. 9.
      44. 38. 26. 30. 198. 42. 14. 11. 7. 42. 4. 7. 56. 11. 263. 111.
      584. 300. 112. 11. 63. 34. 22. 55. 14. 25. 40. 28. 217. 112. 45.
      34. 12. 20. 59. 195. 102. 38. 16. 25. 24. 42. 89. 151. 94. 12. 8.
      61. 178. 96. 45. 19. 21. 20. 34. 89. 96. 62. 11. 36. 19. 27. 49.
      107. 17. 11. 7. 5. 36. 14. 23. 48. 8. 162. 169. 627. 499. 224. 25.
      100. 27. 23. 54. 33. 23. 25. 39. 137. 95. 24. 14. 13. 29. 92. 116.
      44. 33. 11. 17. 26. 31. 60. 85. 83. 8. 30. 82. 108. 130. 42. 10.
      15. 23. 34. 58. 62. 78. 7. 40. 38. 28. 50. 187. 25. 9. 8. 7. 35.
      12. 18. 72. 15. 142. 153. 588. 1202. 184. 44. 41. 16. 29. 37. 25.
      28. 95. 38. 158. 42. 20. 37. 8. 33. 45. 159. 22. 23. 8. 14. 24.
      26. 13. 23. 23. 2. 30. 97. 103. 41. 26. 4. 8. 22. 34. 84. 37. 17.
      5. 56. 30. 25. 67. 146. 19. 7. 6. 9. 30. 12. 8. 25. 4. 147. 109.
      469.</_>
    <_>
      1499. 53. 71. 72. 23. 61. 36. 45. 47. 138. 29. 27. 39. 17. 16. 2.
      50. 45. 106. 13. 37. 8. 36. 42. 21. 24. 0. 8. 0. 71. 67. 244. 36.
      65. 3. 17. 62. 29. 26. 8. 4. 1. 183. 30. 75. 14. 22. 24. 2. 11. 1.
      36. 5. 17. 5. 0. 21. 18. 232. 1148. 48. 54. 64. 37. 43. 18. 82.
      52. 141. 15. 63. 64. 35. 28. 3. 70. 79. 126. 40. 58. 5. 43. 58.
      42. 41. 7. 15. 0. 76. 75. 167. 33. 57. 15. 25. 52. 44. 51. 1. 14.
      0. 162. 31. 56. 8. 15. 30. 12. 6. 1. 62. 12. 28. 13. 2. 15. 22.
      330. 569. 97. 40. 63. 20. 41. 44. 32. 59. 82. 47. 67. 71. 74. 61.
      14. 35. 47. 82. 80. 66. 19. 35. 39. 79. 57. 26. 38. 7. 70. 68.
      144. 74. 40. 15. 15. 43. 91. 94. 34. 36. 9. 115. 53. 78. 26. 58.
      66. 25. 32. 7. 79. 13. 20. 25. 4. 35. 78. 456. 522. 72. 41. 62.
      39. 51. 65. 46. 47. 180. 77. 65. 57. 92. 183. 22. 24. 54. 130. 62.
      65. 11. 35. 29. 32. 52. 42. 30. 2. 26. 61. 184. 77. 64. 15. 16.
      23. 78. 119. 41. 18. 1. 86. 141. 92. 20. 39. 60. 14. 2. 1. 41. 8.
      26. 21. 4. 34. 45. 348. 362. 84. 28. 65. 34. 34. 71. 36. 26. 57.
      89. 67. 68. 45. 65. 22. 28. 56. 162. 52. 52. 9. 30. 26. 69. 79.
      120. 32. 9. 26. 52. 117. 102. 79. 17. 24. 32. 76. 96. 88. 45. 2.
      83. 139. 71. 44. 70. 108. 27. 13. 8. 56. 20. 22. 28. 3. 53. 74.
      442. 390. 102. 27. 79. 16. 36. 79. 30. 36. 77. 62. 65. 40. 44. 50.
      17. 19. 65. 139. 60. 39. 17. 23. 33. 72. 88. 35. 28. 4. 47. 72.
      191. 149. 71. 14. 15. 42. 88. 82. 99. 31. 5. 83. 80. 71. 51. 75.
      103. 15. 12. 3. 65. 13. 15. 23. 9. 40. 86. 472. 743. 36. 47. 69.
      34. 74. 137. 38. 51. 145. 154. 51. 22. 43. 42. 9. 45. 52. 59. 57.
      46. 6. 24. 56. 75. 87. 16. 8. 2. 51. 53. 178. 117. 88. 19. 14. 66.
      38. 108. 16. 14. 5. 191. 44. 60. 9. 11. 171. 7. 13. 2. 78. 10. 12.
      10. 4. 15. 26. 236. 589. 59. 28. 58. 41. 49. 67. 25. 40. 107. 48.
      39. 41. 92. 58. 25. 38. 65. 143. 162. 80. 15. 55. 42. 49. 96. 36.
      15. 7. 39. 52. 142. 124. 71. 18. 33. 50. 59. 149. 34. 21. 3. 94.
      102. 47. 20. 30. 70. 13. 12. 4. 67. 15. 34. 12. 5. 28. 47. 330.
      483. 59. 46. 72. 47. 49. 68. 45. 40. 71. 36. 60. 57. 80. 70. 17.
      35. 53. 101. 78. 50. 8. 38. 37. 70. 75. 37. 37. 8. 32. 65. 108.
      66. 53. 17. 22. 41. 94. 121. 40. 30. 5. 92. 101. 63. 42. 48. 96.
      16. 19. 13. 67. 15. 30. 31. 6. 52. 85. 497.</_>
    <_>
      417. 85. 30. 52. 54. 41. 57. 26. 31. 148. 79. 98. 57. 60. 98. 27.
      21. 49. 146. 124. 56. 14. 45. 59. 61. 78. 43. 28. 2. 23. 47. 104.
      89. 49. 23. 36. 47. 49. 77. 26. 32. 5. 166. 131. 50. 12. 64. 161.
      33. 15. 4. 46. 19. 27. 19. 3. 87. 76. 490. 203. 44. 21. 64. 64.
      33. 96. 15. 34. 101. 106. 65. 64. 65. 125. 36. 12. 42. 151. 195.
      68. 30. 62. 34. 76. 162. 65. 30. 2. 7. 46. 146. 139. 69. 21. 34.
      36. 84. 180. 76. 26. 4. 110. 119. 50. 20. 58. 82. 39. 17. 6. 47.
      14. 47. 21. 3. 54. 73. 403. 282. 48. 27. 43. 50. 35. 47. 16. 28.
      69. 63. 62. 48. 74. 117. 26. 25. 64. 201. 182. 76. 18. 55. 40.
      110. 233. 69. 32. 7. 14. 34. 120. 112. 57. 23. 39. 31. 65. 129.
      54. 23. 3. 98. 129. 54. 17. 45. 140. 29. 19. 5. 86. 26. 43. 39. 4.
      55. 75. 381. 273. 60. 29. 58. 31. 36. 96. 17. 46. 100. 163. 63.
      60. 114. 98. 27. 28. 64. 109. 201. 77. 9. 40. 42. 69. 64. 42. 30.
      3. 28. 55. 93. 93. 66. 15. 14. 46. 125. 158. 47. 21. 5. 128. 294.
      81. 16. 44. 107. 35. 7. 3. 56. 22. 21. 27. 4. 51. 45. 340. 103.
      27. 18. 47. 37. 37. 109. 19. 41. 92. 159. 24. 40. 74. 78. 37. 20.
      61. 196. 331. 60. 17. 19. 35. 121. 215. 73. 14. 6. 16. 44. 141.
      274. 94. 17. 15. 43. 68. 165. 62. 23. 5. 98. 119. 58. 19. 21. 224.
      34. 14. 2. 74. 16. 14. 16. 1. 21. 44. 244. 137. 47. 17. 31. 41.
      35. 113. 16. 46. 128. 234. 51. 48. 95. 227. 48. 12. 37. 114. 196.
      77. 18. 48. 43. 94. 139. 40. 22. 8. 14. 28. 82. 135. 74. 17. 29.
      25. 68. 196. 33. 19. 3. 78. 106. 58. 23. 28. 251. 37. 22. 6. 63.
      22. 25. 26. 9. 29. 67. 361. 513. 65. 37. 58. 35. 39. 76. 34. 36.
      81. 62. 76. 45. 57. 65. 18. 53. 51. 94. 58. 35. 15. 40. 83. 96.
      87. 19. 23. 3. 46. 63. 105. 82. 60. 14. 22. 89. 107. 70. 17. 15.
      5. 173. 151. 79. 28. 60. 231. 49. 19. 6. 94. 18. 16. 25. 1. 57.
      52. 388. 172. 29. 27. 85. 40. 59. 145. 22. 46. 146. 157. 34. 31.
      126. 182. 48. 10. 35. 87. 154. 85. 31. 27. 34. 50. 89. 47. 24. 7.
      21. 61. 134. 258. 115. 31. 25. 36. 118. 254. 46. 32. 4. 72. 97.
      63. 22. 22. 85. 22. 20. 4. 51. 10. 29. 16. 4. 28. 46. 341. 300.
      44. 26. 49. 30. 34. 51. 16. 34. 43. 40. 34. 35. 107. 112. 20. 24.
      45. 147. 193. 72. 19. 43. 49. 92. 160. 54. 16. 6. 30. 51. 189.
      210. 51. 19. 30. 44. 140. 266. 72. 18. 6. 52. 169. 74. 9. 27. 117.
      12. 25. 6. 59. 19. 30. 32. 4. 37. 66. 337.</_>
    <_>
      564. 67. 34. 67. 36. 40. 52. 35. 49. 210. 49. 66. 60. 48. 55. 17.
      39. 46. 39. 34. 37. 8. 30. 54. 58. 26. 10. 14. 3. 23. 70. 93. 43.
      41. 13. 17. 68. 128. 142. 19. 18. 3. 224. 163. 115. 25. 63. 83.
      29. 16. 4. 40. 21. 11. 19. 4. 67. 40. 445. 355. 20. 39. 62. 59.
      52. 77. 37. 46. 41. 48. 27. 59. 81. 54. 13. 26. 35. 167. 200. 46.
      13. 26. 36. 51. 164. 24. 10. 5. 54. 58. 231. 163. 54. 20. 36. 45.
      162. 335. 45. 16. 4. 56. 74. 87. 11. 18. 30. 12. 14. 4. 51. 18.
      25. 8. 3. 18. 37. 332. 136. 51. 22. 81. 49. 69. 191. 14. 40. 156.
      183. 21. 29. 138. 228. 65. 11. 28. 65. 152. 103. 24. 24. 20. 21.
      38. 32. 18. 3. 4. 48. 155. 227. 131. 42. 29. 31. 106. 185. 75. 50.
      6. 26. 56. 69. 17. 34. 30. 12. 9. 4. 26. 16. 22. 9. 2. 25. 59.
      377. 127. 40. 13. 40. 29. 30. 83. 13. 40. 135. 240. 40. 52. 128.
      217. 49. 14. 56. 74. 185. 81. 23. 17. 34. 74. 91. 39. 19. 2. 14.
      42. 68. 90. 67. 20. 13. 34. 154. 99. 27. 23. 10. 133. 228. 99. 19.
      30. 150. 57. 21. 3. 64. 23. 12. 32. 5. 28. 50. 294. 92. 30. 14.
      40. 20. 23. 114. 10. 38. 67. 191. 18. 36. 114. 171. 39. 10. 33.
      109. 283. 84. 9. 23. 33. 126. 149. 39. 18. 3. 9. 33. 88. 203. 99.
      17. 13. 30. 86. 132. 39. 20. 4. 133. 290. 82. 16. 24. 188. 58. 13.
      7. 69. 17. 10. 20. 1. 19. 34. 204. 194. 53. 20. 48. 32. 23. 90.
      17. 29. 58. 127. 28. 23. 48. 93. 27. 20. 44. 62. 69. 30. 9. 25.
      40. 135. 197. 21. 8. 4. 28. 75. 166. 241. 60. 16. 25. 48. 125.
      108. 44. 23. 4. 188. 299. 84. 31. 44. 218. 44. 20. 3. 62. 6. 18.
      13. 7. 24. 40. 256. 290. 67. 28. 51. 24. 36. 113. 20. 42. 137.
      136. 52. 42. 63. 73. 25. 18. 47. 74. 45. 50. 27. 31. 47. 134. 173.
      23. 29. 11. 28. 78. 82. 117. 56. 15. 11. 51. 76. 72. 27. 13. 4.
      129. 112. 57. 30. 47. 206. 34. 23. 8. 115. 24. 16. 40. 6. 39. 60.
      410. 146. 17. 15. 37. 49. 42. 152. 19. 47. 60. 100. 23. 21. 54.
      100. 26. 15. 39. 126. 163. 40. 23. 39. 39. 96. 186. 43. 17. 3. 34.
      55. 207. 316. 63. 13. 45. 57. 122. 332. 35. 16. 0. 66. 74. 58. 22.
      13. 110. 25. 28. 8. 66. 14. 45. 14. 1. 9. 34. 275. 217. 13. 24.
      59. 57. 46. 105. 26. 59. 64. 62. 14. 37. 68. 36. 14. 23. 46. 201.
      211. 66. 25. 48. 40. 65. 232. 47. 12. 4. 26. 55. 215. 237. 69. 17.
      36. 34. 130. 401. 54. 9. 3. 29. 46. 66. 23. 11. 22. 13. 7. 3. 50.
      21. 35. 13. 5. 7. 45. 291.</_>
    <_>
      694. 132. 60. 85. 26. 75. 63. 54. 76. 156. 85. 118. 71. 52. 65.
      14. 32. 43. 43. 27. 53. 11. 33. 65. 59. 28. 13. 30. 4. 38. 49. 74.
      50. 52. 9. 14. 78. 66. 22. 14. 35. 6. 179. 92. 49. 29. 93. 75. 11.
      21. 2. 50. 16. 11. 10. 2. 78. 55. 549. 440. 144. 32. 66. 30. 60.
      75. 24. 33. 166. 117. 87. 50. 54. 83. 28. 32. 48. 47. 69. 49. 9.
      37. 35. 62. 29. 16. 22. 4. 40. 57. 65. 34. 61. 13. 21. 52. 89. 83.
      34. 55. 15. 175. 203. 63. 24. 107. 104. 46. 13. 4. 54. 10. 24. 19.
      6. 71. 81. 525. 262. 105. 39. 72. 21. 60. 104. 12. 45. 129. 149.
      92. 49. 93. 129. 41. 18. 47. 77. 65. 60. 21. 25. 30. 58. 53. 32.
      30. 7. 19. 69. 120. 121. 92. 28. 19. 34. 83. 101. 33. 42. 8. 96.
      125. 73. 57. 80. 142. 43. 22. 7. 58. 26. 27. 36. 8. 66. 85. 451.
      736. 131. 51. 56. 22. 61. 48. 53. 66. 181. 92. 121. 66. 49. 71.
      13. 38. 38. 92. 21. 57. 5. 27. 59. 46. 25. 3. 41. 2. 38. 45. 76.
      27. 44. 6. 14. 82. 45. 24. 14. 25. 3. 222. 86. 37. 13. 100. 76.
      16. 12. 1. 47. 8. 15. 11. 2. 99. 53. 584. 308. 68. 44. 64. 41. 55.
      59. 29. 46. 50. 43. 62. 60. 81. 69. 16. 35. 36. 81. 74. 73. 14.
      47. 45. 125. 116. 28. 29. 6. 33. 69. 116. 135. 52. 17. 33. 66.
      137. 145. 42. 27. 2. 121. 132. 112. 30. 54. 147. 25. 21. 7. 83.
      23. 37. 21. 3. 48. 77. 477. 139. 77. 21. 63. 37. 54. 147. 16. 57.
      128. 191. 47. 74. 85. 178. 51. 14. 43. 80. 109. 81. 25. 25. 28.
      75. 135. 42. 39. 3. 21. 66. 123. 217. 104. 21. 16. 37. 76. 107.
      49. 23. 7. 75. 160. 57. 32. 57. 144. 29. 15. 4. 50. 16. 9. 28. 7.
      67. 63. 352. 746. 116. 66. 73. 26. 73. 58. 44. 60. 211. 87. 104.
      50. 51. 76. 10. 43. 46. 52. 19. 51. 11. 39. 74. 42. 21. 17. 30. 2.
      47. 43. 63. 18. 54. 10. 15. 65. 63. 22. 14. 22. 0. 224. 88. 43.
      12. 78. 77. 9. 10. 1. 42. 14. 10. 20. 3. 77. 58. 596. 555. 103.
      39. 46. 38. 53. 56. 54. 55. 148. 102. 102. 68. 59. 96. 19. 32. 51.
      87. 53. 40. 15. 36. 73. 68. 95. 29. 25. 5. 39. 39. 70. 73. 45. 12.
      24. 59. 62. 41. 20. 27. 4. 177. 96. 35. 16. 85. 140. 34. 12. 4.
      55. 12. 21. 26. 1. 84. 76. 505. 304. 30. 28. 48. 69. 46. 98. 22.
      47. 62. 66. 32. 44. 90. 64. 29. 34. 50. 182. 213. 54. 28. 55. 53.
      100. 195. 57. 21. 2. 31. 44. 160. 194. 62. 23. 34. 46. 93. 149.
      48. 24. 5. 89. 79. 77. 23. 27. 96. 32. 22. 6. 72. 26. 51. 22. 7.
      21. 59. 351.</_>
    <_>
      410. 79. 31. 51. 31. 40. 33. 14. 27. 113. 73. 74. 44. 113. 128.
      16. 35. 65. 64. 223. 67. 12. 30. 46. 54. 32. 18. 19. 5. 17. 42.
      44. 7. 45. 20. 28. 32. 77. 210. 34. 19. 9. 130. 156. 66. 20. 72.
      56. 11. 6. 10. 43. 24. 31. 24. 8. 78. 88. 540. 232. 65. 12. 60.
      32. 31. 68. 25. 36. 75. 96. 75. 47. 82. 116. 34. 21. 53. 120. 183.
      56. 16. 46. 37. 75. 184. 61. 24. 6. 20. 53. 105. 115. 65. 13. 26.
      23. 68. 97. 79. 46. 6. 87. 127. 65. 33. 63. 96. 33. 14. 4. 52. 23.
      28. 32. 4. 51. 67. 431. 328. 79. 25. 42. 32. 43. 49. 16. 35. 67.
      50. 71. 48. 35. 62. 15. 23. 55. 70. 94. 41. 14. 46. 47. 80. 153.
      45. 18. 3. 24. 55. 118. 172. 40. 20. 22. 40. 93. 182. 34. 26. 7.
      102. 127. 83. 42. 72. 98. 23. 20. 8. 60. 19. 38. 28. 10. 76. 77.
      492. 135. 74. 11. 73. 35. 31. 105. 14. 29. 55. 114. 68. 49. 101.
      118. 17. 22. 73. 69. 137. 52. 20. 18. 29. 81. 53. 75. 36. 14. 22.
      50. 115. 130. 87. 17. 13. 35. 59. 105. 93. 54. 8. 63. 161. 53. 29.
      73. 176. 34. 24. 15. 76. 12. 13. 45. 11. 71. 84. 458. 103. 66. 17.
      24. 17. 24. 83. 13. 19. 129. 229. 83. 50. 77. 198. 54. 13. 60. 70.
      75. 70. 17. 15. 19. 84. 69. 55. 37. 7. 9. 38. 88. 96. 73. 19. 21.
      16. 107. 97. 73. 29. 7. 107. 295. 73. 30. 50. 189. 52. 12. 3. 72.
      13. 18. 53. 8. 64. 67. 338. 141. 165. 0. 76. 3. 12. 97. 4. 8. 55.
      123. 126. 53. 58. 149. 30. 8. 54. 63. 52. 49. 6. 7. 19. 99. 57.
      40. 38. 3. 5. 45. 68. 84. 65. 10. 3. 17. 94. 53. 43. 66. 4. 177.
      433. 54. 40. 167. 243. 64. 5. 3. 59. 19. 4. 50. 5. 89. 58. 272.
      432. 99. 25. 54. 38. 45. 143. 28. 56. 131. 83. 86. 48. 44. 62. 17.
      22. 53. 59. 25. 40. 14. 27. 42. 103. 107. 32. 22. 6. 32. 52. 64.
      138. 77. 13. 24. 48. 30. 29. 20. 22. 2. 139. 62. 36. 28. 78. 128.
      21. 16. 10. 97. 11. 24. 38. 4. 77. 88. 543. 246. 74. 26. 59. 30.
      36. 68. 14. 31. 61. 67. 61. 44. 63. 83. 24. 32. 49. 102. 241. 57.
      13. 37. 40. 48. 81. 57. 29. 7. 31. 73. 140. 180. 53. 14. 25. 34.
      89. 151. 68. 39. 2. 134. 119. 58. 20. 52. 87. 23. 17. 2. 57. 16.
      21. 28. 9. 73. 73. 426. 215. 49. 8. 31. 29. 26. 46. 15. 25. 38.
      107. 74. 34. 39. 39. 24. 16. 58. 126. 189. 33. 15. 66. 28. 111.
      245. 62. 22. 3. 19. 41. 102. 130. 46. 11. 26. 49. 84. 258. 49. 23.
      6. 93. 79. 74. 28. 42. 190. 34. 20. 4. 80. 33. 33. 38. 3. 55. 61.
      410.</_>
    <_>
      563. 124. 45. 53. 24. 51. 42. 45. 59. 148. 83. 146. 66. 38. 91.
      19. 44. 61. 84. 25. 45. 11. 23. 69. 43. 24. 46. 33. 4. 31. 59. 70.
      22. 44. 12. 17. 60. 53. 24. 21. 26. 5. 219. 135. 41. 31. 86. 166.
      27. 7. 5. 51. 8. 14. 31. 3. 118. 85. 516. 283. 105. 16. 68. 24.
      43. 78. 20. 42. 154. 184. 117. 61. 70. 159. 37. 18. 58. 59. 37.
      50. 15. 21. 42. 58. 34. 33. 23. 7. 28. 85. 85. 62. 63. 13. 16. 36.
      86. 46. 57. 45. 3. 142. 171. 77. 51. 94. 143. 31. 18. 7. 36. 17.
      17. 43. 9. 114. 83. 502. 484. 72. 34. 67. 23. 44. 53. 29. 39. 86.
      100. 71. 85. 54. 106. 21. 49. 76. 128. 44. 55. 11. 34. 47. 86. 98.
      26. 30. 3. 48. 90. 179. 55. 46. 8. 13. 57. 99. 104. 29. 22. 4.
      107. 203. 80. 29. 44. 100. 27. 14. 3. 62. 17. 22. 18. 3. 68. 55.
      435. 432. 86. 26. 61. 38. 36. 77. 31. 42. 140. 178. 83. 60. 60.
      112. 24. 34. 57. 108. 40. 51. 9. 32. 49. 68. 42. 34. 22. 0. 36.
      87. 78. 41. 55. 9. 12. 35. 136. 61. 17. 24. 3. 155. 163. 126. 29.
      67. 96. 25. 15. 1. 55. 12. 19. 26. 4. 75. 72. 530. 157. 62. 21.
      71. 18. 47. 82. 16. 31. 130. 169. 67. 73. 90. 157. 36. 22. 60.
      141. 160. 70. 22. 13. 39. 119. 141. 73. 45. 1. 23. 64. 120. 72.
      77. 22. 15. 48. 114. 113. 48. 29. 4. 110. 165. 76. 30. 53. 187.
      25. 12. 0. 64. 15. 16. 26. 3. 66. 49. 317. 320. 72. 39. 117. 29.
      27. 93. 38. 34. 58. 75. 75. 52. 89. 87. 16. 34. 102. 66. 69. 57.
      15. 29. 32. 90. 67. 25. 29. 11. 25. 69. 62. 119. 61. 11. 13. 34.
      98. 63. 40. 70. 13. 100. 177. 62. 29. 65. 119. 17. 9. 15. 51. 14.
      19. 77. 11. 86. 102. 618. 533. 134. 40. 61. 22. 55. 68. 37. 55.
      191. 101. 119. 55. 41. 96. 26. 37. 62. 70. 21. 44. 18. 26. 45. 62.
      24. 13. 17. 5. 28. 37. 80. 28. 59. 10. 14. 43. 52. 25. 15. 24. 6.
      203. 70. 42. 13. 118. 125. 36. 5. 4. 59. 16. 21. 27. 3. 107. 101.
      647. 278. 73. 27. 74. 25. 44. 61. 23. 38. 97. 58. 67. 90. 93. 139.
      28. 21. 60. 190. 81. 59. 20. 25. 34. 47. 68. 120. 60. 7. 24. 84.
      216. 120. 47. 14. 16. 35. 74. 143. 135. 40. 12. 52. 85. 57. 47.
      71. 50. 14. 15. 5. 34. 17. 7. 20. 12. 77. 94. 472. 1201. 68. 34.
      71. 18. 26. 28. 44. 30. 78. 28. 67. 52. 61. 61. 10. 38. 46. 140.
      59. 50. 9. 13. 29. 35. 20. 32. 45. 20. 36. 65. 118. 51. 28. 13.
      15. 23. 51. 67. 42. 60. 15. 78. 30. 53. 36. 60. 53. 12. 11. 5. 56.
      12. 14. 42. 11. 62. 78. 486.</_>
    <_>
      541. 64. 43. 63. 46. 55. 46. 56. 58. 89. 50. 107. 87. 68. 63. 14.
      82. 101. 103. 48. 52. 6. 37. 95. 92. 65. 11. 38. 3. 36. 66. 40.
      31. 31. 16. 18. 72. 98. 75. 11. 27. 2. 187. 103. 78. 21. 59. 122.
      26. 28. 5. 66. 17. 21. 23. 1. 73. 50. 510. 248. 112. 26. 88. 34.
      57. 132. 11. 33. 99. 119. 82. 42. 76. 104. 31. 16. 44. 55. 82. 55.
      11. 25. 45. 57. 37. 23. 20. 4. 15. 52. 158. 133. 113. 26. 31. 49.
      97. 172. 72. 45. 10. 128. 158. 76. 41. 80. 107. 43. 13. 4. 37. 16.
      23. 35. 4. 71. 67. 452. 253. 90. 44. 81. 45. 61. 83. 17. 40. 89.
      105. 62. 59. 90. 244. 36. 31. 51. 99. 145. 68. 18. 42. 37. 68. 86.
      37. 26. 4. 18. 38. 159. 122. 72. 30. 27. 36. 84. 208. 57. 31. 7.
      65. 84. 69. 21. 53. 80. 25. 16. 4. 44. 19. 30. 17. 10. 46. 79.
      434. 260. 59. 25. 48. 42. 65. 122. 37. 65. 105. 114. 59. 57. 94.
      95. 22. 22. 47. 105. 92. 63. 31. 33. 55. 107. 49. 17. 30. 0. 23.
      43. 88. 60. 79. 13. 18. 50. 120. 103. 23. 23. 3. 206. 308. 73. 20.
      34. 233. 40. 13. 3. 79. 12. 20. 27. 4. 33. 40. 385. 144. 37. 14.
      55. 36. 43. 93. 16. 43. 132. 160. 38. 52. 90. 170. 48. 19. 48.
      163. 169. 76. 15. 30. 42. 114. 287. 60. 26. 6. 16. 41. 129. 107.
      76. 18. 21. 35. 84. 190. 55. 36. 6. 88. 158. 58. 14. 23. 155. 40.
      12. 5. 75. 14. 15. 27. 3. 34. 45. 290. 178. 31. 27. 37. 47. 49.
      126. 22. 41. 126. 208. 56. 47. 137. 287. 53. 13. 24. 75. 164. 108.
      24. 28. 17. 61. 135. 34. 34. 6. 15. 30. 77. 147. 82. 24. 26. 19.
      71. 144. 27. 26. 10. 60. 144. 49. 18. 24. 145. 20. 17. 8. 43. 10.
      30. 24. 11. 41. 69. 490. 679. 72. 27. 46. 34. 28. 33. 34. 52. 140.
      44. 97. 60. 55. 55. 15. 47. 65. 143. 53. 52. 9. 39. 86. 136. 189.
      44. 26. 6. 31. 41. 60. 23. 29. 13. 17. 60. 38. 16. 10. 10. 1. 191.
      63. 30. 19. 51. 146. 30. 10. 2. 119. 20. 25. 39. 3. 63. 56. 514.
      272. 60. 29. 43. 40. 49. 102. 29. 58. 98. 70. 57. 55. 96. 82. 31.
      25. 74. 177. 157. 55. 17. 26. 66. 129. 162. 64. 24. 2. 20. 38.
      135. 165. 71. 19. 22. 54. 53. 119. 41. 13. 1. 123. 99. 47. 31. 44.
      113. 31. 28. 4. 82. 26. 24. 30. 4. 41. 60. 409. 201. 35. 14. 46.
      65. 38. 127. 32. 59. 88. 263. 42. 69. 106. 108. 37. 19. 32. 168.
      200. 87. 39. 46. 24. 65. 237. 69. 45. 12. 10. 28. 124. 234. 98.
      26. 54. 31. 31. 118. 54. 29. 2. 51. 35. 27. 23. 29. 40. 17. 22. 5.
      47. 13. 42. 14. 4. 23. 78. 414.</_>
    <_>
      778. 73. 25. 41. 34. 26. 24. 38. 27. 38. 18. 46. 52. 31. 22. 5.
      51. 66. 89. 45. 22. 2. 50. 65. 46. 40. 6. 12. 2. 69. 82. 133. 42.
      23. 13. 16. 103. 113. 154. 27. 19. 4. 197. 224. 100. 21. 39. 64.
      27. 17. 3. 64. 24. 23. 10. 4. 32. 48. 425. 877. 65. 78. 80. 58.
      51. 74. 32. 35. 51. 33. 15. 38. 19. 15. 10. 27. 30. 260. 91. 24.
      13. 49. 25. 36. 50. 7. 6. 1. 51. 63. 265. 240. 64. 12. 31. 41. 79.
      198. 25. 24. 2. 68. 37. 55. 18. 18. 24. 5. 16. 1. 24. 4. 23. 5. 0.
      9. 24. 318. 448. 96. 86. 143. 56. 77. 158. 19. 38. 62. 58. 27. 23.
      20. 23. 11. 14. 28. 62. 18. 32. 14. 55. 29. 18. 25. 2. 8. 3. 63.
      112. 336. 316. 126. 15. 45. 65. 76. 139. 36. 27. 4. 55. 57. 59.
      29. 41. 18. 5. 21. 7. 26. 7. 39. 7. 3. 19. 47. 441. 1233. 35. 37.
      24. 23. 38. 37. 79. 62. 308. 50. 42. 58. 92. 112. 12. 61. 43. 130.
      38. 47. 5. 12. 47. 43. 18. 5. 7. 1. 49. 34. 61. 9. 31. 8. 10. 41.
      49. 12. 9. 6. 1. 165. 133. 44. 9. 30. 107. 24. 4. 1. 42. 10. 8. 9.
      3. 26. 27. 233. 721. 23. 46. 57. 26. 67. 77. 85. 74. 173. 77. 46.
      69. 75. 80. 15. 83. 76. 191. 69. 58. 12. 19. 77. 112. 72. 11. 5.
      4. 57. 53. 86. 57. 43. 6. 20. 47. 71. 49. 10. 10. 4. 200. 82. 36.
      8. 18. 139. 9. 8. 2. 50. 12. 17. 17. 1. 19. 30. 233. 853. 36. 49.
      42. 19. 38. 48. 37. 49. 157. 55. 40. 54. 46. 49. 4. 127. 95. 109.
      49. 44. 7. 28. 89. 125. 72. 9. 15. 1. 57. 56. 176. 48. 30. 3. 14.
      63. 76. 61. 2. 5. 0. 277. 123. 53. 10. 18. 121. 14. 9. 1. 55. 3.
      15. 5. 2. 16. 16. 219. 632. 33. 39. 65. 43. 49. 73. 64. 48. 74.
      49. 50. 51. 51. 41. 7. 43. 53. 99. 47. 38. 18. 49. 51. 133. 135.
      19. 24. 9. 48. 47. 130. 110. 42. 9. 26. 50. 59. 25. 15. 13. 3. 93.
      53. 43. 20. 20. 193. 29. 25. 9. 119. 23. 25. 26. 6. 31. 61. 454.
      589. 38. 53. 50. 53. 73. 92. 37. 60. 150. 76. 36. 54. 61. 60. 18.
      28. 54. 187. 211. 65. 23. 25. 38. 76. 138. 25. 18. 2. 38. 45. 151.
      153. 46. 19. 27. 58. 51. 70. 10. 8. 7. 100. 93. 39. 13. 12. 50.
      12. 5. 2. 47. 10. 29. 13. 4. 19. 42. 331. 515. 29. 27. 34. 57. 32.
      23. 49. 44. 43. 39. 62. 78. 84. 47. 10. 84. 84. 174. 261. 67. 15.
      55. 58. 122. 177. 37. 25. 1. 49. 36. 64. 55. 29. 17. 33. 49. 43.
      52. 13. 10. 3. 116. 51. 39. 10. 16. 99. 16. 12. 5. 82. 18. 41. 19.
      4. 27. 64. 489.</_>
    <_>
      298. 91. 17. 60. 31. 25. 34. 23. 35. 114. 82. 94. 81. 138. 209.
      27. 22. 59. 62. 120. 84. 13. 29. 35. 67. 42. 31. 38. 10. 24. 56.
      30. 19. 26. 16. 10. 34. 108. 188. 15. 28. 5. 102. 158. 84. 20. 73.
      98. 16. 13. 4. 40. 14. 14. 34. 6. 78. 93. 517. 152. 14. 24. 47.
      41. 42. 95. 20. 41. 52. 120. 25. 44. 79. 44. 25. 16. 55. 219. 291.
      54. 15. 36. 41. 95. 245. 88. 18. 5. 18. 36. 171. 130. 88. 16. 20.
      28. 77. 334. 40. 22. 5. 44. 183. 82. 15. 19. 77. 20. 10. 1. 68.
      20. 24. 30. 1. 15. 28. 229. 191. 21. 30. 47. 61. 57. 60. 15. 30.
      20. 10. 18. 40. 95. 30. 5. 25. 52. 195. 222. 39. 12. 53. 37. 91.
      357. 36. 10. 7. 18. 41. 195. 137. 36. 21. 41. 35. 91. 357. 29. 22.
      8. 54. 53. 72. 11. 14. 97. 21. 21. 3. 62. 18. 45. 26. 7. 17. 48.
      428. 323. 74. 21. 53. 11. 40. 82. 18. 33. 144. 328. 87. 38. 64.
      248. 48. 21. 36. 47. 51. 48. 16. 21. 43. 65. 71. 27. 26. 5. 19.
      46. 43. 87. 75. 16. 8. 46. 83. 57. 30. 24. 2. 133. 164. 58. 32.
      50. 182. 44. 18. 11. 58. 15. 11. 18. 7. 67. 55. 346. 129. 34. 9.
      30. 16. 32. 79. 16. 30. 105. 178. 34. 26. 101. 223. 34. 14. 37.
      58. 154. 83. 13. 18. 37. 87. 69. 27. 18. 6. 11. 31. 46. 136. 68.
      11. 11. 29. 74. 39. 26. 19. 0. 209. 439. 60. 19. 29. 424. 75. 11.
      6. 69. 14. 13. 21. 5. 29. 42. 231. 147. 52. 14. 41. 13. 46. 99.
      13. 26. 125. 247. 44. 26. 75. 191. 46. 5. 20. 43. 59. 52. 15. 12.
      23. 105. 112. 22. 20. 3. 34. 45. 102. 68. 84. 18. 6. 26. 112. 120.
      38. 23. 4. 197. 431. 88. 16. 30. 309. 56. 10. 1. 76. 9. 3. 12. 4.
      31. 32. 213. 369. 105. 33. 70. 49. 42. 132. 29. 44. 94. 150. 87.
      60. 42. 69. 22. 26. 49. 41. 19. 43. 18. 36. 51. 98. 154. 17. 30.
      6. 42. 70. 40. 82. 78. 6. 14. 47. 51. 12. 18. 28. 2. 116. 99. 61.
      33. 75. 178. 31. 14. 8. 104. 13. 15. 29. 3. 87. 73. 480. 188. 44.
      14. 37. 35. 25. 70. 14. 28. 42. 31. 31. 40. 71. 72. 6. 8. 38. 159.
      119. 52. 17. 44. 42. 89. 359. 69. 23. 4. 30. 48. 145. 321. 37. 17.
      41. 46. 76. 181. 76. 22. 4. 91. 87. 58. 18. 29. 150. 34. 20. 7.
      70. 11. 38. 19. 4. 29. 63. 351. 167. 18. 12. 28. 69. 32. 67. 27.
      63. 31. 44. 38. 51. 101. 22. 18. 19. 51. 269. 324. 72. 40. 65. 41.
      70. 274. 85. 24. 10. 15. 33. 98. 134. 49. 25. 46. 35. 99. 276. 27.
      13. 2. 55. 66. 63. 14. 11. 44. 16. 21. 5. 59. 28. 45. 21. 6. 28.
      60. 368.</_>
    <_>
      982. 44. 96. 57. 50. 63. 69. 53. 60. 144. 35. 33. 41. 52. 80. 8.
      51. 51. 118. 48. 40. 6. 33. 43. 29. 23. 6. 4. 0. 58. 74. 204. 61.
      33. 12. 20. 59. 86. 183. 16. 10. 0. 121. 81. 78. 11. 16. 23. 12.
      15. 2. 42. 12. 33. 4. 0. 15. 29. 265. 344. 30. 17. 42. 39. 52.
      103. 25. 38. 76. 109. 36. 47. 101. 82. 16. 24. 59. 206. 249. 43.
      19. 32. 37. 52. 142. 37. 7. 1. 20. 60. 239. 202. 76. 19. 32. 37.
      75. 197. 31. 16. 1. 80. 110. 53. 29. 28. 57. 23. 10. 5. 34. 15.
      23. 12. 2. 19. 33. 291. 254. 57. 55. 77. 52. 49. 85. 25. 49. 65.
      141. 39. 30. 57. 55. 21. 25. 26. 88. 102. 49. 16. 30. 33. 76. 147.
      18. 11. 2. 32. 87. 221. 189. 72. 21. 44. 50. 107. 189. 37. 22. 10.
      79. 83. 103. 31. 40. 132. 24. 22. 9. 56. 10. 16. 8. 2. 24. 46.
      394. 669. 31. 51. 65. 37. 54. 106. 48. 61. 176. 101. 41. 67. 87.
      128. 24. 61. 63. 106. 51. 50. 9. 37. 58. 70. 64. 12. 13. 1. 67.
      64. 141. 78. 72. 11. 24. 52. 78. 63. 14. 12. 0. 144. 155. 47. 8.
      15. 79. 20. 5. 1. 53. 15. 20. 10. 1. 22. 32. 250. 186. 44. 22. 57.
      52. 50. 123. 34. 60. 135. 144. 30. 57. 83. 172. 29. 17. 56. 124.
      137. 71. 19. 45. 28. 93. 140. 34. 14. 4. 30. 51. 182. 283. 56. 14.
      31. 44. 92. 117. 34. 9. 3. 79. 121. 37. 11. 19. 133. 30. 21. 4.
      40. 12. 17. 18. 6. 18. 28. 294. 206. 66. 43. 46. 36. 65. 127. 18.
      61. 153. 147. 42. 34. 100. 184. 30. 23. 42. 86. 126. 61. 15. 22.
      48. 72. 83. 12. 12. 4. 21. 48. 90. 77. 89. 13. 18. 48. 168. 117.
      18. 17. 2. 156. 196. 81. 32. 41. 162. 34. 14. 8. 55. 14. 10. 18.
      4. 35. 36. 308. 665. 46. 42. 55. 43. 57. 34. 49. 69. 136. 30. 48.
      69. 64. 48. 8. 71. 81. 168. 91. 54. 11. 68. 93. 104. 149. 17. 16.
      1. 47. 58. 88. 51. 51. 15. 29. 46. 47. 38. 12. 6. 1. 144. 53. 47.
      17. 20. 95. 19. 15. 5. 76. 18. 29. 23. 5. 27. 42. 383. 622. 29.
      30. 46. 59. 51. 52. 39. 65. 86. 31. 40. 70. 97. 95. 10. 59. 85.
      306. 166. 64. 15. 45. 61. 91. 182. 27. 11. 5. 38. 54. 181. 76. 50.
      17. 24. 53. 28. 95. 8. 8. 0. 90. 30. 36. 5. 21. 52. 11. 10. 0. 57.
      13. 29. 18. 2. 27. 27. 295. 609. 21. 23. 25. 44. 24. 47. 38. 46.
      56. 118. 27. 49. 57. 71. 14. 44. 65. 325. 182. 50. 6. 45. 29. 69.
      256. 37. 13. 7. 35. 43. 132. 71. 39. 9. 31. 28. 54. 153. 10. 10.
      3. 50. 70. 56. 4. 14. 40. 7. 13. 4. 87. 16. 35. 15. 3. 19. 53.
      393.</_>
    <_>
      217. 81. 37. 43. 22. 36. 62. 26. 40. 83. 71. 73. 44. 172. 218. 29.
      23. 57. 41. 226. 82. 10. 16. 35. 53. 15. 11. 13. 2. 24. 47. 69.
      33. 35. 14. 17. 41. 125. 165. 34. 28. 5. 107. 335. 96. 20. 74.
      113. 27. 13. 5. 40. 24. 12. 41. 9. 60. 48. 395. 164. 21. 12. 31.
      21. 31. 71. 20. 22. 60. 96. 36. 32. 115. 141. 21. 17. 49. 141.
      311. 46. 9. 31. 46. 131. 233. 38. 18. 4. 19. 35. 129. 131. 40. 13.
      22. 41. 117. 171. 28. 12. 6. 120. 150. 80. 17. 26. 248. 34. 12. 0.
      84. 16. 22. 15. 3. 26. 34. 275. 109. 18. 11. 32. 57. 30. 96. 8.
      31. 31. 60. 13. 27. 50. 21. 15. 19. 55. 109. 178. 47. 24. 61. 50.
      220. 349. 44. 13. 5. 6. 35. 143. 268. 83. 19. 41. 39. 80. 223. 59.
      10. 5. 89. 69. 59. 22. 12. 205. 34. 27. 10. 136. 20. 39. 24. 5.
      13. 48. 288. 173. 59. 12. 31. 10. 29. 142. 12. 26. 171. 371. 61.
      40. 93. 403. 56. 12. 37. 33. 73. 82. 13. 10. 30. 65. 38. 21. 23.
      4. 21. 44. 44. 181. 103. 4. 4. 26. 51. 25. 22. 19. 2. 109. 163.
      37. 32. 49. 297. 43. 20. 9. 61. 8. 7. 20. 3. 35. 44. 281. 158. 37.
      16. 32. 17. 18. 88. 21. 20. 97. 195. 34. 38. 68. 191. 34. 13. 36.
      58. 157. 79. 10. 22. 20. 84. 115. 36. 14. 0. 12. 42. 67. 197. 80.
      11. 2. 34. 91. 92. 50. 24. 0. 192. 305. 77. 28. 26. 361. 76. 21.
      6. 70. 16. 3. 27. 3. 34. 33. 206. 132. 43. 12. 32. 10. 29. 73. 9.
      35. 132. 156. 38. 45. 93. 186. 32. 24. 42. 97. 56. 77. 9. 23. 38.
      110. 64. 15. 14. 5. 15. 30. 64. 68. 58. 10. 10. 41. 155. 141. 15.
      19. 2. 275. 450. 75. 20. 29. 365. 60. 7. 3. 67. 12. 11. 17. 3. 27.
      21. 193. 321. 86. 20. 39. 25. 39. 117. 21. 29. 98. 152. 69. 56.
      36. 66. 16. 27. 69. 50. 21. 28. 18. 19. 54. 129. 224. 29. 23. 5.
      24. 48. 38. 157. 63. 7. 15. 36. 38. 19. 18. 30. 9. 169. 129. 45.
      19. 72. 223. 36. 14. 3. 118. 16. 17. 30. 4. 80. 53. 478. 154. 20.
      17. 43. 36. 11. 101. 26. 35. 33. 70. 21. 46. 45. 32. 18. 31. 66.
      247. 75. 44. 13. 42. 40. 136. 441. 49. 20. 5. 21. 48. 117. 340.
      46. 14. 32. 63. 109. 221. 35. 4. 1. 71. 116. 59. 18. 5. 91. 24.
      24. 5. 94. 19. 28. 8. 4. 13. 40. 307. 211. 26. 31. 63. 67. 50.
      103. 29. 53. 69. 92. 27. 54. 132. 64. 19. 28. 50. 139. 177. 76.
      17. 46. 39. 80. 181. 37. 18. 3. 19. 53. 149. 116. 69. 38. 49. 43.
      128. 299. 44. 20. 6. 39. 70. 68. 8. 11. 34. 9. 27. 0. 58. 24. 36.
      20. 5. 9. 53. 409.</_>
    <_>
      315. 86. 31. 59. 30. 34. 51. 22. 25. 34. 19. 46. 43. 45. 18. 7.
      39. 37. 79. 99. 29. 8. 23. 55. 38. 21. 5. 9. 1. 49. 97. 115. 84.
      36. 10. 18. 89. 250. 292. 47. 31. 13. 163. 307. 169. 37. 66. 72.
      23. 12. 5. 34. 15. 21. 12. 2. 26. 41. 450. 455. 73. 60. 92. 67.
      71. 113. 34. 35. 72. 64. 30. 53. 37. 26. 16. 33. 34. 227. 105. 32.
      25. 40. 40. 41. 70. 10. 13. 2. 52. 81. 187. 255. 83. 16. 35. 72.
      67. 157. 47. 16. 5. 71. 47. 65. 25. 35. 23. 3. 11. 3. 35. 11. 25.
      5. 1. 26. 44. 421. 466. 96. 57. 84. 69. 65. 132. 37. 49. 87. 74.
      50. 36. 39. 41. 17. 32. 29. 59. 17. 41. 13. 59. 40. 31. 82. 6. 16.
      3. 56. 81. 186. 235. 75. 8. 34. 70. 99. 91. 42. 36. 5. 78. 61. 72.
      18. 61. 22. 10. 15. 3. 32. 21. 30. 7. 5. 35. 66. 513. 388. 55. 38.
      61. 21. 68. 125. 39. 60. 316. 215. 67. 56. 82. 106. 24. 40. 53.
      84. 56. 50. 13. 16. 64. 42. 34. 8. 11. 0. 35. 43. 45. 49. 62. 9.
      10. 59. 85. 45. 7. 17. 2. 274. 197. 66. 15. 40. 130. 16. 6. 2. 43.
      11. 10. 9. 2. 43. 24. 346. 304. 48. 48. 60. 33. 91. 121. 51. 70.
      204. 160. 41. 71. 88. 96. 18. 40. 67. 191. 112. 54. 10. 39. 58.
      89. 134. 15. 19. 3. 29. 42. 103. 81. 69. 19. 19. 47. 75. 120. 26.
      26. 3. 115. 93. 47. 13. 15. 139. 21. 14. 2. 52. 9. 14. 23. 1. 25.
      40. 277. 480. 21. 46. 66. 28. 51. 97. 36. 54. 134. 124. 38. 56.
      93. 126. 25. 46. 63. 129. 85. 60. 17. 38. 62. 86. 74. 20. 5. 2.
      35. 59. 132. 127. 56. 9. 25. 39. 48. 66. 15. 9. 3. 272. 122. 44.
      22. 27. 143. 19. 12. 1. 56. 8. 21. 9. 2. 22. 23. 306. 386. 42. 32.
      43. 44. 37. 85. 40. 50. 95. 99. 63. 47. 37. 35. 14. 55. 65. 89.
      35. 45. 16. 50. 83. 189. 287. 18. 22. 5. 47. 54. 62. 67. 51. 6.
      36. 61. 39. 34. 7. 9. 1. 172. 51. 40. 23. 26. 188. 18. 20. 6. 122.
      17. 45. 21. 1. 22. 62. 478. 277. 38. 41. 64. 42. 78. 126. 46. 78.
      160. 155. 39. 64. 111. 111. 36. 26. 45. 102. 197. 94. 22. 37. 45.
      71. 116. 25. 22. 3. 47. 49. 144. 183. 70. 21. 31. 47. 76. 81. 14.
      15. 3. 76. 95. 32. 13. 23. 48. 17. 15. 7. 56. 17. 21. 13. 1. 21.
      41. 346. 450. 39. 37. 52. 75. 38. 47. 55. 58. 69. 39. 55. 100. 85.
      55. 20. 54. 66. 234. 246. 83. 20. 58. 48. 82. 203. 46. 41. 4. 40.
      49. 93. 67. 48. 5. 38. 37. 35. 132. 18. 16. 2. 70. 24. 42. 8. 24.
      50. 11. 11. 4. 57. 16. 35. 13. 1. 31. 45. 413.</_>
    <_>
      198. 68. 16. 68. 20. 45. 91. 20. 36. 100. 101. 51. 47. 91. 77. 20.
      12. 62. 75. 135. 63. 25. 15. 39. 88. 73. 55. 25. 2. 23. 65. 94.
      120. 73. 13. 21. 47. 137. 168. 51. 35. 7. 110. 149. 106. 42. 25.
      138. 47. 22. 12. 77. 24. 20. 36. 6. 34. 65. 409. 389. 39. 24. 39.
      30. 42. 97. 30. 40. 86. 158. 40. 39. 71. 86. 26. 38. 61. 191. 242.
      52. 20. 36. 30. 75. 135. 62. 25. 4. 27. 42. 128. 262. 96. 20. 15.
      37. 63. 95. 35. 17. 3. 90. 104. 53. 14. 28. 52. 13. 22. 3. 52. 10.
      29. 15. 2. 29. 30. 301. 496. 87. 44. 54. 29. 80. 91. 34. 65. 189.
      93. 85. 41. 62. 96. 17. 34. 66. 72. 43. 41. 11. 40. 64. 112. 126.
      18. 22. 1. 51. 42. 49. 93. 54. 7. 24. 45. 77. 22. 15. 14. 7. 155.
      80. 35. 34. 56. 104. 18. 16. 6. 69. 10. 26. 28. 2. 48. 46. 448.
      112. 53. 17. 46. 23. 25. 138. 21. 40. 86. 147. 45. 43. 92. 125.
      30. 10. 61. 80. 131. 73. 29. 21. 39. 110. 111. 53. 38. 10. 19. 46.
      83. 159. 95. 33. 16. 47. 109. 109. 58. 30. 10. 71. 170. 82. 35.
      44. 124. 38. 25. 9. 94. 32. 14. 33. 7. 40. 65. 388. 86. 29. 12.
      32. 13. 32. 97. 9. 30. 117. 152. 43. 40. 106. 254. 51. 11. 41. 73.
      182. 106. 12. 22. 19. 91. 80. 46. 23. 1. 11. 41. 79. 171. 82. 20.
      13. 30. 115. 87. 49. 16. 2. 146. 386. 96. 21. 30. 206. 56. 13. 6.
      65. 11. 17. 28. 7. 21. 39. 220. 110. 40. 20. 49. 13. 32. 131. 13.
      29. 119. 187. 50. 33. 78. 240. 44. 9. 38. 42. 51. 53. 8. 13. 32.
      86. 68. 23. 22. 4. 20. 64. 69. 115. 88. 15. 8. 57. 161. 90. 36.
      26. 3. 230. 386. 106. 19. 36. 245. 51. 15. 3. 73. 14. 3. 23. 1.
      26. 30. 244. 381. 74. 35. 32. 40. 37. 76. 23. 36. 119. 75. 63. 59.
      64. 57. 15. 28. 78. 88. 99. 53. 12. 29. 56. 128. 145. 40. 23. 6.
      27. 42. 58. 111. 37. 14. 13. 53. 92. 90. 24. 11. 4. 149. 102. 63.
      30. 52. 145. 41. 17. 7. 122. 22. 21. 36. 5. 45. 54. 436. 383. 44.
      53. 56. 35. 59. 73. 33. 61. 113. 48. 38. 49. 85. 92. 24. 42. 56.
      94. 177. 82. 15. 36. 55. 61. 89. 37. 14. 2. 57. 64. 121. 274. 60.
      14. 18. 57. 72. 103. 50. 11. 7. 147. 70. 54. 16. 32. 78. 15. 15.
      4. 54. 10. 25. 23. 5. 30. 37. 365. 522. 65. 31. 47. 36. 43. 61.
      39. 66. 181. 65. 74. 49. 92. 73. 20. 30. 35. 83. 116. 75. 15. 40.
      37. 48. 44. 32. 26. 10. 38. 63. 114. 98. 48. 15. 13. 50. 92. 88.
      29. 13. 3. 146. 62. 69. 25. 51. 82. 13. 24. 7. 52. 16. 14. 24. 2.
      55. 63. 470.</_>
    <_>
      579. 113. 49. 67. 29. 60. 48. 41. 51. 119. 89. 101. 49. 67. 92.
      19. 57. 53. 89. 45. 54. 11. 37. 59. 70. 37. 23. 24. 10. 50. 47.
      122. 29. 55. 11. 20. 59. 57. 75. 22. 27. 9. 192. 129. 50. 15. 88.
      101. 32. 14. 5. 54. 12. 23. 22. 7. 75. 81. 471. 224. 155. 21. 83.
      25. 53. 94. 13. 44. 136. 218. 100. 53. 111. 154. 49. 8. 43. 67.
      54. 59. 16. 20. 27. 49. 28. 33. 42. 5. 18. 71. 74. 58. 80. 16. 25.
      17. 84. 43. 21. 44. 7. 102. 189. 61. 46. 149. 163. 45. 15. 8. 46.
      15. 17. 28. 12. 91. 87. 480. 254. 130. 18. 73. 30. 41. 88. 26. 36.
      85. 116. 61. 49. 77. 89. 28. 29. 62. 74. 65. 61. 16. 29. 49. 81.
      83. 42. 27. 3. 36. 103. 134. 70. 52. 13. 14. 50. 153. 190. 65. 38.
      4. 128. 177. 107. 51. 96. 110. 41. 21. 2. 67. 25. 19. 23. 7. 56.
      62. 360. 500. 186. 39. 46. 28. 36. 39. 43. 47. 81. 53. 176. 71.
      42. 69. 15. 64. 64. 99. 33. 58. 10. 36. 69. 86. 75. 23. 42. 4. 38.
      58. 64. 25. 33. 9. 22. 46. 62. 27. 10. 26. 2. 149. 82. 49. 16.
      161. 110. 22. 14. 4. 54. 14. 16. 21. 9. 128. 93. 598. 249. 179.
      18. 37. 22. 23. 61. 20. 25. 52. 105. 242. 45. 33. 68. 18. 30. 66.
      151. 99. 43. 8. 30. 36. 61. 122. 79. 32. 10. 23. 43. 89. 43. 42.
      7. 16. 31. 41. 37. 33. 32. 11. 95. 76. 47. 46. 197. 123. 12. 17.
      9. 45. 13. 13. 47. 12. 202. 123. 607. 651. 176. 36. 82. 24. 40.
      69. 57. 43. 76. 63. 148. 103. 30. 39. 13. 29. 51. 276. 39. 44. 13.
      16. 21. 25. 26. 33. 30. 6. 45. 51. 239. 39. 55. 11. 13. 19. 44.
      42. 18. 38. 5. 85. 74. 39. 12. 166. 49. 5. 4. 5. 28. 2. 12. 30. 1.
      140. 81. 485. 529. 186. 36. 90. 25. 37. 46. 28. 33. 115. 149. 152.
      45. 32. 58. 14. 38. 76. 92. 10. 31. 13. 34. 47. 46. 30. 5. 27. 5.
      47. 60. 69. 25. 53. 7. 11. 48. 44. 35. 13. 61. 9. 138. 88. 49. 22.
      172. 135. 19. 8. 4. 41. 21. 15. 46. 9. 120. 96. 602. 178. 332. 15.
      76. 33. 36. 78. 25. 35. 77. 122. 169. 42. 50. 96. 32. 11. 25. 65.
      110. 51. 32. 11. 10. 46. 67. 49. 35. 14. 16. 72. 78. 80. 71. 16.
      24. 20. 32. 43. 35. 59. 14. 58. 79. 34. 58. 268. 131. 22. 8. 15.
      42. 11. 18. 24. 5. 158. 116. 567. 957. 121. 64. 59. 26. 42. 38.
      143. 56. 166. 78. 83. 98. 130. 76. 14. 34. 40. 104. 88. 53. 6. 17.
      31. 38. 27. 10. 23. 5. 50. 63. 165. 26. 35. 9. 9. 40. 27. 30. 8.
      7. 2. 123. 43. 35. 20. 98. 95. 9. 6. 4. 38. 8. 8. 25. 5. 65. 63.
      353.</_>
    <_>
      512. 68. 59. 69. 52. 58. 47. 41. 53. 89. 49. 60. 50. 43. 35. 6.
      38. 46. 72. 61. 44. 8. 51. 63. 44. 28. 6. 5. 3. 62. 77. 120. 50.
      54. 16. 23. 75. 179. 213. 12. 23. 5. 130. 170. 120. 23. 44. 29.
      21. 15. 3. 42. 14. 27. 16. 4. 32. 57. 478. 324. 37. 34. 85. 43.
      51. 134. 15. 49. 69. 57. 23. 31. 53. 49. 12. 18. 32. 148. 161. 45.
      18. 40. 21. 21. 35. 11. 10. 1. 26. 82. 364. 403. 90. 23. 31. 53.
      101. 372. 80. 24. 6. 30. 33. 75. 26. 16. 21. 5. 13. 4. 17. 11. 31.
      3. 1. 8. 29. 289. 305. 72. 54. 91. 37. 79. 226. 31. 43. 96. 189.
      48. 50. 38. 60. 21. 30. 46. 61. 31. 33. 15. 39. 33. 37. 58. 12.
      14. 2. 44. 67. 204. 337. 142. 22. 22. 44. 61. 92. 41. 28. 8. 38.
      134. 50. 24. 45. 51. 8. 9. 4. 40. 8. 36. 17. 3. 37. 43. 384. 925.
      38. 91. 57. 27. 55. 53. 55. 40. 88. 36. 51. 46. 65. 41. 6. 56. 53.
      124. 33. 36. 6. 27. 48. 44. 27. 5. 7. 3. 74. 70. 125. 39. 41. 4.
      14. 67. 74. 47. 7. 10. 3. 143. 211. 72. 11. 33. 202. 33. 11. 4.
      46. 7. 16. 23. 2. 34. 27. 301. 289. 29. 59. 69. 69. 76. 113. 47.
      65. 105. 148. 22. 57. 147. 109. 49. 25. 53. 126. 238. 80. 19. 37.
      45. 55. 66. 8. 12. 3. 21. 40. 157. 130. 69. 21. 32. 40. 68. 181.
      17. 20. 1. 101. 86. 59. 8. 23. 120. 24. 9. 0. 38. 13. 23. 13. 2.
      23. 26. 309. 294. 56. 31. 46. 27. 60. 83. 44. 56. 165. 217. 50.
      65. 101. 221. 31. 28. 55. 87. 76. 77. 10. 34. 61. 96. 56. 17. 17.
      7. 26. 50. 49. 48. 61. 12. 17. 60. 96. 92. 14. 26. 2. 138. 140.
      78. 13. 44. 149. 33. 7. 6. 52. 14. 16. 17. 8. 36. 50. 372. 543.
      50. 36. 41. 48. 39. 37. 51. 53. 83. 31. 90. 93. 57. 63. 7. 55.
      102. 135. 45. 55. 14. 51. 77. 128. 228. 21. 26. 8. 40. 46. 62. 34.
      41. 10. 24. 54. 34. 19. 8. 16. 0. 102. 52. 45. 13. 35. 132. 16.
      15. 5. 107. 22. 33. 39. 9. 57. 60. 497. 279. 17. 18. 29. 54. 28.
      47. 46. 57. 58. 56. 65. 103. 176. 51. 11. 26. 97. 430. 442. 91.
      31. 52. 41. 80. 294. 84. 31. 6. 15. 23. 93. 71. 30. 24. 18. 13.
      32. 47. 16. 4. 1. 43. 14. 18. 6. 18. 55. 5. 7. 0. 69. 15. 19. 23.
      4. 64. 39. 308. 381. 38. 30. 39. 46. 54. 44. 47. 76. 142. 39. 91.
      110. 177. 108. 17. 33. 96. 206. 309. 105. 29. 29. 29. 89. 98. 46.
      36. 11. 19. 26. 45. 28. 35. 9. 33. 34. 34. 19. 4. 8. 2. 73. 26.
      25. 13. 43. 169. 9. 6. 4. 60. 13. 20. 31. 3. 64. 58. 426.</_>
    <_>
      260. 126. 34. 80. 26. 50. 84. 24. 37. 154. 187. 129. 56. 72. 162.
      47. 13. 47. 47. 71. 64. 24. 23. 30. 75. 33. 28. 42. 7. 12. 57. 56.
      62. 66. 20. 24. 25. 71. 72. 25. 45. 9. 121. 163. 53. 18. 128. 157.
      36. 9. 6. 32. 17. 10. 38. 5. 102. 101. 524. 238. 99. 17. 61. 24.
      25. 77. 17. 28. 108. 129. 92. 50. 86. 128. 49. 15. 62. 75. 68. 78.
      17. 29. 41. 86. 84. 49. 48. 7. 18. 61. 87. 75. 74. 20. 14. 45.
      106. 130. 65. 47. 9. 129. 130. 103. 40. 62. 145. 45. 20. 12. 79.
      26. 22. 31. 7. 70. 81. 456. 426. 151. 42. 88. 22. 59. 74. 21. 33.
      209. 157. 98. 45. 50. 138. 32. 21. 40. 50. 35. 35. 11. 26. 32. 28.
      21. 17. 10. 4. 26. 76. 134. 73. 68. 14. 20. 66. 104. 97. 38. 39.
      8. 134. 129. 96. 32. 116. 59. 21. 12. 3. 21. 13. 16. 17. 2. 77.
      85. 525. 323. 70. 17. 63. 58. 30. 69. 17. 22. 78. 60. 62. 46. 51.
      81. 23. 18. 46. 197. 137. 42. 16. 49. 49. 48. 120. 65. 26. 2. 15.
      46. 206. 164. 47. 20. 41. 46. 71. 149. 69. 30. 3. 137. 159. 59.
      21. 49. 112. 50. 15. 4. 38. 23. 50. 13. 6. 47. 88. 433. 185. 50.
      17. 93. 26. 39. 103. 11. 26. 83. 117. 40. 35. 115. 138. 24. 27.
      54. 89. 209. 82. 20. 43. 49. 74. 95. 38. 30. 6. 19. 56. 118. 89.
      71. 15. 23. 39. 130. 269. 53. 56. 8. 82. 171. 78. 24. 63. 130. 34.
      10. 6. 70. 22. 28. 22. 12. 49. 48. 383. 199. 71. 29. 60. 29. 46.
      100. 23. 39. 85. 116. 65. 52. 95. 182. 24. 17. 62. 92. 64. 58. 12.
      24. 44. 118. 141. 39. 21. 2. 21. 51. 94. 116. 82. 18. 13. 47. 141.
      141. 20. 24. 6. 161. 235. 67. 22. 51. 187. 29. 13. 5. 62. 18. 18.
      28. 5. 53. 59. 400. 251. 33. 35. 50. 78. 64. 118. 15. 49. 95. 96.
      48. 57. 95. 87. 33. 34. 54. 172. 191. 60. 23. 55. 44. 81. 161. 53.
      21. 1. 21. 55. 159. 178. 56. 32. 52. 44. 54. 115. 40. 13. 7. 117.
      73. 48. 17. 38. 142. 28. 20. 1. 68. 16. 36. 23. 2. 38. 64. 385.
      207. 30. 26. 56. 70. 46. 101. 21. 55. 74. 55. 46. 36. 66. 87. 31.
      15. 45. 138. 212. 79. 24. 47. 54. 107. 234. 72. 15. 6. 25. 40.
      146. 169. 76. 36. 39. 38. 79. 219. 74. 35. 6. 66. 93. 60. 15. 23.
      87. 31. 20. 5. 71. 24. 64. 30. 3. 32. 64. 371. 524. 86. 21. 37.
      39. 27. 46. 27. 48. 65. 62. 94. 53. 57. 74. 19. 53. 59. 118. 157.
      46. 15. 33. 38. 107. 74. 45. 30. 5. 31. 46. 125. 122. 40. 16. 45.
      38. 65. 134. 23. 19. 2. 71. 100. 49. 17. 74. 97. 20. 19. 9. 79.
      12. 30. 37. 3. 71. 103. 540.</_>
    <_>
      1483. 18. 38. 41. 14. 29. 11. 38. 47. 111. 25. 33. 62. 24. 18. 4.
      129. 98. 205. 18. 45. 8. 23. 81. 67. 57. 7. 5. 0. 49. 38. 152. 36.
      26. 3. 10. 40. 49. 88. 12. 0. 0. 148. 37. 48. 2. 13. 50. 2. 9. 0.
      47. 5. 22. 5. 1. 25. 16. 222. 932. 14. 25. 31. 42. 21. 24. 80. 59.
      99. 30. 27. 112. 75. 45. 10. 50. 85. 387. 232. 81. 18. 41. 40. 41.
      195. 40. 7. 3. 16. 37. 69. 93. 34. 13. 37. 26. 11. 65. 20. 9. 3.
      67. 17. 28. 3. 19. 21. 4. 9. 2. 61. 11. 36. 14. 1. 23. 32. 267.
      987. 23. 21. 24. 27. 22. 11. 45. 35. 62. 10. 42. 64. 49. 23. 7.
      133. 124. 159. 75. 49. 3. 35. 117. 76. 139. 28. 15. 1. 48. 57. 79.
      26. 23. 9. 20. 62. 69. 69. 7. 3. 0. 278. 96. 59. 4. 13. 100. 14.
      14. 2. 77. 12. 23. 11. 2. 18. 31. 262. 956. 22. 50. 43. 33. 47.
      52. 56. 52. 195. 160. 26. 41. 42. 133. 14. 63. 55. 126. 19. 34.
      11. 44. 50. 43. 53. 3. 7. 2. 61. 73. 146. 38. 35. 6. 10. 58. 67.
      63. 9. 9. 0. 162. 115. 64. 7. 12. 136. 15. 17. 2. 29. 14. 17. 3.
      0. 18. 26. 250. 106. 49. 14. 66. 16. 55. 167. 12. 42. 167. 324.
      34. 30. 98. 245. 72. 7. 22. 68. 84. 59. 18. 14. 22. 70. 100. 43.
      17. 0. 8. 52. 125. 213. 100. 13. 9. 24. 71. 129. 55. 53. 5. 91.
      250. 56. 20. 33. 161. 36. 7. 3. 35. 13. 10. 18. 4. 22. 41. 216.
      153. 42. 17. 55. 33. 28. 97. 12. 21. 82. 152. 26. 28. 67. 139. 32.
      17. 37. 84. 79. 53. 12. 32. 49. 78. 118. 26. 13. 1. 20. 81. 156.
      198. 75. 10. 13. 46. 160. 165. 61. 24. 3. 161. 268. 87. 45. 31.
      165. 54. 21. 7. 67. 15. 18. 20. 4. 30. 43. 263. 1291. 27. 60. 37.
      20. 38. 20. 60. 29. 62. 16. 32. 34. 33. 26. 1. 81. 58. 130. 31.
      22. 2. 41. 45. 72. 124. 9. 6. 0. 125. 109. 310. 25. 34. 4. 13. 55.
      43. 78. 6. 4. 2. 113. 37. 58. 5. 12. 79. 5. 4. 0. 57. 6. 16. 10.
      4. 14. 16. 243. 780. 21. 46. 64. 49. 47. 84. 64. 43. 104. 113. 22.
      45. 63. 82. 23. 34. 34. 132. 112. 55. 15. 33. 31. 25. 67. 23. 7.
      6. 62. 78. 282. 200. 52. 17. 25. 38. 49. 159. 32. 16. 7. 38. 40.
      48. 14. 20. 61. 11. 5. 2. 34. 10. 20. 17. 1. 17. 29. 286. 1070.
      26. 33. 35. 31. 27. 15. 61. 67. 86. 16. 45. 50. 54. 37. 4. 84. 47.
      207. 67. 54. 8. 32. 64. 102. 43. 6. 8. 2. 46. 40. 168. 43. 27. 13.
      21. 36. 52. 195. 12. 5. 1. 97. 45. 41. 9. 14. 134. 14. 15. 0. 59.
      14. 27. 19. 6. 16. 37. 307.</_>
    <_>
      945. 50. 53. 48. 33. 66. 28. 50. 64. 150. 40. 33. 44. 66. 82. 7.
      48. 52. 89. 51. 42. 14. 42. 39. 29. 32. 4. 5. 0. 55. 81. 164. 57.
      48. 5. 27. 70. 114. 214. 17. 10. 1. 93. 68. 98. 14. 23. 21. 13.
      11. 0. 47. 10. 25. 10. 3. 18. 29. 342. 290. 47. 28. 69. 40. 49.
      106. 17. 42. 76. 88. 35. 43. 88. 63. 13. 26. 54. 169. 217. 54. 22.
      31. 37. 85. 145. 32. 12. 1. 24. 75. 222. 201. 89. 14. 29. 42. 80.
      203. 42. 25. 6. 65. 127. 64. 24. 23. 91. 11. 16. 2. 51. 11. 22.
      13. 1. 22. 31. 289. 305. 52. 33. 61. 48. 56. 100. 32. 36. 52. 180.
      31. 44. 63. 59. 10. 22. 42. 83. 112. 48. 14. 42. 39. 79. 157. 19.
      13. 8. 43. 90. 171. 128. 86. 9. 27. 57. 100. 225. 36. 30. 4. 76.
      62. 86. 32. 31. 144. 28. 14. 7. 50. 14. 25. 11. 3. 18. 58. 389.
      661. 37. 47. 61. 30. 65. 109. 46. 53. 133. 89. 38. 68. 79. 142.
      17. 56. 57. 138. 55. 55. 14. 32. 59. 63. 75. 15. 9. 5. 54. 61.
      191. 109. 63. 13. 20. 51. 53. 89. 14. 12. 4. 124. 131. 45. 9. 16.
      81. 18. 10. 3. 48. 11. 22. 15. 2. 18. 28. 271. 225. 53. 23. 78.
      39. 41. 93. 28. 47. 94. 114. 53. 61. 98. 126. 28. 16. 46. 117.
      124. 64. 11. 28. 32. 84. 143. 30. 28. 4. 38. 70. 152. 226. 61. 13.
      22. 43. 84. 120. 50. 26. 4. 90. 94. 56. 27. 48. 132. 16. 18. 8.
      46. 12. 29. 20. 3. 46. 55. 357. 320. 86. 32. 56. 20. 56. 83. 31.
      55. 124. 157. 84. 42. 82. 136. 24. 24. 48. 102. 49. 69. 16. 22.
      38. 66. 64. 27. 22. 4. 39. 58. 122. 101. 69. 14. 14. 80. 114. 111.
      24. 23. 5. 126. 176. 85. 30. 55. 147. 18. 7. 6. 42. 13. 16. 11. 4.
      61. 47. 337. 862. 29. 55. 43. 38. 46. 73. 47. 56. 131. 31. 30. 57.
      52. 26. 11. 75. 82. 198. 74. 40. 14. 51. 86. 96. 204. 13. 17. 1.
      56. 55. 92. 41. 29. 6. 24. 60. 51. 42. 9. 5. 1. 160. 31. 40. 17.
      17. 70. 12. 12. 2. 81. 17. 31. 15. 2. 21. 32. 325. 620. 30. 33.
      50. 45. 50. 58. 42. 61. 106. 32. 35. 57. 80. 88. 12. 70. 83. 243.
      154. 80. 11. 35. 67. 71. 200. 27. 9. 1. 48. 47. 163. 87. 52. 12.
      32. 48. 42. 112. 19. 2. 2. 109. 44. 44. 8. 14. 66. 10. 16. 0. 58.
      11. 29. 20. 2. 26. 28. 293. 597. 22. 19. 33. 40. 29. 52. 49. 61.
      49. 129. 39. 63. 75. 73. 8. 74. 78. 307. 184. 54. 9. 36. 42. 95.
      274. 35. 17. 4. 24. 24. 64. 69. 44. 21. 16. 28. 49. 140. 16. 7. 6.
      33. 66. 45. 9. 19. 40. 17. 15. 2. 69. 14. 24. 20. 9. 21. 52. 384.</_>
    <_>
      600. 47. 35. 50. 22. 33. 25. 46. 50. 79. 24. 49. 51. 105. 106. 5.
      40. 58. 102. 122. 51. 6. 29. 45. 23. 15. 9. 10. 1. 85. 98. 96. 27.
      28. 9. 10. 94. 234. 187. 21. 12. 2. 150. 314. 135. 17. 42. 44. 17.
      10. 3. 33. 10. 13. 12. 0. 37. 27. 289. 1199. 17. 34. 40. 27. 29.
      26. 28. 31. 96. 99. 14. 58. 88. 71. 19. 32. 67. 246. 210. 41. 8.
      17. 25. 65. 154. 36. 9. 2. 33. 39. 160. 17. 40. 4. 12. 22. 50. 58.
      8. 11. 5. 106. 118. 46. 6. 14. 71. 15. 1. 0. 51. 7. 11. 11. 7. 9.
      13. 161. 1689. 6. 29. 48. 44. 33. 44. 26. 46. 62. 22. 10. 33. 28.
      14. 9. 27. 38. 293. 134. 26. 5. 31. 39. 65. 132. 13. 4. 0. 27. 38.
      221. 76. 39. 13. 24. 28. 19. 58. 8. 2. 0. 53. 18. 21. 2. 5. 27. 2.
      2. 0. 44. 3. 17. 1. 0. 4. 8. 184. 207. 40. 30. 46. 19. 40. 188.
      22. 41. 200. 282. 36. 46. 111. 278. 46. 38. 47. 65. 69. 65. 7. 24.
      51. 68. 39. 23. 18. 5. 31. 51. 131. 141. 78. 9. 6. 34. 82. 42. 25.
      11. 4. 169. 205. 52. 20. 28. 170. 36. 7. 2. 61. 16. 11. 16. 5. 24.
      28. 248. 93. 32. 4. 25. 11. 30. 80. 12. 31. 117. 171. 28. 38. 125.
      306. 43. 10. 38. 75. 177. 81. 20. 12. 24. 91. 103. 37. 25. 3. 12.
      51. 87. 153. 49. 10. 15. 45. 92. 108. 26. 13. 2. 166. 343. 69. 20.
      21. 324. 53. 7. 4. 53. 12. 18. 15. 3. 29. 34. 218. 188. 123. 20.
      62. 13. 31. 82. 27. 50. 146. 117. 90. 53. 152. 141. 29. 12. 45.
      81. 135. 67. 7. 21. 21. 82. 60. 19. 33. 3. 21. 49. 72. 86. 54. 8.
      9. 53. 104. 98. 20. 26. 4. 218. 294. 64. 18. 108. 151. 36. 12. 4.
      66. 12. 6. 15. 6. 72. 32. 266. 622. 44. 28. 43. 21. 44. 54. 45.
      44. 96. 44. 61. 60. 33. 27. 6. 68. 119. 169. 25. 34. 8. 33. 78.
      195. 187. 11. 12. 4. 50. 52. 75. 61. 36. 6. 18. 60. 50. 30. 6. 10.
      0. 234. 86. 35. 13. 28. 214. 24. 15. 2. 109. 16. 17. 15. 2. 46.
      31. 338. 1879. 3. 24. 27. 15. 30. 30. 30. 26. 104. 17. 5. 38. 38.
      29. 6. 62. 47. 172. 29. 27. 4. 18. 44. 55. 30. 6. 9. 0. 20. 28.
      216. 181. 23. 5. 5. 27. 44. 143. 18. 8. 2. 120. 15. 37. 2. 2. 26.
      9. 5. 0. 29. 4. 6. 2. 0. 7. 5. 101. 1971. 5. 34. 49. 18. 41. 37.
      38. 36. 101. 17. 13. 36. 38. 16. 2. 38. 38. 159. 18. 16. 0. 13.
      24. 18. 26. 4. 4. 0. 20. 34. 276. 165. 26. 5. 14. 26. 36. 149. 19.
      6. 2. 68. 7. 26. 2. 4. 8. 2. 3. 1. 12. 3. 18. 2. 1. 5. 8. 136.</_>
    <_>
      239. 148. 31. 62. 28. 42. 100. 21. 33. 147. 206. 127. 52. 72. 161.
      60. 17. 52. 71. 91. 58. 14. 30. 30. 60. 47. 19. 34. 8. 15. 58. 57.
      47. 66. 18. 19. 30. 62. 79. 20. 52. 7. 110. 185. 47. 31. 128. 155.
      41. 9. 5. 36. 12. 14. 29. 6. 96. 103. 499. 215. 107. 11. 63. 33.
      28. 62. 11. 36. 94. 167. 59. 71. 78. 132. 40. 17. 69. 88. 79. 86.
      26. 35. 52. 88. 110. 47. 35. 1. 18. 50. 77. 73. 66. 25. 20. 38.
      103. 128. 52. 38. 5. 107. 124. 87. 40. 84. 141. 51. 27. 5. 78. 20.
      20. 39. 6. 89. 88. 457. 383. 146. 32. 92. 29. 44. 73. 22. 39. 168.
      149. 97. 60. 48. 139. 37. 30. 35. 58. 59. 52. 8. 31. 47. 40. 24.
      20. 15. 4. 42. 75. 113. 102. 78. 17. 22. 59. 127. 130. 40. 43. 6.
      100. 115. 83. 34. 98. 48. 23. 10. 3. 32. 15. 17. 15. 3. 76. 77.
      512. 273. 77. 16. 53. 60. 37. 66. 27. 38. 79. 75. 76. 38. 71. 97.
      32. 18. 36. 187. 125. 37. 28. 46. 49. 52. 115. 53. 18. 7. 16. 41.
      171. 157. 53. 17. 42. 54. 68. 165. 68. 40. 5. 138. 144. 54. 31.
      49. 133. 49. 11. 3. 34. 26. 50. 17. 7. 55. 83. 429. 150. 57. 19.
      53. 32. 41. 120. 9. 27. 72. 116. 25. 35. 96. 125. 31. 19. 48. 109.
      276. 66. 14. 41. 58. 93. 107. 32. 18. 5. 31. 55. 117. 134. 72. 15.
      24. 55. 142. 287. 40. 22. 8. 112. 178. 88. 19. 32. 101. 34. 17. 3.
      60. 31. 30. 22. 12. 41. 69. 351. 208. 61. 19. 53. 22. 42. 96. 17.
      43. 102. 102. 64. 37. 67. 221. 36. 29. 39. 98. 75. 62. 20. 20. 56.
      105. 171. 32. 20. 2. 23. 48. 143. 137. 61. 12. 21. 57. 128. 111.
      17. 23. 3. 173. 227. 65. 23. 32. 212. 41. 16. 3. 74. 14. 25. 24.
      5. 36. 49. 374. 263. 43. 20. 46. 85. 64. 102. 29. 67. 97. 124. 62.
      50. 104. 88. 31. 19. 34. 164. 179. 64. 20. 61. 43. 80. 157. 44.
      22. 1. 26. 45. 150. 198. 52. 30. 71. 39. 57. 105. 38. 16. 2. 110.
      63. 50. 17. 53. 104. 22. 23. 1. 66. 29. 47. 24. 4. 36. 54. 401.
      208. 30. 31. 51. 67. 52. 110. 17. 52. 54. 81. 29. 42. 71. 84. 27.
      21. 38. 109. 225. 61. 22. 50. 46. 107. 231. 68. 17. 4. 28. 43.
      164. 215. 73. 31. 54. 43. 76. 196. 65. 21. 6. 66. 92. 66. 13. 20.
      101. 31. 23. 7. 80. 29. 45. 23. 6. 28. 74. 372. 432. 59. 20. 42.
      38. 24. 59. 27. 50. 65. 51. 82. 62. 69. 72. 28. 28. 43. 117. 168.
      72. 18. 37. 37. 78. 103. 48. 31. 8. 38. 49. 133. 92. 52. 20. 43.
      43. 97. 181. 43. 31. 5. 98. 109. 54. 21. 58. 131. 16. 13. 7. 60.
      11. 37. 14. 5. 47. 90. 530.</_>
    <_>
      430. 76. 23. 52. 30. 39. 53. 36. 58. 109. 69. 62. 63. 143. 111.
      23. 41. 62. 48. 151. 83. 11. 32. 52. 45. 25. 12. 20. 3. 36. 69.
      47. 34. 33. 13. 21. 53. 122. 192. 19. 23. 1. 156. 164. 96. 25. 74.
      56. 22. 10. 5. 50. 11. 21. 25. 2. 52. 59. 441. 244. 35. 12. 42.
      66. 20. 30. 25. 27. 69. 99. 39. 39. 103. 104. 26. 16. 47. 141.
      303. 66. 14. 51. 34. 58. 132. 37. 11. 5. 13. 37. 198. 157. 35. 13.
      47. 32. 65. 286. 81. 21. 5. 75. 153. 51. 19. 42. 81. 22. 11. 5.
      25. 4. 35. 19. 8. 33. 50. 376. 487. 23. 44. 70. 61. 39. 46. 40.
      28. 64. 38. 24. 44. 56. 32. 16. 40. 42. 143. 119. 32. 9. 53. 39.
      62. 258. 26. 10. 1. 29. 77. 295. 181. 36. 16. 26. 23. 114. 208.
      38. 18. 4. 88. 106. 76. 21. 25. 65. 17. 21. 2. 46. 17. 33. 14. 3.
      13. 38. 298. 160. 38. 7. 61. 30. 32. 174. 22. 46. 181. 376. 45.
      51. 157. 186. 61. 10. 44. 42. 163. 83. 18. 17. 27. 74. 31. 16. 21.
      4. 17. 48. 73. 135. 96. 13. 9. 33. 76. 30. 21. 24. 4. 135. 223.
      57. 25. 32. 185. 38. 9. 3. 27. 9. 8. 13. 5. 28. 42. 299. 73. 36.
      9. 14. 8. 18. 102. 7. 27. 101. 333. 36. 18. 83. 249. 51. 10. 32.
      43. 123. 60. 6. 8. 23. 127. 106. 27. 19. 5. 12. 41. 52. 119. 55.
      7. 15. 24. 137. 114. 14. 13. 1. 158. 354. 80. 28. 20. 367. 74. 15.
      10. 89. 5. 14. 16. 8. 35. 42. 221. 83. 35. 11. 30. 19. 32. 124.
      18. 26. 204. 321. 47. 36. 103. 339. 50. 7. 19. 48. 66. 61. 8. 10.
      13. 86. 88. 15. 13. 3. 12. 30. 64. 75. 65. 13. 6. 29. 70. 53. 30.
      17. 1. 287. 468. 32. 21. 37. 321. 47. 8. 4. 49. 2. 1. 15. 1. 40.
      14. 167. 583. 94. 36. 74. 37. 50. 125. 34. 45. 184. 119. 77. 45.
      46. 45. 17. 32. 51. 35. 22. 39. 12. 30. 33. 71. 136. 13. 10. 6.
      38. 78. 71. 71. 56. 7. 16. 51. 35. 18. 11. 13. 2. 219. 65. 43. 24.
      73. 171. 10. 15. 7. 65. 7. 19. 20. 2. 59. 63. 464. 378. 33. 37.
      50. 39. 51. 159. 30. 38. 58. 156. 27. 42. 48. 77. 16. 29. 36. 155.
      123. 47. 19. 41. 16. 55. 283. 40. 22. 7. 27. 48. 174. 284. 87. 8.
      35. 27. 63. 206. 63. 18. 3. 39. 62. 46. 13. 27. 66. 18. 10. 4. 39.
      8. 24. 16. 3. 25. 47. 292. 955. 26. 20. 31. 30. 31. 30. 43. 42.
      56. 18. 31. 51. 32. 33. 1. 56. 77. 237. 82. 32. 5. 41. 55. 71.
      198. 50. 13. 2. 23. 42. 182. 113. 21. 12. 25. 42. 102. 188. 26. 8.
      1. 84. 116. 63. 9. 11. 48. 19. 13. 2. 41. 15. 29. 12. 0. 16. 30.
      252.</_>
    <_>
      415. 121. 26. 55. 31. 50. 57. 28. 43. 171. 124. 122. 50. 60. 135.
      31. 17. 49. 71. 71. 48. 10. 39. 42. 70. 46. 26. 27. 5. 34. 48. 75.
      30. 51. 7. 25. 39. 72. 78. 24. 31. 6. 228. 135. 48. 17. 96. 144.
      48. 10. 4. 48. 14. 21. 23. 7. 105. 76. 512. 210. 123. 25. 70. 24.
      44. 98. 11. 39. 122. 195. 91. 75. 72. 152. 54. 13. 45. 70. 69. 67.
      19. 22. 36. 74. 57. 28. 32. 3. 22. 74. 66. 56. 62. 18. 21. 50.
      103. 57. 29. 44. 7. 124. 175. 73. 46. 91. 176. 56. 14. 8. 50. 30.
      30. 50. 6. 83. 94. 441. 297. 83. 19. 62. 24. 31. 81. 13. 39. 84.
      106. 80. 55. 87. 133. 22. 34. 67. 59. 72. 67. 21. 32. 46. 100. 81.
      22. 25. 4. 17. 84. 138. 68. 62. 16. 18. 61. 105. 119. 43. 31. 5.
      157. 175. 89. 24. 74. 126. 33. 24. 4. 78. 25. 17. 37. 6. 62. 78.
      474. 596. 75. 36. 57. 51. 37. 52. 48. 51. 198. 113. 92. 72. 80.
      154. 28. 57. 51. 97. 79. 46. 12. 42. 53. 62. 46. 22. 17. 3. 33.
      38. 76. 39. 42. 14. 26. 41. 47. 71. 12. 17. 8. 226. 118. 58. 16.
      63. 76. 27. 12. 1. 42. 9. 16. 15. 3. 65. 61. 497. 208. 111. 6. 80.
      17. 17. 45. 14. 25. 82. 129. 148. 68. 68. 142. 36. 19. 77. 150.
      111. 60. 8. 30. 40. 74. 172. 120. 44. 7. 7. 69. 107. 36. 44. 15.
      18. 23. 52. 52. 93. 73. 5. 46. 118. 51. 61. 87. 125. 31. 11. 9.
      69. 11. 15. 54. 5. 103. 107. 491. 798. 110. 26. 62. 23. 25. 106.
      25. 24. 129. 143. 52. 39. 26. 71. 11. 24. 28. 146. 43. 27. 6. 35.
      43. 82. 178. 40. 14. 1. 30. 63. 148. 91. 64. 12. 16. 32. 48. 44.
      46. 26. 3. 131. 135. 33. 47. 90. 179. 23. 14. 1. 51. 7. 12. 15. 2.
      48. 55. 293. 482. 102. 51. 62. 43. 57. 92. 46. 52. 230. 174. 97.
      48. 75. 128. 32. 34. 41. 42. 26. 56. 14. 22. 56. 66. 33. 11. 24.
      1. 34. 47. 43. 51. 53. 16. 25. 56. 52. 24. 15. 22. 6. 202. 84. 42.
      17. 90. 226. 31. 8. 2. 44. 10. 20. 18. 3. 79. 58. 521. 136. 39.
      14. 49. 55. 36. 123. 7. 18. 81. 168. 38. 33. 79. 122. 42. 12. 25.
      131. 257. 68. 31. 40. 21. 81. 133. 85. 25. 6. 18. 45. 161. 201.
      80. 32. 62. 39. 89. 319. 86. 29. 7. 72. 94. 60. 13. 21. 95. 30.
      27. 4. 45. 27. 37. 27. 12. 38. 52. 319. 906. 38. 21. 28. 28. 35.
      35. 38. 50. 94. 36. 62. 58. 118. 128. 20. 32. 56. 181. 129. 70.
      11. 35. 34. 44. 83. 58. 23. 8. 29. 37. 110. 82. 33. 14. 22. 35.
      67. 167. 32. 12. 2. 74. 120. 47. 22. 28. 50. 19. 6. 5. 51. 19. 24.
      25. 4. 33. 69. 399.</_>
    <_>
      441. 103. 34. 67. 35. 58. 63. 16. 41. 128. 80. 117. 46. 61. 91.
      27. 39. 48. 52. 70. 49. 19. 31. 53. 66. 37. 24. 35. 6. 35. 60. 44.
      48. 50. 14. 25. 57. 83. 83. 23. 25. 3. 235. 211. 50. 18. 91. 139.
      44. 12. 8. 46. 17. 15. 30. 5. 70. 78. 540. 254. 159. 45. 97. 32.
      48. 125. 16. 35. 143. 173. 96. 61. 72. 150. 41. 7. 37. 48. 35. 53.
      22. 14. 25. 56. 28. 22. 52. 4. 12. 65. 73. 55. 82. 14. 16. 50. 78.
      91. 36. 57. 3. 128. 155. 69. 55. 111. 146. 44. 15. 4. 48. 17. 18.
      32. 3. 87. 80. 502. 615. 57. 36. 54. 20. 45. 69. 23. 34. 100. 112.
      57. 53. 70. 78. 26. 38. 57. 82. 50. 76. 16. 29. 45. 89. 105. 30.
      32. 7. 47. 61. 121. 76. 55. 14. 11. 57. 127. 219. 45. 27. 5. 121.
      147. 88. 30. 41. 84. 41. 20. 3. 69. 12. 18. 19. 6. 40. 50. 337.
      352. 85. 34. 46. 39. 50. 98. 30. 48. 106. 77. 74. 46. 123. 93. 16.
      39. 48. 87. 156. 79. 9. 29. 69. 58. 46. 21. 15. 1. 30. 59. 89. 77.
      51. 9. 15. 43. 117. 129. 28. 23. 5. 173. 264. 91. 24. 54. 108. 31.
      11. 3. 60. 21. 18. 27. 10. 60. 52. 440. 138. 49. 15. 60. 35. 43.
      112. 11. 49. 126. 145. 41. 48. 103. 147. 54. 27. 56. 134. 165. 76.
      16. 45. 36. 99. 222. 50. 20. 5. 16. 62. 108. 145. 74. 15. 15. 30.
      104. 141. 48. 28. 5. 98. 167. 64. 23. 37. 163. 40. 23. 5. 66. 19.
      15. 18. 1. 40. 67. 332. 1236. 44. 43. 58. 32. 34. 77. 56. 39. 79.
      115. 51. 68. 49. 104. 22. 33. 38. 142. 88. 48. 15. 14. 30. 45.
      110. 13. 20. 4. 37. 64. 151. 78. 65. 11. 16. 28. 41. 52. 8. 12. 8.
      85. 80. 36. 12. 27. 88. 4. 11. 4. 50. 4. 15. 14. 3. 41. 51. 293.
      550. 75. 32. 57. 39. 56. 83. 39. 50. 117. 80. 78. 57. 48. 47. 19.
      32. 56. 91. 40. 24. 14. 39. 69. 100. 119. 14. 19. 8. 46. 43. 115.
      153. 50. 8. 35. 65. 53. 40. 17. 17. 5. 159. 64. 37. 19. 64. 173.
      22. 19. 10. 70. 15. 29. 11. 3. 65. 57. 580. 177. 34. 11. 58. 79.
      43. 108. 31. 59. 89. 163. 28. 49. 100. 105. 31. 17. 40. 166. 205.
      78. 25. 51. 41. 82. 187. 51. 29. 6. 22. 59. 155. 173. 52. 35. 52.
      42. 134. 209. 45. 14. 2. 55. 66. 59. 26. 20. 66. 21. 26. 7. 48.
      27. 47. 21. 6. 27. 66. 371. 1374. 19. 21. 44. 31. 41. 36. 20. 27.
      56. 15. 29. 33. 59. 47. 11. 44. 37. 180. 122. 44. 13. 30. 44. 61.
      102. 40. 9. 3. 38. 25. 182. 126. 39. 12. 26. 37. 64. 155. 32. 13.
      4. 110. 50. 55. 7. 13. 44. 12. 6. 2. 45. 19. 36. 13. 4. 11. 39.
      285.</_>
    <_>
      614. 29. 26. 33. 25. 32. 66. 40. 36. 94. 69. 45. 51. 90. 126. 19.
      98. 97. 195. 134. 49. 8. 37. 86. 139. 188. 55. 21. 1. 34. 34. 45.
      77. 47. 16. 14. 47. 35. 48. 16. 9. 3. 165. 76. 42. 10. 17. 108.
      13. 8. 1. 86. 18. 19. 23. 2. 24. 31. 323. 1024. 15. 36. 22. 26.
      31. 41. 37. 44. 51. 28. 33. 44. 44. 20. 8. 95. 67. 180. 139. 33.
      11. 23. 106. 88. 257. 46. 12. 2. 57. 44. 67. 47. 33. 7. 28. 57.
      39. 66. 16. 10. 0. 236. 75. 55. 10. 8. 95. 9. 12. 3. 50. 18. 26.
      9. 4. 17. 28. 205. 916. 26. 29. 27. 36. 31. 17. 32. 31. 67. 9. 20.
      45. 50. 42. 5. 49. 62. 184. 173. 38. 4. 48. 53. 69. 114. 34. 10.
      1. 66. 58. 180. 69. 24. 12. 25. 58. 92. 158. 31. 13. 2. 135. 158.
      68. 8. 14. 74. 8. 19. 1. 52. 21. 27. 14. 7. 12. 28. 238. 324. 46.
      21. 70. 25. 41. 225. 32. 43. 120. 261. 48. 45. 49. 74. 35. 15. 37.
      29. 32. 40. 24. 25. 32. 81. 67. 12. 18. 12. 38. 69. 90. 242. 125.
      13. 14. 45. 59. 63. 37. 25. 10. 82. 65. 42. 44. 40. 173. 26. 29.
      12. 71. 8. 14. 13. 4. 35. 62. 461. 122. 36. 15. 50. 20. 29. 120.
      17. 45. 65. 119. 37. 57. 79. 105. 31. 11. 55. 89. 89. 67. 30. 23.
      48. 96. 132. 54. 34. 7. 13. 66. 135. 213. 72. 14. 22. 48. 129.
      153. 55. 27. 4. 106. 271. 82. 29. 26. 159. 52. 17. 9. 74. 28. 16.
      19. 1. 37. 52. 283. 214. 73. 27. 71. 30. 38. 93. 25. 39. 93. 140.
      52. 31. 81. 190. 26. 25. 29. 70. 80. 69. 10. 24. 32. 67. 230. 34.
      18. 4. 29. 63. 151. 134. 83. 13. 9. 49. 125. 116. 50. 27. 7. 103.
      257. 73. 32. 57. 75. 25. 12. 2. 43. 14. 22. 16. 3. 38. 39. 312.
      871. 54. 54. 69. 45. 43. 98. 35. 39. 81. 45. 39. 54. 25. 27. 5.
      50. 62. 92. 22. 32. 17. 57. 45. 114. 113. 14. 20. 2. 58. 88. 117.
      89. 56. 12. 26. 63. 55. 36. 12. 15. 2. 120. 45. 56. 16. 41. 83.
      13. 19. 7. 87. 7. 37. 14. 3. 34. 46. 413. 592. 34. 46. 49. 45. 39.
      103. 32. 31. 65. 45. 18. 43. 41. 31. 9. 33. 34. 184. 192. 40. 21.
      58. 35. 45. 130. 33. 6. 3. 74. 74. 214. 192. 64. 16. 29. 60. 78.
      217. 35. 12. 1. 90. 45. 59. 9. 29. 34. 9. 18. 3. 51. 19. 28. 10.
      3. 15. 43. 326. 947. 29. 38. 50. 34. 47. 19. 50. 43. 58. 13. 23.
      38. 24. 18. 5. 50. 45. 215. 70. 29. 9. 44. 48. 79. 134. 14. 11. 3.
      53. 56. 230. 120. 34. 12. 21. 61. 69. 174. 16. 6. 3. 138. 41. 56.
      7. 10. 135. 11. 19. 4. 49. 10. 33. 9. 1. 10. 32. 287.</_>
    <_>
      424. 132. 32. 73. 32. 49. 52. 22. 35. 128. 127. 145. 44. 92. 124.
      39. 24. 52. 52. 81. 61. 15. 39. 49. 57. 40. 23. 30. 6. 35. 42. 45.
      28. 40. 19. 17. 45. 76. 81. 17. 20. 8. 149. 164. 33. 27. 132. 130.
      42. 20. 2. 42. 13. 22. 26. 8. 94. 109. 531. 234. 105. 26. 62. 25.
      49. 105. 25. 44. 135. 183. 93. 84. 94. 150. 38. 16. 43. 101. 80.
      68. 18. 24. 37. 93. 70. 23. 46. 11. 21. 64. 77. 61. 70. 19. 19.
      29. 86. 106. 47. 55. 8. 85. 117. 75. 34. 83. 132. 41. 11. 6. 60.
      12. 16. 30. 7. 72. 99. 472. 248. 101. 19. 47. 30. 35. 71. 20. 40.
      99. 103. 93. 60. 68. 148. 30. 26. 65. 86. 146. 70. 12. 50. 38. 98.
      67. 40. 36. 6. 21. 50. 70. 83. 62. 27. 34. 51. 102. 169. 44. 44.
      3. 85. 93. 72. 29. 82. 90. 42. 15. 5. 66. 23. 34. 34. 3. 86. 89.
      536. 553. 120. 36. 48. 52. 53. 57. 36. 54. 189. 103. 109. 54. 46.
      122. 42. 25. 50. 102. 53. 44. 13. 24. 56. 59. 52. 21. 29. 8. 21.
      37. 62. 50. 57. 16. 28. 36. 48. 64. 14. 30. 3. 187. 108. 46. 22.
      62. 103. 35. 14. 2. 63. 10. 25. 17. 0. 93. 85. 548. 285. 90. 25.
      56. 30. 44. 69. 18. 35. 131. 152. 72. 41. 89. 156. 38. 22. 55.
      117. 198. 55. 18. 30. 31. 48. 88. 43. 23. 2. 16. 41. 100. 68. 62.
      22. 34. 32. 80. 107. 34. 29. 8. 110. 200. 64. 40. 75. 135. 42. 14.
      7. 43. 17. 28. 31. 4. 71. 83. 438. 317. 89. 30. 53. 29. 38. 94.
      19. 22. 85. 117. 76. 50. 49. 155. 20. 26. 43. 85. 73. 40. 8. 50.
      48. 110. 234. 35. 20. 8. 31. 44. 76. 96. 55. 16. 29. 34. 76. 124.
      47. 41. 9. 116. 105. 57. 35. 56. 149. 25. 22. 10. 45. 14. 37. 34.
      13. 59. 77. 541. 597. 107. 35. 59. 28. 42. 50. 33. 49. 183. 96.
      122. 43. 43. 96. 21. 33. 41. 63. 70. 42. 9. 31. 65. 48. 44. 8. 26.
      6. 26. 43. 81. 72. 36. 11. 32. 61. 63. 62. 18. 25. 5. 220. 159.
      46. 19. 88. 128. 34. 11. 1. 44. 12. 25. 12. 3. 92. 62. 515. 247.
      45. 21. 68. 46. 53. 122. 29. 46. 83. 175. 29. 39. 66. 88. 38. 31.
      47. 191. 160. 39. 19. 57. 56. 103. 179. 42. 17. 4. 32. 64. 173.
      243. 71. 19. 36. 48. 70. 130. 65. 16. 2. 76. 93. 47. 15. 18. 103.
      23. 21. 2. 65. 20. 38. 11. 3. 23. 52. 377. 237. 65. 29. 60. 49.
      38. 66. 28. 26. 102. 143. 58. 30. 96. 184. 29. 23. 50. 153. 131.
      70. 21. 40. 26. 54. 133. 75. 23. 3. 18. 35. 123. 123. 46. 18. 33.
      35. 120. 194. 60. 20. 3. 112. 149. 71. 19. 66. 116. 22. 19. 7. 58.
      18. 30. 22. 3. 56. 68. 390.</_>
    <_>
      700. 101. 47. 50. 35. 56. 46. 46. 56. 141. 63. 127. 58. 50. 57.
      11. 61. 69. 78. 36. 48. 9. 47. 87. 90. 46. 10. 16. 0. 34. 47. 46.
      24. 37. 9. 17. 67. 51. 31. 10. 17. 0. 245. 97. 44. 13. 84. 142.
      29. 10. 0. 62. 7. 15. 18. 2. 104. 54. 539. 369. 62. 17. 46. 28.
      30. 65. 22. 40. 134. 80. 115. 55. 60. 87. 25. 25. 63. 180. 98. 53.
      14. 43. 51. 69. 100. 54. 32. 4. 14. 39. 87. 111. 47. 14. 21. 34.
      59. 102. 37. 17. 5. 185. 116. 60. 20. 72. 186. 37. 12. 3. 70. 19.
      29. 22. 3. 90. 71. 493. 320. 53. 28. 61. 36. 47. 66. 26. 28. 81.
      63. 61. 43. 52. 47. 17. 22. 51. 191. 114. 36. 12. 65. 61. 80. 150.
      47. 17. 3. 38. 83. 189. 111. 45. 17. 26. 65. 161. 159. 53. 23. 4.
      118. 202. 79. 24. 33. 64. 27. 17. 9. 63. 17. 34. 23. 4. 48. 61.
      421. 468. 86. 35. 58. 22. 43. 39. 30. 44. 189. 70. 65. 50. 35. 95.
      11. 36. 53. 45. 35. 50. 7. 38. 64. 72. 42. 11. 15. 2. 34. 74. 83.
      39. 35. 10. 9. 77. 141. 134. 20. 14. 3. 274. 241. 119. 22. 65.
      160. 44. 25. 4. 68. 20. 17. 13. 4. 46. 41. 450. 148. 38. 15. 55.
      31. 46. 104. 17. 40. 122. 209. 41. 45. 78. 217. 41. 13. 40. 98.
      160. 68. 27. 41. 44. 78. 207. 55. 23. 4. 15. 31. 129. 249. 97. 28.
      24. 39. 89. 107. 59. 30. 9. 77. 171. 70. 14. 29. 126. 43. 22. 3.
      72. 15. 25. 20. 5. 30. 48. 315. 256. 42. 18. 52. 38. 61. 119. 22.
      57. 87. 204. 36. 54. 99. 165. 39. 23. 39. 150. 192. 69. 16. 25.
      28. 90. 198. 34. 21. 7. 38. 54. 142. 91. 99. 9. 28. 23. 85. 117.
      19. 21. 3. 97. 160. 56. 12. 34. 163. 24. 13. 8. 60. 15. 26. 14. 4.
      33. 45. 362. 625. 97. 53. 74. 37. 53. 51. 50. 67. 157. 44. 102.
      62. 51. 58. 16. 38. 48. 64. 38. 52. 12. 43. 60. 75. 110. 20. 29.
      5. 51. 49. 73. 42. 54. 15. 28. 65. 62. 38. 15. 28. 3. 206. 73. 64.
      16. 61. 127. 20. 16. 6. 86. 16. 27. 16. 3. 66. 66. 513. 251. 75.
      30. 49. 53. 35. 108. 19. 45. 105. 131. 70. 34. 61. 134. 43. 16.
      33. 97. 164. 63. 31. 60. 32. 62. 114. 52. 17. 5. 12. 41. 151. 182.
      66. 22. 39. 35. 78. 205. 67. 20. 2. 85. 94. 63. 21. 54. 73. 30.
      23. 2. 50. 20. 48. 15. 3. 46. 83. 477. 272. 36. 22. 54. 69. 57.
      56. 9. 33. 62. 55. 36. 30. 81. 115. 25. 31. 41. 148. 172. 50. 16.
      53. 41. 88. 117. 33. 20. 4. 17. 48. 185. 187. 45. 22. 36. 36. 110.
      340. 74. 33. 15. 85. 104. 76. 20. 29. 96. 26. 22. 6. 45. 26. 42.
      22. 4. 28. 74. 417.</_>
    <_>
      608. 76. 43. 74. 39. 43. 32. 29. 43. 123. 40. 78. 60. 77. 70. 10.
      45. 61. 50. 149. 55. 13. 47. 50. 33. 20. 14. 17. 1. 51. 76. 53.
      15. 33. 13. 17. 54. 118. 222. 9. 20. 7. 160. 102. 86. 25. 53. 50.
      12. 18. 7. 30. 18. 23. 14. 6. 64. 60. 478. 475. 29. 31. 43. 40.
      34. 51. 26. 29. 54. 87. 34. 31. 51. 33. 12. 29. 43. 178. 220. 45.
      9. 40. 42. 113. 231. 31. 8. 1. 26. 63. 361. 40. 50. 14. 28. 29.
      50. 367. 27. 17. 1. 49. 72. 45. 12. 25. 63. 18. 13. 3. 59. 6. 30.
      13. 3. 24. 35. 301. 1216. 19. 42. 52. 36. 44. 25. 39. 33. 56. 16.
      25. 46. 28. 20. 6. 30. 44. 171. 81. 19. 9. 45. 38. 69. 241. 13. 8.
      0. 42. 60. 301. 53. 39. 16. 30. 32. 55. 165. 7. 9. 2. 64. 31. 35.
      10. 10. 51. 11. 6. 2. 50. 16. 35. 5. 3. 8. 24. 251. 195. 51. 17.
      31. 22. 28. 95. 18. 23. 123. 184. 48. 27. 122. 451. 29. 34. 28.
      45. 59. 74. 5. 13. 55. 57. 37. 14. 15. 3. 31. 54. 42. 46. 59. 8.
      5. 61. 122. 59. 19. 14. 4. 263. 453. 62. 21. 31. 176. 58. 8. 5.
      37. 12. 6. 17. 6. 27. 31. 254. 71. 27. 10. 45. 15. 36. 95. 7. 30.
      104. 218. 27. 38. 105. 203. 44. 15. 47. 71. 134. 61. 7. 19. 32.
      95. 112. 34. 22. 0. 14. 41. 84. 98. 73. 19. 11. 32. 131. 153. 46.
      29. 5. 192. 344. 86. 25. 24. 280. 86. 19. 4. 70. 13. 12. 20. 7.
      24. 36. 192. 113. 46. 40. 64. 17. 62. 142. 17. 31. 167. 257. 26.
      33. 70. 149. 43. 11. 29. 56. 79. 54. 7. 17. 36. 116. 45. 14. 9. 3.
      21. 55. 84. 125. 88. 13. 5. 44. 119. 76. 31. 17. 1. 275. 371. 70.
      14. 44. 259. 63. 5. 0. 58. 11. 6. 11. 4. 31. 30. 210. 633. 58. 47.
      58. 28. 48. 164. 28. 31. 83. 80. 44. 38. 22. 26. 9. 42. 55. 53.
      23. 26. 8. 36. 53. 111. 240. 11. 19. 8. 54. 49. 84. 209. 86. 8.
      17. 69. 35. 23. 17. 13. 4. 196. 68. 42. 11. 41. 146. 15. 17. 6.
      88. 16. 24. 12. 2. 31. 44. 385. 695. 26. 30. 51. 24. 38. 69. 17.
      21. 54. 48. 15. 27. 46. 162. 14. 41. 37. 168. 73. 56. 7. 21. 28.
      32. 103. 9. 6. 1. 27. 58. 247. 245. 45. 8. 19. 43. 146. 232. 56.
      16. 2. 66. 160. 84. 24. 12. 147. 13. 9. 2. 41. 8. 22. 16. 1. 14.
      21. 191. 1638. 21. 42. 43. 20. 31. 28. 26. 21. 38. 2. 15. 26. 21.
      3. 0. 35. 22. 191. 36. 19. 4. 26. 32. 30. 17. 6. 2. 0. 46. 75.
      223. 51. 15. 10. 17. 67. 188. 204. 9. 9. 2. 67. 140. 88. 12. 2.
      41. 6. 9. 5. 28. 8. 12. 2. 1. 2. 17. 143.</_>
    <_>
      1180. 43. 38. 41. 34. 28. 22. 49. 34. 82. 12. 46. 48. 46. 59. 5.
      95. 66. 120. 75. 36. 4. 34. 77. 86. 47. 15. 18. 2. 45. 56. 78. 18.
      29. 10. 12. 49. 47. 74. 14. 10. 1. 258. 63. 53. 12. 25. 79. 12.
      15. 1. 63. 22. 20. 11. 2. 32. 28. 313. 993. 32. 29. 43. 34. 29.
      28. 40. 31. 105. 29. 39. 64. 37. 31. 13. 33. 81. 207. 84. 41. 11.
      32. 42. 73. 237. 72. 12. 5. 51. 57. 131. 74. 46. 14. 24. 41. 46.
      30. 16. 16. 2. 108. 23. 37. 15. 41. 42. 4. 12. 1. 65. 14. 31. 24.
      0. 38. 60. 324. 768. 23. 35. 54. 26. 50. 58. 48. 53. 93. 17. 39.
      45. 45. 36. 6. 62. 52. 141. 66. 30. 6. 40. 88. 57. 124. 25. 7. 5.
      55. 58. 260. 78. 39. 13. 22. 67. 65. 173. 18. 15. 1. 195. 76. 58.
      9. 24. 61. 9. 15. 2. 50. 11. 22. 9. 2. 25. 39. 324. 772. 33. 47.
      53. 37. 57. 142. 51. 40. 143. 205. 53. 48. 41. 55. 20. 52. 52. 48.
      27. 36. 15. 25. 49. 73. 55. 11. 18. 1. 41. 35. 87. 161. 84. 22. 9.
      44. 49. 30. 17. 23. 2. 150. 120. 47. 25. 35. 138. 16. 8. 2. 57. 7.
      12. 13. 2. 36. 42. 321. 137. 54. 18. 48. 31. 40. 183. 22. 44. 61.
      184. 53. 63. 77. 164. 35. 8. 29. 52. 78. 82. 21. 23. 23. 72. 75.
      35. 32. 5. 11. 59. 179. 285. 114. 21. 16. 34. 84. 155. 68. 38. 6.
      54. 203. 58. 34. 34. 130. 31. 15. 4. 53. 13. 10. 15. 5. 44. 47.
      325. 221. 83. 20. 56. 34. 27. 75. 13. 30. 74. 153. 48. 36. 62.
      136. 22. 15. 41. 57. 71. 44. 7. 32. 36. 80. 99. 43. 30. 6. 25. 82.
      138. 120. 57. 11. 16. 42. 138. 151. 54. 22. 5. 96. 245. 107. 29.
      55. 192. 32. 18. 7. 53. 12. 14. 20. 3. 52. 67. 380. 1314. 43. 83.
      44. 44. 51. 49. 59. 55. 151. 36. 31. 53. 24. 27. 1. 64. 63. 125.
      26. 43. 13. 30. 60. 57. 121. 9. 9. 3. 72. 54. 78. 32. 48. 9. 25.
      66. 33. 19. 3. 7. 1. 115. 32. 36. 9. 37. 45. 1. 13. 4. 61. 13. 22.
      8. 2. 35. 28. 298. 1080. 37. 32. 60. 47. 30. 28. 23. 28. 68. 23.
      10. 41. 23. 17. 7. 44. 56. 111. 113. 42. 10. 43. 32. 14. 78. 18.
      5. 3. 106. 111. 283. 115. 37. 5. 25. 48. 74. 181. 41. 20. 2. 100.
      43. 55. 8. 37. 11. 5. 11. 1. 36. 13. 27. 7. 1. 19. 38. 311. 703.
      46. 36. 50. 45. 43. 62. 40. 33. 45. 20. 35. 33. 30. 22. 2. 62. 63.
      187. 40. 29. 9. 52. 42. 94. 136. 14. 6. 2. 90. 86. 211. 161. 48.
      12. 30. 66. 62. 160. 32. 5. 2. 93. 37. 55. 15. 35. 141. 15. 12. 3.
      73. 13. 31. 8. 5. 17. 37. 358.</_>
    <_>
      522. 61. 29. 63. 30. 35. 32. 32. 40. 182. 46. 75. 72. 80. 78. 17.
      36. 74. 82. 113. 63. 7. 29. 55. 62. 43. 21. 26. 6. 28. 52. 63. 31.
      34. 9. 13. 52. 95. 141. 19. 14. 6. 208. 118. 75. 20. 49. 66. 21.
      14. 4. 61. 18. 23. 29. 9. 61. 69. 481. 410. 37. 25. 55. 29. 38.
      44. 16. 27. 96. 48. 39. 53. 71. 56. 19. 37. 78. 113. 390. 45. 15.
      51. 48. 50. 107. 25. 8. 2. 38. 63. 116. 156. 59. 17. 24. 38. 64.
      153. 39. 18. 3. 142. 96. 53. 14. 47. 68. 12. 14. 0. 48. 28. 17.
      18. 4. 52. 61. 400. 557. 49. 34. 60. 36. 31. 43. 30. 45. 114. 65.
      63. 78. 54. 48. 10. 46. 98. 89. 57. 49. 12. 35. 57. 93. 122. 23.
      27. 4. 38. 66. 76. 90. 37. 6. 20. 49. 55. 89. 18. 16. 0. 165. 98.
      54. 20. 54. 111. 19. 19. 6. 64. 29. 22. 19. 5. 83. 58. 479. 193.
      41. 15. 36. 13. 33. 95. 23. 39. 101. 119. 62. 50. 150. 245. 30.
      15. 40. 65. 156. 84. 19. 16. 28. 83. 136. 41. 24. 6. 20. 73. 84.
      210. 44. 12. 17. 42. 109. 98. 46. 17. 4. 76. 149. 81. 37. 50. 143.
      35. 28. 6. 60. 12. 21. 25. 4. 54. 43. 336. 73. 24. 7. 33. 24. 25.
      96. 10. 27. 125. 206. 30. 40. 100. 193. 66. 7. 36. 50. 223. 88.
      15. 18. 27. 72. 68. 54. 18. 3. 12. 34. 90. 289. 87. 19. 10. 27.
      83. 106. 55. 29. 4. 134. 357. 72. 16. 20. 261. 67. 11. 6. 49. 16.
      13. 27. 2. 25. 31. 184. 146. 38. 31. 57. 14. 66. 142. 10. 40. 153.
      241. 27. 39. 104. 150. 47. 10. 43. 54. 121. 79. 13. 10. 41. 90.
      93. 22. 7. 2. 12. 37. 67. 114. 79. 14. 17. 25. 115. 57. 27. 21. 2.
      242. 350. 57. 20. 38. 264. 67. 10. 2. 72. 15. 6. 17. 1. 23. 29.
      204. 402. 86. 27. 42. 28. 36. 71. 35. 57. 125. 85. 98. 64. 65. 71.
      17. 20. 72. 37. 28. 50. 13. 32. 41. 132. 107. 26. 21. 2. 45. 54.
      50. 129. 39. 12. 11. 59. 74. 33. 31. 20. 2. 145. 54. 56. 28. 69.
      212. 28. 30. 14. 98. 13. 16. 17. 2. 81. 76. 506. 207. 20. 15. 23.
      42. 23. 75. 28. 34. 53. 65. 83. 53. 99. 109. 28. 25. 81. 196. 225.
      87. 24. 37. 46. 145. 250. 72. 29. 4. 15. 30. 88. 236. 52. 20. 34.
      38. 59. 98. 27. 7. 2. 72. 72. 43. 19. 20. 125. 18. 25. 3. 106. 16.
      23. 32. 4. 54. 50. 328. 340. 34. 19. 55. 39. 23. 40. 33. 33. 61.
      27. 59. 150. 91. 38. 14. 31. 167. 183. 157. 83. 9. 53. 41. 125.
      159. 54. 60. 4. 25. 63. 70. 56. 28. 8. 18. 38. 91. 96. 23. 8. 1.
      106. 77. 54. 16. 35. 120. 27. 15. 4. 106. 12. 24. 41. 7. 56. 52.
      435.</_>
    <_>
      251. 107. 15. 57. 45. 35. 70. 14. 40. 164. 156. 102. 54. 82. 167.
      53. 8. 45. 121. 115. 72. 21. 24. 26. 75. 90. 61. 28. 2. 12. 35.
      63. 27. 49. 16. 24. 21. 73. 75. 26. 45. 14. 157. 156. 50. 24. 113.
      149. 53. 14. 2. 37. 22. 20. 33. 12. 124. 82. 468. 171. 49. 11. 46.
      40. 30. 95. 20. 43. 74. 119. 60. 51. 85. 130. 55. 25. 51. 135.
      127. 85. 20. 41. 57. 128. 184. 48. 34. 4. 22. 62. 94. 163. 76. 16.
      24. 45. 74. 112. 44. 26. 6. 104. 109. 83. 36. 41. 161. 47. 26. 4.
      92. 23. 26. 36. 9. 58. 67. 392. 853. 70. 26. 61. 28. 27. 21. 18.
      28. 69. 41. 80. 27. 30. 74. 9. 51. 61. 159. 73. 35. 10. 36. 66.
      78. 147. 23. 13. 3. 61. 53. 139. 116. 43. 12. 15. 67. 89. 72. 30.
      19. 5. 116. 183. 59. 21. 44. 99. 28. 15. 6. 71. 13. 19. 24. 4. 57.
      50. 349. 232. 75. 40. 60. 24. 40. 86. 20. 41. 123. 197. 94. 51.
      87. 154. 32. 31. 48. 86. 56. 54. 15. 25. 42. 75. 50. 34. 30. 7.
      17. 61. 94. 115. 50. 11. 13. 40. 128. 114. 29. 28. 9. 149. 225.
      71. 22. 65. 202. 57. 12. 5. 56. 6. 16. 22. 7. 83. 65. 415. 126.
      45. 14. 48. 33. 42. 80. 10. 38. 89. 134. 41. 42. 59. 118. 32. 17.
      46. 93. 116. 59. 14. 31. 43. 155. 127. 32. 29. 3. 27. 59. 98. 147.
      65. 20. 23. 66. 150. 177. 51. 25. 4. 174. 227. 81. 20. 46. 311.
      58. 15. 4. 99. 20. 27. 16. 4. 30. 35. 301. 341. 37. 29. 70. 34.
      51. 119. 35. 44. 133. 122. 47. 75. 145. 139. 20. 25. 48. 93. 144.
      85. 20. 34. 49. 114. 115. 25. 14. 2. 26. 56. 129. 150. 66. 13. 21.
      45. 106. 86. 33. 23. 1. 143. 210. 61. 13. 24. 148. 30. 12. 3. 48.
      15. 20. 21. 2. 23. 31. 328. 337. 67. 15. 51. 59. 40. 95. 22. 62.
      176. 123. 76. 39. 101. 158. 44. 13. 35. 119. 231. 67. 34. 33. 23.
      56. 102. 47. 24. 7. 6. 35. 96. 156. 56. 36. 37. 33. 39. 123. 41.
      11. 10. 107. 51. 43. 18. 70. 146. 27. 5. 1. 41. 18. 33. 20. 6. 59.
      80. 436. 126. 20. 18. 34. 48. 47. 72. 12. 33. 32. 40. 32. 27. 69.
      70. 32. 19. 23. 134. 379. 73. 20. 58. 42. 87. 190. 79. 16. 8. 15.
      30. 163. 282. 74. 37. 58. 49. 89. 364. 101. 22. 8. 46. 37. 85. 14.
      17. 61. 36. 27. 5. 69. 31. 56. 28. 9. 29. 67. 347. 1120. 44. 16.
      25. 53. 12. 58. 17. 22. 39. 55. 34. 31. 38. 30. 17. 32. 30. 175.
      124. 41. 16. 53. 35. 61. 109. 36. 19. 3. 29. 33. 107. 90. 37. 26.
      26. 40. 82. 143. 34. 22. 6. 94. 140. 47. 10. 41. 190. 50. 16. 2.
      44. 18. 31. 16. 3. 32. 59. 283.</_>
    <_>
      296. 117. 27. 94. 24. 52. 85. 18. 46. 188. 158. 104. 54. 102. 139.
      50. 11. 44. 78. 111. 51. 21. 12. 37. 47. 41. 22. 26. 7. 15. 41.
      62. 56. 68. 24. 26. 24. 69. 99. 25. 38. 13. 158. 156. 38. 19. 125.
      132. 47. 8. 3. 22. 13. 19. 19. 7. 114. 96. 498. 182. 95. 23. 57.
      30. 44. 92. 25. 36. 98. 164. 73. 59. 89. 140. 47. 24. 52. 93. 75.
      81. 31. 28. 34. 100. 129. 52. 44. 7. 15. 69. 77. 84. 74. 31. 20.
      43. 102. 117. 37. 37. 14. 87. 147. 91. 49. 63. 125. 35. 19. 6. 83.
      20. 15. 34. 7. 67. 81. 443. 299. 145. 42. 115. 33. 49. 94. 19. 21.
      95. 154. 79. 45. 51. 95. 28. 17. 53. 48. 37. 40. 12. 37. 40. 45.
      29. 22. 22. 1. 34. 132. 181. 96. 85. 13. 8. 69. 158. 221. 86. 51.
      7. 79. 105. 107. 71. 98. 65. 15. 16. 6. 35. 15. 10. 18. 1. 66. 69.
      412. 331. 99. 19. 47. 62. 47. 67. 27. 41. 177. 87. 96. 45. 46.
      107. 41. 15. 41. 129. 102. 42. 15. 54. 53. 41. 98. 59. 16. 6. 17.
      43. 85. 108. 50. 17. 50. 35. 60. 97. 49. 21. 5. 166. 148. 56. 24.
      77. 118. 57. 11. 3. 40. 26. 50. 20. 2. 78. 82. 491. 328. 78. 33.
      71. 37. 38. 85. 29. 29. 68. 106. 71. 71. 88. 119. 16. 23. 53. 113.
      114. 52. 10. 37. 40. 75. 70. 33. 33. 4. 25. 62. 163. 175. 58. 8.
      34. 46. 119. 162. 44. 23. 3. 116. 163. 75. 39. 46. 162. 39. 16. 4.
      43. 14. 33. 25. 7. 52. 60. 356. 193. 40. 31. 71. 26. 47. 112. 24.
      45. 101. 217. 29. 63. 103. 196. 41. 17. 45. 127. 170. 66. 22. 15.
      26. 115. 185. 41. 26. 7. 30. 63. 203. 129. 80. 12. 12. 41. 119.
      209. 61. 14. 4. 63. 114. 64. 16. 30. 133. 26. 8. 5. 69. 8. 14. 28.
      5. 40. 32. 263. 345. 66. 24. 62. 61. 43. 100. 21. 51. 153. 99. 74.
      60. 74. 95. 30. 26. 52. 142. 114. 47. 16. 42. 40. 81. 114. 26. 21.
      4. 21. 48. 139. 162. 63. 27. 36. 50. 67. 89. 27. 18. 5. 145. 103.
      47. 23. 53. 124. 32. 22. 5. 64. 17. 39. 21. 3. 51. 68. 444. 284.
      30. 26. 51. 53. 56. 74. 26. 50. 49. 66. 36. 50. 100. 104. 19. 26.
      57. 186. 206. 60. 22. 54. 37. 126. 206. 63. 18. 4. 28. 54. 143.
      172. 64. 25. 44. 45. 92. 185. 52. 15. 5. 60. 62. 59. 19. 22. 91.
      23. 24. 4. 63. 27. 37. 18. 3. 26. 64. 431. 445. 16. 38. 41. 73.
      49. 80. 31. 66. 50. 47. 32. 62. 71. 33. 17. 39. 61. 219. 254. 56.
      30. 55. 34. 97. 362. 84. 28. 9. 33. 33. 112. 183. 62. 21. 59. 30.
      47. 186. 34. 19. 3. 39. 49. 43. 10. 20. 32. 8. 13. 4. 63. 24. 55.
      19. 2. 11. 56. 347.</_>
    <_>
      1680. 41. 70. 53. 16. 47. 35. 51. 36. 117. 17. 34. 43. 23. 19. 0.
      56. 49. 112. 33. 37. 4. 28. 36. 18. 19. 5. 6. 0. 63. 65. 172. 21.
      42. 5. 19. 47. 72. 76. 8. 5. 0. 113. 29. 79. 16. 20. 18. 4. 10. 1.
      44. 10. 20. 5. 1. 20. 21. 203. 1148. 17. 37. 40. 26. 34. 20. 34.
      26. 94. 16. 30. 40. 36. 14. 4. 57. 50. 213. 110. 32. 4. 32. 47.
      24. 92. 20. 8. 2. 45. 50. 293. 49. 32. 13. 19. 40. 56. 295. 19. 7.
      1. 212. 13. 43. 7. 13. 18. 2. 5. 2. 32. 9. 32. 6. 1. 17. 20. 236.
      1794. 35. 27. 30. 20. 39. 22. 34. 27. 127. 25. 25. 23. 28. 12. 6.
      35. 35. 93. 15. 14. 5. 22. 35. 33. 52. 10. 5. 0. 49. 50. 244. 51.
      31. 7. 14. 57. 45. 56. 13. 12. 1. 159. 62. 53. 15. 19. 29. 6. 10.
      2. 26. 5. 18. 6. 3. 16. 16. 191. 1287. 77. 45. 48. 22. 49. 49. 53.
      41. 171. 49. 106. 22. 23. 48. 10. 39. 56. 87. 11. 31. 5. 27. 38.
      44. 47. 7. 6. 5. 52. 53. 89. 29. 39. 5. 13. 43. 45. 22. 2. 13. 2.
      206. 70. 46. 23. 57. 73. 7. 9. 2. 53. 2. 13. 28. 3. 65. 25. 302.
      368. 98. 40. 84. 27. 36. 106. 15. 27. 77. 92. 72. 73. 47. 43. 24.
      30. 55. 121. 72. 52. 8. 17. 22. 31. 42. 47. 38. 4. 26. 112. 401.
      243. 49. 7. 21. 27. 92. 201. 62. 32. 3. 55. 68. 76. 42. 81. 34.
      10. 4. 6. 29. 8. 14. 17. 3. 62. 43. 298. 1476. 101. 34. 75. 5. 26.
      58. 17. 13. 72. 44. 73. 27. 27. 30. 6. 15. 37. 48. 39. 23. 3. 10.
      23. 51. 70. 19. 12. 5. 30. 81. 232. 58. 38. 1. 7. 26. 91. 97. 28.
      35. 3. 83. 68. 57. 29. 60. 27. 7. 3. 4. 28. 3. 5. 27. 3. 59. 24.
      241. 2237. 21. 39. 36. 12. 38. 9. 39. 38. 121. 6. 26. 21. 6. 5. 1.
      84. 32. 110. 8. 22. 4. 24. 39. 40. 50. 1. 6. 1. 57. 53. 127. 16.
      23. 3. 5. 36. 17. 22. 1. 3. 1. 110. 28. 30. 0. 14. 22. 1. 10. 0.
      30. 7. 12. 2. 1. 14. 13. 160. 1694. 26. 34. 32. 26. 21. 15. 28.
      19. 54. 7. 11. 27. 11. 5. 0. 59. 59. 159. 18. 17. 4. 43. 49. 95.
      187. 8. 4. 0. 124. 64. 135. 31. 22. 0. 18. 65. 75. 38. 2. 4. 0.
      194. 28. 45. 5. 7. 22. 4. 14. 0. 61. 9. 20. 2. 2. 4. 11. 176.
      2043. 11. 20. 26. 17. 19. 13. 34. 28. 155. 13. 23. 47. 16. 7. 2.
      48. 52. 238. 30. 30. 1. 12. 35. 70. 73. 9. 8. 1. 39. 27. 164. 9.
      25. 5. 8. 22. 14. 8. 1. 2. 0. 168. 8. 28. 2. 6. 61. 1. 5. 2. 56.
      2. 8. 7. 0. 9. 8. 118.</_>
    <_>
      353. 97. 29. 52. 61. 51. 61. 17. 37. 112. 91. 103. 52. 62. 126.
      36. 21. 46. 124. 121. 56. 21. 43. 42. 55. 76. 44. 29. 2. 14. 34.
      113. 85. 50. 17. 31. 33. 61. 105. 41. 29. 4. 171. 121. 62. 21. 78.
      126. 55. 14. 2. 49. 20. 20. 33. 5. 94. 89. 499. 251. 61. 17. 60.
      44. 45. 77. 12. 32. 74. 126. 57. 49. 60. 80. 17. 26. 44. 155. 160.
      45. 28. 69. 54. 104. 139. 55. 30. 4. 15. 44. 163. 143. 61. 22. 48.
      45. 96. 171. 65. 35. 0. 102. 130. 61. 18. 48. 102. 37. 12. 3. 61.
      33. 44. 20. 3. 55. 79. 405. 273. 103. 21. 48. 38. 34. 47. 22. 26.
      88. 96. 88. 42. 57. 109. 20. 22. 45. 120. 143. 57. 14. 60. 36. 96.
      131. 59. 33. 4. 24. 53. 138. 103. 57. 20. 39. 61. 86. 135. 69. 24.
      3. 81. 160. 73. 21. 69. 96. 39. 21. 3. 73. 24. 33. 18. 6. 61. 98.
      476. 256. 115. 28. 63. 45. 53. 94. 26. 46. 101. 113. 118. 59. 60.
      80. 34. 21. 61. 111. 116. 60. 23. 39. 50. 75. 80. 40. 23. 3. 24.
      46. 116. 144. 54. 9. 29. 51. 63. 65. 45. 39. 4. 118. 95. 43. 25.
      80. 158. 46. 15. 6. 75. 18. 28. 30. 5. 82. 84. 506. 165. 130. 14.
      97. 15. 38. 92. 16. 25. 70. 109. 195. 97. 105. 110. 18. 17. 49.
      75. 76. 55. 15. 23. 40. 77. 59. 37. 91. 7. 14. 55. 136. 102. 70.
      29. 14. 34. 107. 147. 42. 69. 3. 80. 148. 57. 37. 125. 166. 23.
      13. 4. 42. 11. 18. 14. 3. 184. 67. 365. 152. 87. 24. 85. 38. 31.
      93. 23. 24. 76. 192. 100. 83. 87. 129. 35. 17. 57. 100. 79. 54.
      22. 32. 29. 91. 117. 60. 52. 10. 10. 51. 90. 122. 70. 9. 19. 29.
      72. 134. 55. 57. 15. 83. 142. 53. 27. 74. 172. 28. 25. 5. 60. 19.
      26. 38. 10. 110. 68. 444. 303. 92. 27. 46. 38. 51. 75. 21. 42.
      194. 155. 104. 40. 108. 265. 49. 12. 27. 72. 131. 64. 24. 41. 36.
      60. 52. 37. 26. 6. 13. 26. 83. 85. 50. 24. 30. 41. 57. 115. 50.
      32. 7. 105. 94. 45. 20. 75. 137. 40. 16. 5. 38. 17. 32. 23. 3. 73.
      84. 478. 201. 103. 23. 78. 44. 49. 89. 15. 39. 83. 111. 71. 47.
      70. 72. 23. 25. 70. 138. 148. 44. 13. 49. 31. 65. 155. 63. 17. 7.
      28. 55. 138. 138. 74. 16. 36. 49. 106. 242. 47. 44. 9. 95. 143.
      66. 22. 68. 57. 21. 25. 5. 52. 24. 40. 39. 6. 57. 77. 374. 313.
      90. 21. 58. 37. 27. 48. 17. 23. 45. 72. 95. 59. 59. 67. 18. 24.
      52. 125. 100. 49. 15. 42. 46. 95. 157. 63. 51. 6. 25. 69. 110.
      120. 36. 18. 25. 17. 113. 133. 65. 20. 12. 80. 144. 72. 39. 88.
      122. 36. 14. 13. 96. 21. 27. 27. 13. 88. 102. 477.</_>
    <_>
      547. 114. 73. 78. 36. 69. 79. 53. 69. 141. 64. 88. 55. 87. 90. 19.
      46. 46. 55. 49. 65. 25. 36. 47. 41. 29. 15. 22. 3. 35. 90. 90. 52.
      44. 7. 20. 55. 108. 40. 26. 25. 4. 75. 61. 99. 60. 65. 34. 10. 17.
      4. 39. 11. 27. 17. 9. 50. 70. 509. 333. 69. 34. 52. 47. 44. 87.
      27. 34. 82. 64. 77. 53. 117. 60. 13. 34. 70. 140. 128. 75. 12. 35.
      39. 82. 132. 51. 26. 6. 34. 60. 172. 111. 55. 21. 25. 37. 82. 135.
      70. 33. 7. 50. 46. 52. 21. 54. 41. 16. 18. 5. 50. 25. 19. 25. 6.
      54. 78. 469. 496. 85. 34. 60. 24. 54. 63. 23. 47. 104. 62. 65. 45.
      76. 79. 14. 28. 50. 69. 63. 71. 13. 36. 43. 44. 58. 51. 14. 5. 30.
      55. 84. 108. 72. 25. 27. 52. 90. 108. 37. 41. 8. 122. 161. 69. 27.
      51. 42. 20. 12. 4. 44. 12. 15. 25. 9. 55. 85. 528. 163. 60. 20.
      18. 28. 26. 32. 26. 28. 154. 121. 89. 69. 231. 354. 31. 25. 53.
      73. 152. 140. 10. 19. 29. 61. 24. 25. 46. 8. 18. 28. 23. 20. 20.
      12. 10. 35. 106. 64. 8. 10. 6. 130. 255. 78. 21. 39. 189. 55. 15.
      6. 49. 15. 12. 31. 9. 69. 51. 395. 122. 69. 15. 38. 20. 32. 85.
      24. 48. 118. 192. 51. 59. 89. 154. 37. 12. 41. 69. 70. 69. 22. 18.
      37. 112. 106. 47. 33. 14. 16. 67. 77. 127. 71. 19. 24. 54. 95.
      117. 50. 24. 8. 86. 171. 83. 39. 71. 186. 37. 17. 11. 67. 18. 18.
      21. 5. 46. 72. 394. 143. 64. 15. 40. 22. 44. 119. 8. 32. 81. 150.
      60. 40. 72. 108. 33. 20. 66. 71. 89. 61. 12. 36. 59. 89. 64. 46.
      24. 2. 25. 59. 94. 130. 84. 25. 27. 52. 121. 103. 38. 31. 7. 135.
      224. 118. 47. 44. 156. 54. 18. 3. 66. 24. 23. 30. 5. 43. 65. 373.
      353. 58. 15. 49. 34. 51. 100. 28. 58. 156. 141. 56. 43. 45. 66.
      26. 21. 59. 88. 43. 29. 10. 40. 43. 137. 155. 48. 21. 1. 40. 52.
      107. 119. 65. 8. 22. 62. 75. 76. 53. 21. 4. 124. 67. 50. 29. 37.
      177. 29. 23. 9. 109. 14. 24. 27. 6. 27. 61. 403. 256. 75. 17. 40.
      40. 42. 78. 18. 40. 84. 99. 78. 59. 70. 88. 18. 24. 43. 131. 110.
      47. 17. 42. 29. 75. 129. 82. 49. 6. 24. 70. 176. 160. 55. 15. 28.
