<?xml version="1.0"?>
<opencv_storage>
<opencv_ml_svm>
  <format>3</format>
  <svmType>C_SVC</svmType>
  <kernel>
    <type>POLY</type>
    <degree>2.</degree>
    <gamma>3.</gamma>
    <coef0>1.</coef0></kernel>
  <C>1.</C>
  <term_criteria><iterations>1000</iterations></term_criteria>
  <var_count>531</var_count>
  <class_count>2</class_count>
  <class_labels type_id="opencv-matrix">
    <rows>2</rows>
    <cols>1</cols>
    <dt>i</dt>
    <data>
      0 1</data></class_labels>
  <sv_total>1008</sv_total>
  <support_vectors>
    <_>
      26. 8. 5. 4. 5. 1. 12. 5. 5. 8. 11. 5. 3. 9. 1. 1. 12. 3. 9. 13.
      4. 0. 5. 7. 7. 6. 4. 3. 4. 6. 6. 8. 9. 3. 3. 1. 7. 8. 29. 5. 2. 2.
      11. 16. 8. 2. 3. 34. 14. 2. 3. 5. 3. 5. 4. 3. 5. 13. 88. 26. 6. 2.
      4. 4. 3. 11. 4. 2. 2. 7. 4. 8. 2. 3. 3. 6. 6. 5. 7. 4. 0. 1. 1. 6.
      5. 4. 0. 4. 7. 10. 10. 14. 8. 3. 1. 8. 17. 50. 9. 6. 6. 9. 8. 22.
      4. 7. 10. 5. 4. 2. 4. 2. 1. 0. 3. 3. 13. 108. 41. 7. 3. 2. 6. 3.
      4. 7. 4. 7. 14. 13. 2. 9. 15. 6. 5. 5. 3. 6. 4. 0. 4. 9. 1. 3. 3.
      1. 2. 2. 4. 10. 24. 10. 3. 5. 3. 10. 7. 14. 2. 4. 11. 37. 13. 5.
      5. 8. 6. 3. 2. 3. 1. 6. 0. 3. 4. 10. 90. 19. 8. 3. 1. 5. 4. 2. 3.
      2. 5. 6. 10. 2. 0. 8. 2. 5. 0. 1. 3. 3. 4. 1. 4. 4. 5. 1. 1. 2. 7.
      7. 18. 15. 8. 2. 4. 4. 20. 20. 10. 7. 6. 22. 61. 23. 4. 3. 7. 11.
      3. 2. 3. 0. 4. 1. 2. 6. 18. 82. 17. 2. 2. 4. 4. 4. 7. 5. 7. 11.
      14. 11. 8. 9. 15. 7. 2. 1. 11. 17. 10. 3. 3. 3. 12. 29. 10. 3. 4.
      4. 6. 20. 22. 1. 4. 2. 5. 11. 17. 11. 0. 4. 12. 8. 2. 0. 5. 8. 9.
      0. 5. 4. 4. 2. 6. 0. 5. 11. 71. 24. 6. 1. 5. 4. 3. 9. 0. 2. 10.
      15. 4. 3. 5. 5. 8. 4. 1. 7. 4. 11. 5. 9. 4. 9. 9. 7. 5. 3. 12. 12.
      2. 5. 3. 4. 1. 8. 7. 3. 1. 2. 2. 19. 28. 8. 8. 9. 27. 19. 6. 3.
      12. 0. 0. 1. 5. 5. 10. 90. 38. 10. 7. 3. 8. 3. 8. 1. 0. 5. 35. 5.
      2. 2. 2. 3. 3. 5. 2. 2. 3. 2. 4. 0. 6. 2. 1. 3. 0. 7. 11. 15. 6.
      7. 1. 2. 11. 4. 5. 11. 1. 2. 16. 14. 6. 6. 11. 45. 9. 2. 4. 6. 0.
      3. 4. 2. 6. 15. 97. 12. 7. 5. 9. 1. 5. 7. 3. 2. 23. 39. 1. 2. 2.
      43. 15. 3. 2. 1. 0. 2. 1. 3. 6. 8. 2. 2. 3. 0. 3. 14. 12. 5. 6. 2.
      1. 5. 24. 22. 6. 0. 1. 20. 25. 17. 1. 4. 18. 8. 2. 3. 5. 2. 3. 0.
      1. 0. 15. 60. 37. 7. 6. 8. 3. 3. 1. 1. 0. 0. 3. 3. 1. 1. 0. 2. 4.
      1. 1. 3. 1. 1. 10. 7. 4. 4. 2. 0. 3. 20. 17. 14. 5. 2. 2. 1. 13.
      21. 17. 10. 4. 3. 13. 18. 19. 7. 0. 16. 5. 6. 9. 6. 5. 7. 1. 3. 2.
      16. 115.</_>
    <_>
      23. 5. 2. 1. 5. 1. 2. 4. 2. 8. 1. 8. 16. 21. 14. 3. 5. 16. 20. 72.
      16. 5. 2. 6. 4. 21. 13. 8. 2. 1. 1. 1. 1. 3. 1. 5. 0. 1. 3. 1. 0.
      2. 2. 11. 2. 1. 6. 5. 4. 0. 0. 6. 1. 5. 3. 5. 15. 11. 91. 4. 0. 0.
      0. 0. 0. 1. 1. 4. 7. 1. 3. 10. 32. 42. 4. 7. 20. 69. 38. 18. 2. 1.
      1. 17. 107. 46. 4. 0. 1. 0. 0. 0. 0. 1. 1. 0. 0. 0. 0. 1. 0. 3. 2.
      0. 0. 0. 5. 1. 1. 0. 6. 2. 0. 4. 1. 1. 1. 24. 11. 0. 0. 0. 0. 1.
      0. 3. 1. 1. 0. 4. 6. 4. 1. 1. 10. 32. 45. 10. 2. 1. 2. 8. 68. 91.
      30. 5. 2. 1. 0. 0. 0. 1. 0. 0. 1. 0. 0. 0. 0. 0. 2. 0. 1. 0. 1.
      32. 1. 0. 2. 34. 2. 1. 10. 4. 4. 5. 53. 18. 7. 1. 3. 0. 1. 4. 2.
      2. 4. 11. 5. 7. 5. 5. 1. 7. 6. 32. 25. 3. 1. 1. 5. 23. 42. 21. 6.
      3. 4. 2. 2. 2. 0. 0. 1. 3. 4. 1. 2. 1. 2. 6. 14. 6. 1. 6. 63. 8.
      1. 2. 19. 1. 0. 0. 0. 10. 15. 67. 20. 5. 2. 6. 1. 4. 9. 5. 5. 2.
      17. 4. 1. 9. 27. 3. 1. 8. 16. 9. 8. 2. 4. 5. 9. 5. 8. 4. 5. 1. 3.
      25. 33. 10. 0. 2. 3. 2. 46. 22. 4. 1. 11. 16. 8. 0. 3. 8. 6. 0. 1.
      8. 3. 1. 11. 2. 0. 5. 55. 7. 4. 3. 6. 2. 6. 1. 3. 5. 9. 11. 6. 9.
      25. 23. 6. 5. 10. 16. 22. 13. 7. 1. 8. 19. 14. 4. 4. 1. 2. 1. 7.
      4. 6. 2. 2. 5. 19. 16. 4. 4. 2. 16. 27. 6. 0. 5. 24. 7. 1. 0. 8.
      5. 1. 8. 1. 2. 10. 49. 27. 11. 4. 5. 8. 2. 12. 4. 4. 3. 6. 5. 4.
      1. 9. 3. 3. 2. 8. 11. 3. 3. 2. 4. 13. 15. 5. 2. 1. 6. 6. 4. 7. 7.
      4. 1. 4. 9. 10. 4. 3. 4. 17. 44. 5. 4. 8. 21. 12. 4. 2. 14. 0. 3.
      5. 2. 8. 13. 83. 22. 3. 1. 2. 7. 2. 3. 1. 4. 6. 11. 4. 3. 11. 26.
      8. 4. 6. 13. 16. 13. 3. 8. 1. 13. 101. 12. 8. 1. 4. 4. 5. 16. 4.
      0. 3. 1. 2. 21. 5. 0. 0. 2. 4. 1. 4. 4. 11. 4. 2. 0. 12. 3. 2. 1.
      3. 4. 5. 54. 26. 2. 2. 3. 4. 2. 3. 6. 2. 10. 14. 2. 9. 15. 19. 9.
      4. 6. 14. 28. 21. 2. 8. 3. 11. 24. 17. 6. 3. 3. 2. 2. 3. 1. 7. 12.
      6. 2. 42. 1. 2. 0. 4. 5. 1. 2. 1. 5. 6. 1. 0. 8. 4. 8. 5. 5. 5. 8.
      68.</_>
    <_>
      42. 13. 2. 8. 3. 5. 9. 4. 4. 25. 14. 9. 3. 2. 14. 7. 5. 7. 4. 0.
      2. 0. 5. 4. 4. 1. 3. 1. 1. 8. 1. 0. 2. 2. 1. 1. 8. 7. 2. 0. 2. 4.
      30. 46. 3. 1. 8. 15. 11. 4. 4. 4. 1. 1. 1. 3. 3. 17. 103. 61. 12.
      5. 5. 6. 6. 10. 7. 8. 18. 17. 12. 5. 2. 5. 5. 6. 5. 2. 1. 2. 2. 6.
      1. 4. 2. 2. 3. 7. 5. 5. 4. 3. 9. 4. 4. 3. 6. 3. 0. 7. 2. 9. 16. 4.
      2. 5. 6. 3. 2. 5. 6. 2. 3. 3. 0. 5. 10. 131. 83. 14. 6. 4. 6. 4.
      3. 6. 7. 1. 0. 15. 4. 0. 9. 3. 9. 6. 3. 2. 2. 0. 8. 5. 1. 0. 0. 3.
      4. 12. 4. 5. 1. 4. 3. 2. 4. 10. 4. 5. 3. 3. 2. 3. 5. 2. 8. 5. 1.
      3. 2. 2. 1. 2. 2. 4. 4. 19. 161. 45. 5. 5. 2. 1. 2. 3. 7. 1. 11.
      4. 10. 5. 5. 2. 2. 8. 9. 12. 12. 7. 1. 2. 9. 8. 17. 6. 5. 1. 8. 1.
      0. 2. 0. 2. 0. 9. 2. 0. 0. 0. 0. 18. 11. 6. 2. 6. 37. 12. 6. 3.
      15. 3. 1. 6. 4. 5. 18. 110. 24. 10. 4. 7. 3. 5. 9. 5. 2. 9. 8. 3.
      6. 13. 24. 8. 7. 9. 19. 19. 9. 1. 2. 2. 10. 29. 5. 3. 0. 4. 5. 7.
      5. 4. 2. 3. 7. 14. 5. 5. 3. 3. 10. 22. 7. 3. 2. 4. 4. 3. 2. 3. 3.
      1. 2. 3. 2. 10. 91. 56. 12. 9. 6. 7. 10. 7. 4. 6. 22. 34. 5. 1. 5.
      18. 6. 4. 2. 1. 0. 3. 1. 3. 2. 3. 1. 0. 1. 1. 7. 6. 3. 0. 5. 4. 3.
      7. 2. 7. 2. 7. 5. 17. 22. 1. 2. 8. 5. 9. 2. 2. 1. 2. 2. 0. 3. 5.
      11. 114. 24. 5. 5. 2. 4. 0. 5. 9. 2. 10. 6. 10. 7. 9. 14. 6. 9. 9.
      14. 10. 7. 1. 1. 8. 9. 12. 8. 1. 2. 1. 1. 8. 14. 5. 2. 2. 8. 4. 5.
      6. 2. 0. 23. 28. 8. 2. 9. 22. 15. 1. 1. 17. 2. 0. 5. 1. 8. 13. 72.
      23. 6. 2. 0. 2. 5. 6. 6. 7. 0. 14. 8. 8. 11. 10. 1. 9. 8. 20. 11.
      12. 8. 5. 10. 23. 35. 9. 5. 6. 4. 2. 1. 26. 5. 1. 0. 4. 2. 2. 1.
      0. 1. 6. 1. 0. 0. 2. 41. 6. 0. 2. 15. 2. 2. 8. 3. 3. 11. 73. 21.
      4. 5. 4. 6. 1. 7. 2. 3. 2. 2. 8. 10. 10. 12. 3. 2. 9. 32. 50. 12.
      5. 4. 2. 10. 18. 17. 7. 1. 5. 0. 13. 12. 3. 0. 4. 2. 6. 21. 5. 2.
      1. 7. 2. 5. 0. 3. 14. 3. 6. 0. 7. 3. 4. 7. 0. 4. 13. 73.</_>
    <_>
      46. 7. 5. 6. 5. 8. 7. 3. 3. 18. 33. 2. 5. 6. 15. 10. 4. 3. 3. 0.
      2. 2. 2. 3. 5. 3. 0. 2. 2. 7. 6. 3. 4. 2. 3. 1. 4. 8. 0. 2. 3. 2.
      19. 49. 2. 2. 12. 17. 12. 1. 1. 1. 1. 1. 2. 0. 4. 14. 101. 66. 11.
      10. 5. 6. 4. 10. 10. 8. 12. 14. 12. 5. 6. 8. 8. 10. 4. 6. 2. 3. 4.
      6. 7. 3. 1. 4. 3. 3. 3. 3. 1. 3. 4. 1. 2. 6. 1. 2. 1. 6. 6. 4. 3.
      3. 1. 5. 5. 2. 0. 2. 2. 1. 1. 4. 4. 8. 13. 146. 85. 10. 3. 3. 4.
      4. 1. 5. 3. 2. 0. 13. 2. 2. 4. 2. 10. 9. 5. 2. 1. 3. 9. 11. 12. 6.
      1. 1. 1. 5. 7. 2. 1. 2. 1. 2. 8. 9. 4. 4. 1. 3. 12. 8. 6. 3. 6. 5.
      4. 2. 2. 2. 7. 0. 4. 6. 4. 16. 144. 46. 5. 7. 3. 5. 4. 8. 14. 5.
      9. 6. 11. 13. 16. 13. 5. 5. 8. 12. 11. 11. 2. 3. 7. 8. 18. 13. 12.
      1. 4. 0. 0. 4. 1. 0. 3. 3. 3. 0. 0. 0. 2. 6. 1. 0. 2. 1. 17. 4. 3.
      0. 7. 4. 1. 2. 6. 8. 12. 119. 29. 7. 7. 6. 3. 3. 10. 8. 3. 4. 10.
      10. 6. 14. 32. 3. 4. 13. 16. 6. 4. 2. 3. 3. 14. 26. 7. 5. 5. 3. 3.
      5. 3. 5. 1. 2. 0. 10. 10. 3. 2. 0. 14. 16. 5. 3. 4. 10. 8. 0. 2.
      5. 1. 3. 6. 3. 7. 10. 87. 53. 14. 6. 5. 1. 3. 1. 6. 6. 22. 13. 7.
      3. 6. 12. 9. 5. 1. 3. 3. 3. 2. 7. 3. 8. 1. 0. 0. 4. 10. 4. 7. 1.
      2. 2. 1. 5. 9. 2. 0. 4. 4. 17. 18. 4. 3. 9. 17. 13. 1. 3. 4. 0. 3.
      2. 2. 7. 16. 117. 35. 3. 5. 6. 6. 4. 13. 5. 6. 5. 16. 11. 11. 5.
      3. 7. 6. 4. 9. 6. 2. 3. 1. 1. 6. 14. 6. 4. 4. 5. 6. 5. 23. 15. 1.
      3. 7. 4. 7. 9. 3. 3. 8. 20. 8. 3. 2. 23. 8. 2. 2. 5. 0. 3. 2. 2.
      6. 9. 93. 22. 2. 0. 3. 5. 2. 4. 7. 2. 16. 21. 9. 12. 12. 17. 6. 5.
      9. 16. 16. 13. 6. 2. 5. 23. 23. 8. 4. 3. 4. 5. 4. 33. 7. 3. 1. 6.
      5. 0. 0. 0. 0. 15. 3. 0. 1. 2. 42. 5. 1. 2. 10. 2. 1. 6. 1. 3. 5.
      54. 20. 6. 1. 4. 3. 3. 11. 4. 4. 9. 15. 8. 8. 2. 13. 7. 4. 7. 28.
      42. 7. 9. 6. 5. 14. 29. 14. 6. 2. 6. 8. 7. 9. 4. 1. 2. 4. 9. 2. 0.
      5. 1. 15. 3. 3. 3. 2. 26. 9. 0. 0. 11. 1. 0. 4. 0. 4. 10. 54.</_>
    <_>
      16. 5. 1. 3. 3. 1. 3. 4. 2. 7. 9. 15. 3. 7. 27. 6. 5. 14. 22. 12.
      12. 1. 0. 2. 15. 28. 12. 6. 2. 1. 2. 3. 11. 5. 4. 2. 3. 2. 2. 3.
      3. 3. 12. 18. 7. 0. 6. 46. 11. 1. 2. 11. 1. 1. 6. 1. 7. 15. 62.
      17. 8. 1. 6. 3. 2. 5. 2. 3. 8. 6. 6. 9. 17. 14. 4. 3. 6. 49. 16.
      1. 3. 2. 4. 8. 79. 23. 1. 0. 1. 7. 4. 14. 8. 1. 1. 6. 8. 25. 4. 1.
      2. 7. 3. 1. 5. 5. 3. 5. 0. 0. 3. 0. 1. 2. 1. 6. 13. 51. 11. 0. 1.
      3. 2. 2. 1. 3. 0. 2. 2. 3. 5. 5. 2. 0. 7. 10. 41. 22. 3. 1. 4. 5.
      29. 87. 23. 3. 0. 1. 3. 7. 7. 4. 1. 1. 5. 11. 16. 3. 2. 2. 19. 11.
      7. 3. 1. 12. 6. 1. 0. 13. 6. 2. 3. 3. 1. 9. 57. 16. 2. 2. 3. 5. 4.
      3. 7. 13. 4. 2. 5. 12. 16. 10. 2. 4. 6. 25. 19. 9. 6. 7. 2. 13.
      44. 21. 8. 6. 1. 1. 8. 14. 5. 1. 6. 1. 8. 3. 4. 3. 1. 6. 14. 8. 2.
      3. 13. 4. 2. 4. 12. 1. 1. 1. 2. 7. 11. 71. 18. 2. 4. 2. 4. 4. 12.
      1. 7. 0. 20. 2. 5. 3. 6. 5. 3. 3. 41. 47. 5. 4. 6. 2. 8. 55. 24.
      6. 3. 1. 4. 6. 7. 15. 6. 6. 3. 6. 6. 5. 2. 5. 2. 2. 7. 1. 0. 5. 2.
      4. 3. 12. 4. 3. 3. 1. 1. 11. 59. 14. 0. 1. 3. 6. 1. 3. 8. 11. 10.
      4. 5. 16. 27. 38. 14. 5. 16. 24. 34. 11. 7. 6. 4. 7. 14. 13. 11.
      5. 0. 3. 4. 0. 0. 0. 2. 4. 2. 1. 0. 0. 0. 16. 11. 1. 1. 2. 24. 14.
      0. 1. 12. 2. 2. 3. 3. 9. 10. 49. 28. 9. 1. 6. 4. 3. 5. 2. 3. 16.
      22. 10. 1. 2. 22. 10. 1. 1. 0. 5. 1. 6. 4. 4. 4. 2. 1. 1. 3. 7. 4.
      8. 7. 7. 3. 3. 4. 2. 2. 7. 5. 1. 16. 26. 7. 5. 8. 35. 17. 4. 3. 8.
      3. 3. 2. 1. 15. 17. 87. 33. 12. 5. 4. 3. 5. 7. 8. 10. 10. 20. 12.
      5. 9. 25. 7. 4. 7. 5. 11. 8. 7. 2. 7. 9. 11. 3. 6. 6. 2. 0. 3. 7.
      10. 1. 3. 5. 0. 3. 5. 1. 2. 6. 5. 1. 1. 7. 8. 2. 1. 3. 9. 4. 2. 3.
      2. 6. 16. 115. 37. 5. 6. 5. 8. 7. 8. 11. 13. 7. 5. 11. 5. 6. 24.
      6. 5. 9. 4. 12. 13. 2. 6. 5. 5. 15. 7. 6. 2. 1. 7. 5. 3. 3. 6. 2.
      4. 4. 7. 3. 4. 6. 5. 8. 6. 0. 4. 21. 4. 0. 4. 7. 1. 1. 4. 3. 6.
      10. 100.</_>
    <_>
      19. 2. 3. 2. 3. 3. 4. 4. 7. 5. 3. 9. 10. 17. 23. 1. 7. 11. 26. 74.
      14. 3. 3. 3. 9. 9. 20. 5. 4. 1. 1. 1. 2. 4. 1. 3. 1. 0. 7. 3. 2.
      2. 4. 8. 3. 2. 2. 7. 3. 1. 0. 3. 4. 4. 5. 4. 10. 15. 88. 8. 1. 1.
      0. 2. 1. 0. 4. 1. 4. 0. 5. 10. 19. 21. 2. 7. 19. 51. 73. 4. 0. 1.
      8. 24. 80. 39. 7. 1. 1. 0. 0. 0. 0. 0. 1. 0. 0. 0. 0. 0. 0. 3. 2.
      1. 0. 0. 10. 1. 0. 0. 18. 6. 1. 6. 4. 3. 4. 40. 16. 1. 1. 1. 6. 1.
      1. 4. 4. 1. 0. 4. 12. 0. 1. 2. 11. 16. 40. 18. 4. 3. 3. 22. 40.
      63. 22. 8. 1. 0. 2. 2. 2. 3. 2. 4. 0. 1. 2. 0. 0. 0. 7. 3. 0. 3.
      0. 21. 3. 2. 1. 29. 7. 6. 9. 5. 4. 10. 60. 10. 5. 2. 7. 1. 4. 9.
      3. 4. 11. 21. 12. 10. 5. 9. 5. 2. 11. 11. 9. 6. 7. 3. 7. 17. 13.
      12. 10. 3. 2. 9. 3. 1. 4. 1. 1. 6. 8. 5. 0. 2. 0. 18. 12. 5. 5. 2.
      61. 14. 3. 1. 13. 5. 3. 16. 1. 6. 8. 50. 15. 2. 7. 16. 4. 7. 25.
      3. 5. 16. 14. 4. 7. 4. 11. 6. 2. 7. 10. 9. 8. 3. 1. 5. 9. 12. 8.
      1. 2. 1. 7. 15. 27. 22. 4. 2. 3. 10. 34. 9. 10. 3. 5. 6. 4. 0. 1.
      10. 0. 0. 0. 4. 1. 1. 7. 3. 2. 13. 67. 18. 4. 5. 1. 3. 2. 1. 4. 4.
      6. 9. 11. 9. 16. 18. 5. 8. 14. 22. 26. 5. 2. 2. 7. 17. 27. 11. 6.
      1. 6. 5. 4. 2. 5. 2. 1. 5. 3. 3. 5. 0. 2. 7. 28. 7. 1. 6. 16. 4.
      3. 0. 21. 5. 1. 6. 1. 7. 10. 64. 19. 1. 6. 8. 2. 2. 13. 3. 0. 2.
      5. 5. 4. 1. 6. 0. 1. 2. 9. 5. 1. 2. 3. 1. 6. 42. 6. 2. 1. 4. 11.
      9. 34. 7. 2. 4. 9. 11. 41. 10. 9. 5. 9. 12. 13. 1. 4. 11. 9. 4. 3.
      10. 2. 4. 4. 2. 1. 11. 80. 15. 5. 5. 4. 5. 2. 7. 2. 3. 9. 6. 3. 7.
      14. 20. 8. 0. 5. 21. 26. 9. 6. 3. 1. 11. 71. 19. 8. 1. 1. 2. 6.
      28. 3. 0. 3. 4. 0. 17. 3. 3. 2. 2. 8. 2. 1. 3. 13. 5. 1. 0. 11. 1.
      4. 0. 1. 9. 12. 53. 33. 8. 1. 0. 7. 1. 0. 3. 6. 12. 8. 12. 7. 11.
      29. 7. 5. 6. 7. 8. 9. 5. 13. 2. 4. 8. 9. 6. 1. 1. 1. 3. 2. 1. 0.
      3. 2. 2. 42. 3. 0. 1. 4. 9. 2. 0. 6. 17. 8. 1. 0. 8. 0. 8. 3. 2.
      17. 23. 97.</_>
    <_>
      18. 4. 5. 3. 10. 2. 11. 3. 1. 10. 23. 5. 9. 13. 8. 3. 2. 9. 9. 37.
      10. 4. 5. 2. 8. 5. 6. 7. 5. 5. 5. 10. 12. 8. 1. 0. 2. 5. 6. 3. 8.
      2. 14. 9. 5. 5. 8. 48. 4. 4. 3. 2. 1. 1. 4. 1. 5. 9. 67. 23. 9. 3.
      7. 3. 4. 8. 1. 0. 14. 12. 3. 2. 3. 17. 15. 6. 2. 8. 18. 4. 1. 2.
      8. 6. 4. 3. 1. 0. 6. 11. 6. 4. 10. 2. 2. 6. 26. 21. 2. 5. 3. 18.
      34. 19. 4. 6. 9. 7. 5. 1. 2. 3. 4. 2. 6. 0. 11. 72. 13. 5. 4. 1.
      0. 1. 8. 1. 3. 7. 12. 2. 4. 6. 7. 5. 5. 4. 7. 6. 1. 0. 9. 8. 33.
      36. 3. 2. 0. 3. 8. 11. 24. 8. 1. 0. 9. 10. 4. 11. 1. 1. 28. 20.
      13. 4. 8. 41. 15. 3. 0. 13. 5. 2. 3. 2. 4. 5. 44. 18. 8. 5. 5. 3.
      11. 10. 7. 1. 1. 3. 4. 6. 5. 3. 2. 4. 5. 3. 0. 2. 2. 4. 5. 10. 6.
      3. 1. 1. 5. 8. 16. 18. 5. 7. 0. 5. 16. 23. 9. 6. 3. 18. 47. 14. 4.
      6. 19. 12. 1. 1. 7. 4. 5. 4. 2. 2. 13. 76. 12. 2. 4. 3. 4. 5. 9.
      0. 4. 9. 16. 0. 7. 14. 16. 4. 0. 2. 13. 24. 6. 5. 2. 0. 11. 30. 4.
      5. 3. 1. 3. 27. 27. 11. 3. 6. 2. 16. 40. 13. 3. 1. 13. 18. 6. 1.
      2. 17. 7. 1. 5. 8. 2. 0. 1. 0. 1. 8. 37. 15. 13. 5. 18. 2. 3. 15.
      3. 2. 14. 62. 5. 1. 3. 19. 9. 2. 3. 0. 3. 2. 2. 1. 2. 1. 0. 0. 0.
      1. 0. 9. 9. 4. 9. 5. 0. 5. 26. 6. 3. 5. 3. 21. 60. 13. 8. 18. 15.
      13. 2. 0. 1. 3. 0. 0. 0. 3. 4. 43. 11. 10. 3. 4. 3. 7. 18. 5. 7.
      14. 26. 10. 5. 14. 21. 8. 1. 2. 2. 7. 14. 4. 4. 3. 3. 2. 4. 6. 5.
      3. 4. 18. 27. 16. 2. 2. 0. 14. 7. 9. 1. 0. 10. 32. 5. 3. 4. 16.
      11. 0. 6. 2. 2. 3. 4. 1. 3. 9. 57. 17. 17. 3. 8. 1. 6. 12. 2. 1.
      15. 26. 3. 1. 1. 10. 9. 1. 3. 1. 2. 2. 3. 2. 4. 2. 11. 4. 2. 1.
      10. 8. 5. 4. 10. 5. 0. 4. 60. 32. 7. 8. 0. 12. 40. 29. 4. 5. 2. 6.
      1. 4. 1. 0. 0. 0. 1. 1. 3. 62. 18. 1. 1. 1. 0. 4. 4. 0. 0. 2. 3.
      1. 2. 12. 12. 2. 8. 4. 1. 8. 10. 0. 5. 9. 2. 4. 2. 0. 0. 10. 9.
      15. 0. 0. 0. 1. 17. 49. 49. 3. 0. 0. 25. 74. 23. 3. 4. 20. 16. 4.
      2. 1. 2. 3. 3. 1. 5. 2. 37.</_>
    <_>
      10. 26. 5. 14. 0. 4. 15. 4. 3. 14. 33. 6. 2. 2. 5. 10. 2. 4. 3. 1.
      3. 0. 1. 0. 0. 1. 1. 1. 0. 2. 12. 6. 11. 12. 4. 1. 6. 14. 8. 2. 5.
      4. 16. 64. 7. 9. 21. 25. 15. 1. 3. 1. 1. 0. 2. 1. 3. 10. 58. 8. 7.
      6. 21. 2. 5. 44. 0. 2. 5. 17. 0. 0. 2. 4. 6. 0. 1. 0. 0. 1. 1. 0.
      2. 0. 0. 0. 0. 0. 5. 10. 61. 95. 31. 3. 2. 5. 5. 43. 31. 12. 2. 1.
      1. 6. 5. 2. 0. 1. 2. 2. 0. 0. 0. 0. 0. 0. 5. 30. 22. 8. 6. 10. 3.
      2. 10. 3. 6. 8. 18. 4. 4. 5. 7. 4. 6. 4. 3. 5. 1. 0. 6. 6. 5. 5.
      2. 0. 1. 9. 13. 36. 42. 12. 4. 3. 7. 10. 26. 23. 5. 3. 3. 4. 6. 9.
      0. 16. 1. 2. 5. 5. 1. 2. 0. 2. 1. 8. 72. 16. 8. 0. 6. 1. 2. 12. 4.
      2. 11. 38. 4. 7. 6. 1. 5. 5. 0. 6. 6. 7. 1. 3. 5. 11. 14. 5. 4. 2.
      6. 9. 17. 40. 1. 0. 1. 5. 13. 13. 7. 4. 0. 20. 11. 7. 3. 2. 39. 7.
      2. 3. 9. 5. 2. 3. 2. 3. 8. 60. 22. 7. 3. 1. 3. 1. 1. 4. 5. 6. 5.
      4. 2. 7. 28. 5. 5. 2. 24. 48. 10. 3. 6. 2. 4. 30. 16. 5. 1. 2. 1.
      8. 36. 4. 1. 0. 4. 9. 8. 6. 2. 2. 11. 16. 4. 4. 7. 13. 5. 3. 1. 2.
      6. 1. 2. 2. 5. 8. 61. 14. 9. 3. 12. 1. 7. 31. 2. 3. 8. 56. 7. 5.
      3. 6. 5. 2. 0. 0. 1. 3. 3. 4. 3. 8. 1. 2. 3. 2. 4. 11. 13. 27. 17.
      2. 0. 6. 14. 16. 10. 7. 1. 15. 33. 9. 3. 11. 21. 7. 2. 2. 2. 1. 2.
      0. 0. 6. 10. 38. 20. 9. 1. 3. 1. 2. 5. 3. 3. 8. 8. 9. 11. 8. 24.
      0. 3. 7. 9. 4. 2. 3. 4. 7. 6. 7. 4. 9. 1. 5. 3. 6. 11. 4. 3. 1. 5.
      10. 16. 6. 8. 4. 18. 51. 15. 1. 3. 31. 13. 6. 2. 8. 0. 0. 6. 2.
      10. 6. 59. 16. 3. 3. 2. 3. 3. 13. 4. 2. 7. 27. 7. 8. 9. 15. 8. 2.
      1. 18. 27. 10. 5. 1. 3. 4. 5. 11. 5. 3. 6. 5. 17. 79. 8. 1. 0. 4.
      4. 22. 10. 1. 1. 7. 4. 6. 1. 1. 7. 4. 4. 2. 3. 1. 0. 0. 0. 5. 10.
      56. 17. 9. 4. 3. 5. 3. 10. 4. 3. 7. 10. 3. 7. 21. 13. 7. 6. 9. 18.
      20. 14. 3. 3. 4. 9. 18. 17. 3. 1. 4. 3. 6. 10. 5. 6. 2. 2. 10. 10.
      2. 1. 2. 12. 20. 7. 2. 2. 16. 4. 4. 0. 12. 3. 1. 3. 5. 7. 14. 68.</_>
    <_>
      30. 4. 3. 3. 7. 6. 6. 7. 5. 2. 6. 4. 3. 8. 3. 5. 5. 3. 5. 22. 3.
      1. 13. 1. 3. 9. 2. 3. 1. 4. 5. 8. 21. 12. 3. 6. 2. 11. 18. 6. 2.
      3. 3. 3. 9. 5. 3. 15. 2. 2. 6. 7. 2. 9. 4. 2. 3. 21. 124. 30. 1.
      5. 7. 8. 2. 5. 6. 2. 1. 7. 0. 2. 3. 0. 3. 2. 5. 8. 35. 3. 1. 7. 3.
      3. 7. 2. 0. 1. 2. 6. 15. 27. 7. 2. 3. 1. 8. 48. 15. 5. 5. 15. 4.
      6. 3. 1. 14. 8. 5. 1. 2. 1. 5. 0. 3. 2. 20. 101. 37. 3. 3. 4. 4.
      4. 5. 5. 0. 4. 1. 4. 1. 7. 4. 4. 7. 6. 8. 9. 2. 0. 14. 3. 2. 29.
      6. 2. 2. 6. 4. 13. 24. 2. 6. 6. 8. 4. 26. 7. 3. 2. 3. 6. 6. 2. 4.
      16. 5. 9. 4. 3. 1. 10. 1. 1. 3. 22. 107. 20. 9. 8. 5. 5. 8. 11. 1.
      6. 12. 10. 10. 1. 7. 12. 7. 3. 3. 2. 11. 2. 1. 4. 0. 0. 1. 3. 2.
      0. 6. 6. 10. 28. 11. 3. 5. 6. 9. 19. 4. 5. 8. 16. 27. 15. 7. 8.
      17. 11. 4. 1. 0. 1. 1. 1. 2. 1. 14. 84. 27. 10. 5. 7. 2. 4. 17. 2.
      1. 6. 13. 6. 4. 7. 20. 5. 3. 14. 6. 5. 5. 3. 2. 6. 9. 10. 4. 2. 0.
      4. 11. 7. 20. 10. 0. 2. 2. 18. 5. 5. 1. 0. 15. 8. 9. 6. 5. 14. 4.
      4. 6. 16. 5. 4. 5. 3. 3. 13. 84. 42. 9. 11. 3. 5. 3. 7. 8. 4. 7.
      25. 11. 3. 2. 11. 3. 8. 1. 2. 2. 7. 3. 6. 7. 7. 8. 2. 3. 4. 9. 7.
      4. 5. 4. 1. 1. 9. 1. 1. 5. 5. 2. 10. 9. 3. 1. 9. 29. 5. 2. 4. 9.
      3. 1. 3. 1. 8. 12. 117. 26. 8. 3. 5. 2. 2. 10. 5. 3. 16. 24. 13.
      5. 6. 17. 6. 4. 4. 3. 4. 8. 4. 0. 7. 3. 8. 1. 5. 5. 8. 6. 9. 7. 3.
      0. 6. 8. 8. 6. 7. 3. 1. 15. 6. 0. 3. 7. 31. 9. 1. 3. 6. 3. 3. 4.
      2. 13. 18. 91. 53. 18. 7. 5. 6. 7. 3. 5. 7. 5. 4. 11. 7. 7. 20. 8.
      3. 1. 3. 2. 10. 4. 6. 7. 3. 2. 4. 3. 6. 10. 10. 1. 0. 2. 0. 2. 7.
      7. 3. 1. 1. 2. 9. 5. 8. 6. 9. 7. 6. 6. 4. 5. 3. 1. 1. 2. 2. 21.
      126. 62. 16. 8. 1. 2. 5. 1. 8. 4. 2. 3. 15. 3. 2. 4. 5. 8. 3. 3.
      2. 4. 4. 5. 4. 8. 1. 1. 5. 3. 11. 7. 3. 1. 4. 1. 2. 10. 5. 3. 4.
      3. 2. 9. 7. 5. 2. 7. 11. 5. 4. 2. 8. 6. 2. 5. 4. 8. 23. 138.</_>
    <_>
      22. 5. 2. 4. 4. 7. 7. 9. 8. 8. 5. 18. 7. 10. 19. 6. 7. 13. 14. 21.
      10. 3. 1. 6. 5. 20. 12. 4. 2. 1. 5. 1. 6. 3. 4. 1. 3. 3. 5. 2. 1.
      2. 9. 22. 7. 6. 3. 5. 8. 3. 1. 2. 4. 2. 9. 3. 9. 21. 84. 29. 6. 1.
      1. 3. 4. 4. 5. 5. 9. 21. 12. 9. 1. 6. 7. 5. 14. 22. 11. 1. 3. 4.
      8. 24. 32. 12. 4. 3. 2. 0. 2. 8. 4. 2. 1. 1. 2. 1. 0. 1. 1. 10. 6.
      1. 1. 8. 21. 7. 1. 3. 11. 3. 2. 12. 3. 3. 18. 93. 27. 2. 4. 0. 1.
      0. 1. 3. 3. 0. 0. 8. 5. 4. 1. 2. 12. 27. 30. 20. 1. 0. 6. 13. 34.
      34. 23. 4. 0. 5. 2. 4. 2. 3. 1. 1. 4. 3. 6. 2. 2. 0. 2. 5. 4. 1.
      3. 10. 6. 3. 0. 22. 7. 2. 17. 4. 4. 9. 95. 30. 9. 1. 0. 3. 5. 6.
      2. 5. 5. 13. 11. 3. 4. 13. 6. 4. 7. 3. 15. 15. 2. 2. 3. 5. 6. 5.
      1. 4. 4. 4. 1. 3. 4. 2. 1. 3. 3. 3. 3. 3. 1. 23. 37. 5. 4. 9. 48.
      15. 4. 2. 6. 5. 3. 3. 3. 10. 13. 81. 17. 9. 2. 11. 3. 16. 10. 4.
      1. 8. 26. 3. 4. 7. 25. 11. 7. 3. 4. 13. 0. 2. 3. 4. 12. 1. 0. 1.
      1. 4. 4. 11. 11. 6. 2. 1. 3. 22. 25. 6. 4. 5. 6. 29. 7. 3. 6. 11.
      7. 3. 3. 1. 1. 5. 3. 5. 9. 11. 72. 20. 9. 3. 4. 2. 0. 8. 1. 3. 22.
      36. 7. 4. 7. 17. 14. 1. 4. 2. 2. 2. 0. 2. 7. 7. 0. 0. 0. 0. 4. 5.
      9. 9. 6. 2. 0. 4. 9. 7. 6. 4. 1. 19. 51. 16. 5. 10. 50. 20. 2. 0.
      2. 0. 0. 1. 0. 9. 7. 52. 24. 10. 4. 4. 3. 5. 12. 2. 4. 8. 7. 6. 7.
      6. 6. 4. 2. 4. 7. 4. 5. 2. 6. 5. 9. 6. 5. 2. 0. 3. 5. 9. 34. 8. 4.
      1. 2. 2. 4. 7. 4. 1. 27. 31. 5. 4. 6. 37. 18. 5. 3. 10. 1. 3. 2.
      5. 4. 9. 71. 18. 2. 0. 0. 3. 1. 2. 5. 7. 7. 14. 16. 8. 8. 11. 4.
      7. 6. 26. 13. 10. 2. 2. 7. 11. 50. 14. 4. 0. 5. 3. 5. 19. 1. 2. 2.
      2. 3. 3. 6. 0. 0. 14. 7. 1. 2. 3. 38. 9. 2. 2. 10. 6. 1. 10. 2. 8.
      13. 57. 23. 6. 2. 1. 5. 4. 5. 1. 4. 7. 17. 6. 1. 9. 29. 16. 4. 3.
      12. 32. 15. 6. 13. 3. 5. 16. 11. 4. 0. 6. 4. 12. 9. 4. 3. 3. 6. 8.
      17. 3. 0. 0. 11. 17. 5. 1. 3. 22. 3. 1. 1. 12. 7. 6. 1. 3. 6. 7.
      53.</_>
    <_>
      21. 11. 8. 11. 2. 6. 9. 1. 1. 3. 7. 7. 0. 2. 9. 1. 3. 3. 3. 4. 2.
      1. 5. 1. 0. 3. 0. 1. 2. 5. 12. 17. 11. 5. 3. 5. 5. 26. 22. 6. 8.
      3. 4. 58. 21. 11. 10. 14. 10. 2. 2. 5. 3. 1. 3. 3. 6. 13. 73. 13.
      9. 6. 15. 3. 9. 35. 6. 1. 12. 33. 3. 3. 10. 12. 10. 0. 3. 0. 7. 6.
      4. 2. 3. 1. 1. 0. 2. 0. 1. 5. 27. 38. 23. 8. 3. 4. 5. 27. 14. 11.
      6. 0. 4. 4. 3. 8. 2. 2. 2. 1. 1. 0. 1. 0. 1. 6. 10. 68. 45. 8. 9.
      5. 5. 4. 6. 4. 5. 3. 6. 6. 3. 7. 9. 3. 4. 1. 3. 12. 4. 1. 9. 2. 3.
      0. 0. 3. 1. 7. 10. 17. 20. 9. 6. 10. 5. 6. 26. 15. 7. 6. 4. 6. 4.
      4. 8. 6. 3. 4. 2. 3. 1. 6. 3. 2. 1. 15. 107. 22. 4. 2. 8. 2. 9.
      21. 3. 4. 18. 16. 2. 5. 4. 12. 7. 2. 2. 2. 11. 9. 2. 5. 4. 2. 7.
      4. 5. 4. 9. 9. 12. 28. 5. 1. 2. 8. 11. 23. 7. 1. 1. 7. 11. 11. 6.
      2. 9. 2. 6. 1. 8. 3. 2. 5. 2. 6. 13. 85. 22. 7. 6. 5. 2. 5. 8. 2.
      3. 6. 2. 5. 3. 6. 15. 3. 7. 3. 10. 26. 5. 3. 3. 5. 8. 2. 6. 0. 0.
      4. 2. 19. 16. 10. 7. 1. 6. 17. 58. 11. 10. 4. 6. 11. 11. 3. 3. 7.
      2. 4. 2. 7. 5. 2. 2. 4. 4. 9. 69. 10. 4. 4. 10. 0. 10. 23. 1. 1.
      7. 12. 4. 2. 6. 20. 5. 5. 3. 2. 2. 4. 4. 3. 2. 2. 1. 3. 0. 3. 2.
      8. 29. 30. 17. 4. 0. 1. 10. 34. 22. 6. 2. 9. 30. 15. 6. 6. 12. 12.
      2. 5. 3. 4. 3. 0. 1. 1. 8. 59. 21. 4. 6. 3. 5. 6. 5. 8. 2. 7. 9.
      19. 11. 3. 18. 3. 7. 6. 6. 7. 9. 4. 4. 3. 5. 6. 7. 3. 6. 7. 5. 3.
      15. 4. 4. 5. 4. 3. 11. 1. 5. 6. 12. 26. 12. 1. 4. 6. 10. 2. 2. 9.
      4. 1. 2. 5. 5. 12. 105. 28. 1. 2. 1. 6. 1. 7. 11. 7. 13. 12. 11.
      11. 16. 7. 8. 3. 7. 10. 21. 11. 4. 3. 2. 8. 15. 9. 7. 8. 4. 3. 5.
      24. 3. 1. 4. 5. 3. 4. 1. 2. 1. 2. 3. 4. 0. 3. 3. 3. 3. 0. 8. 3. 4.
      8. 4. 5. 15. 116. 33. 3. 3. 9. 8. 2. 7. 6. 4. 4. 17. 5. 3. 6. 3.
      2. 3. 8. 22. 17. 6. 3. 13. 2. 10. 15. 14. 6. 2. 5. 10. 5. 13. 5.
      1. 6. 9. 2. 18. 3. 3. 1. 10. 4. 2. 1. 0. 25. 3. 2. 4. 13. 3. 3. 1.
      3. 4. 13. 86.</_>
    <_>
      13. 2. 1. 10. 1. 2. 13. 0. 0. 8. 11. 6. 2. 3. 12. 7. 2. 1. 1. 3.
      3. 1. 2. 0. 3. 0. 1. 1. 1. 2. 11. 25. 16. 10. 0. 0. 5. 33. 63. 12.
      7. 4. 11. 55. 18. 6. 5. 16. 10. 7. 1. 3. 1. 3. 1. 0. 3. 10. 46.
      10. 1. 7. 27. 3. 4. 18. 1. 1. 2. 11. 1. 1. 8. 9. 4. 2. 1. 11. 29.
      7. 0. 3. 5. 7. 8. 3. 0. 0. 1. 3. 40. 55. 23. 9. 4. 2. 7. 31. 28.
      18. 5. 2. 4. 6. 6. 1. 1. 2. 0. 2. 3. 1. 1. 1. 0. 0. 5. 49. 25. 4.
      9. 5. 12. 5. 11. 2. 6. 7. 11. 1. 1. 9. 10. 4. 6. 5. 9. 15. 6. 2.
      8. 3. 2. 39. 2. 0. 2. 2. 1. 30. 24. 10. 8. 1. 1. 3. 55. 13. 5. 5.
      0. 2. 6. 1. 2. 1. 5. 1. 1. 3. 3. 5. 1. 5. 1. 8. 70. 18. 5. 3. 3.
      1. 2. 19. 0. 4. 9. 8. 1. 2. 8. 12. 4. 0. 3. 8. 18. 5. 0. 1. 5. 3.
      10. 6. 2. 0. 5. 8. 31. 57. 8. 2. 0. 5. 12. 40. 20. 5. 1. 16. 11.
      12. 4. 2. 15. 9. 2. 4. 9. 0. 4. 1. 2. 3. 6. 40. 15. 2. 6. 7. 9. 4.
      9. 4. 4. 2. 10. 1. 3. 9. 5. 4. 1. 7. 3. 28. 9. 1. 5. 4. 6. 8. 2.
      2. 3. 3. 6. 30. 23. 15. 5. 1. 9. 7. 59. 21. 2. 1. 5. 5. 15. 3. 2.
      8. 5. 3. 3. 5. 7. 5. 3. 2. 1. 8. 59. 10. 4. 0. 4. 1. 9. 25. 3. 2.
      23. 21. 2. 2. 6. 21. 11. 1. 4. 3. 3. 5. 0. 2. 4. 6. 2. 3. 3. 0. 3.
      6. 27. 32. 14. 1. 1. 5. 16. 39. 9. 4. 2. 16. 28. 10. 2. 5. 29. 8.
      4. 2. 5. 2. 1. 2. 3. 3. 5. 30. 25. 1. 3. 5. 3. 3. 8. 5. 4. 11. 13.
      5. 9. 4. 9. 9. 4. 4. 6. 6. 7. 0. 6. 13. 19. 12. 1. 7. 3. 4. 2. 3.
      12. 5. 2. 0. 3. 3. 4. 3. 2. 2. 29. 14. 6. 1. 6. 61. 19. 1. 4. 17.
      4. 1. 3. 2. 6. 8. 62. 36. 7. 8. 7. 6. 7. 6. 3. 2. 12. 28. 5. 3. 9.
      43. 11. 4. 8. 4. 2. 6. 3. 4. 8. 12. 12. 3. 5. 3. 6. 2. 5. 8. 6. 2.
      3. 4. 3. 6. 6. 2. 3. 5. 6. 4. 0. 2. 10. 3. 2. 3. 8. 2. 5. 4. 2. 5.
      10. 100. 39. 4. 2. 14. 3. 2. 7. 1. 2. 2. 19. 4. 3. 1. 1. 3. 5. 3.
      10. 1. 5. 2. 11. 3. 10. 27. 14. 2. 4. 10. 10. 27. 9. 4. 1. 0. 10.
      10. 33. 19. 1. 1. 5. 4. 5. 3. 2. 11. 3. 1. 2. 9. 0. 4. 0. 0. 1.
      11. 94.</_>
    <_>
      29. 9. 1. 4. 4. 6. 5. 9. 11. 27. 22. 8. 9. 11. 18. 9. 7. 7. 7. 19.
      5. 5. 0. 4. 4. 10. 5. 3. 2. 3. 3. 1. 7. 5. 2. 2. 4. 1. 1. 2. 8. 1.
      11. 39. 6. 6. 7. 12. 5. 3. 0. 1. 3. 0. 3. 1. 2. 14. 81. 59. 14. 7.
      5. 4. 7. 10. 11. 5. 12. 23. 10. 4. 5. 5. 8. 7. 2. 0. 3. 4. 8. 2.
      5. 5. 4. 2. 3. 4. 7. 4. 2. 5. 13. 6. 1. 3. 6. 4. 1. 4. 7. 5. 1. 4.
      5. 3. 9. 3. 2. 0. 6. 2. 2. 2. 0. 5. 18. 126. 74. 8. 6. 2. 3. 2. 0.
      2. 3. 2. 1. 15. 2. 0. 1. 1. 8. 8. 3. 0. 2. 0. 6. 15. 10. 1. 1. 2.
      3. 6. 3. 1. 0. 3. 1. 1. 12. 8. 3. 1. 2. 1. 14. 13. 3. 5. 5. 24.
      11. 3. 1. 7. 1. 2. 4. 7. 7. 15. 149. 26. 8. 2. 2. 0. 3. 0. 5. 1.
      7. 18. 8. 2. 2. 5. 2. 3. 7. 19. 8. 2. 3. 4. 5. 21. 25. 12. 6. 2.
      5. 2. 4. 0. 4. 1. 2. 3. 2. 1. 1. 1. 0. 17. 21. 4. 5. 9. 52. 14. 4.
      0. 21. 2. 2. 5. 3. 10. 14. 77. 17. 10. 6. 5. 2. 11. 14. 2. 6. 19.
      24. 14. 5. 8. 31. 12. 4. 7. 9. 21. 6. 4. 1. 3. 7. 5. 8. 3. 4. 1.
      3. 4. 23. 11. 10. 0. 3. 10. 11. 5. 0. 4. 6. 9. 6. 2. 8. 4. 3. 2.
      0. 3. 3. 0. 4. 0. 5. 9. 77. 45. 9. 7. 7. 3. 4. 2. 3. 6. 14. 18.
      11. 5. 8. 14. 6. 5. 4. 1. 1. 0. 3. 0. 7. 6. 1. 0. 0. 1. 9. 12. 8.
      3. 5. 4. 0. 7. 12. 13. 7. 5. 4. 20. 22. 9. 5. 11. 19. 8. 4. 5. 1.
      0. 2. 1. 0. 6. 9. 92. 24. 1. 4. 5. 6. 5. 3. 5. 1. 4. 2. 4. 9. 9.
      15. 2. 2. 7. 13. 15. 6. 1. 3. 2. 19. 33. 16. 3. 1. 3. 7. 4. 25. 1.
      1. 7. 6. 9. 14. 1. 2. 2. 5. 11. 9. 2. 4. 14. 7. 2. 1. 19. 2. 3. 5.
      2. 10. 14. 82. 17. 4. 1. 0. 9. 1. 1. 5. 5. 5. 6. 10. 5. 13. 21. 1.
      5. 8. 18. 35. 15. 3. 2. 4. 20. 49. 20. 3. 3. 1. 4. 8. 19. 1. 3. 3.
      3. 1. 23. 4. 2. 0. 4. 9. 0. 1. 3. 27. 3. 1. 2. 16. 1. 4. 9. 1. 2.
      7. 43. 20. 0. 6. 3. 6. 3. 1. 3. 6. 6. 5. 3. 6. 11. 7. 8. 6. 8. 21.
      14. 10. 4. 10. 2. 13. 49. 12. 8. 3. 6. 0. 5. 3. 5. 0. 4. 6. 2. 44.
      1. 3. 0. 2. 9. 0. 2. 2. 8. 4. 3. 2. 13. 1. 10. 3. 0. 7. 14. 81.</_>
    <_>
      41. 9. 3. 2. 3. 1. 4. 4. 7. 7. 9. 16. 8. 8. 6. 4. 8. 12. 4. 4. 5.
      3. 1. 7. 5. 1. 8. 4. 2. 9. 6. 9. 3. 5. 1. 0. 7. 7. 4. 4. 3. 0. 13.
      30. 6. 9. 9. 10. 7. 4. 3. 3. 2. 0. 5. 1. 13. 10. 115. 57. 12. 8.
      5. 6. 9. 3. 18. 5. 3. 7. 12. 9. 1. 6. 3. 9. 2. 0. 5. 2. 5. 8. 6.
      2. 3. 4. 3. 2. 12. 5. 3. 5. 7. 2. 6. 4. 4. 1. 3. 0. 5. 5. 7. 2. 1.
      6. 2. 4. 2. 1. 1. 2. 1. 5. 2. 10. 20. 151. 77. 10. 5. 2. 3. 2. 1.
      7. 5. 4. 1. 19. 4. 0. 1. 0. 13. 6. 2. 3. 5. 3. 5. 10. 10. 3. 5. 2.
      5. 8. 3. 1. 0. 0. 0. 3. 5. 0. 0. 0. 2. 1. 5. 2. 3. 2. 10. 10. 4.
      3. 5. 9. 6. 4. 8. 4. 10. 24. 149. 24. 3. 2. 2. 1. 0. 2. 3. 2. 3.
      5. 10. 1. 6. 4. 0. 17. 5. 5. 4. 4. 3. 5. 19. 21. 5. 3. 5. 0. 6. 4.
      0. 3. 3. 1. 1. 9. 3. 0. 0. 0. 0. 40. 26. 4. 5. 2. 55. 33. 6. 3.
      16. 9. 2. 4. 5. 7. 9. 74. 34. 6. 3. 4. 8. 10. 13. 8. 11. 11. 8. 7.
      6. 19. 32. 7. 2. 4. 6. 16. 10. 7. 4. 2. 9. 6. 1. 3. 1. 7. 6. 6. 8.
      14. 1. 1. 6. 9. 6. 5. 4. 4. 7. 10. 11. 5. 3. 10. 2. 4. 3. 5. 2. 0.
      5. 2. 1. 10. 79. 58. 9. 5. 10. 3. 9. 9. 4. 7. 11. 9. 13. 3. 3. 10.
      10. 6. 3. 1. 1. 3. 2. 4. 3. 3. 2. 0. 1. 0. 10. 9. 5. 4. 10. 3. 3.
      4. 6. 5. 6. 3. 3. 12. 25. 5. 4. 12. 7. 6. 2. 3. 0. 1. 3. 2. 1. 3.
      12. 123. 24. 3. 2. 0. 4. 2. 4. 2. 3. 3. 0. 4. 6. 8. 5. 1. 10. 5.
      16. 25. 10. 2. 4. 13. 13. 28. 18. 1. 1. 1. 3. 1. 6. 6. 3. 1. 4. 8.
      9. 1. 2. 3. 28. 29. 8. 0. 3. 28. 12. 2. 0. 13. 7. 0. 6. 5. 4. 9.
      75. 24. 0. 0. 0. 4. 1. 3. 5. 3. 5. 11. 9. 11. 7. 9. 6. 9. 6. 21.
      30. 14. 1. 4. 8. 18. 38. 7. 9. 6. 6. 2. 1. 14. 4. 3. 5. 3. 1. 0.
      0. 0. 0. 13. 10. 0. 1. 0. 35. 13. 0. 0. 19. 6. 2. 5. 2. 4. 12. 64.
      29. 8. 6. 3. 3. 2. 5. 13. 7. 4. 16. 6. 7. 7. 6. 5. 5. 4. 23. 45.
      13. 7. 7. 10. 12. 30. 11. 3. 3. 5. 0. 0. 1. 0. 0. 3. 3. 0. 0. 1.
      1. 1. 6. 11. 0. 4. 7. 5. 5. 1. 1. 7. 5. 2. 4. 4. 10. 10. 97.</_>
    <_>
      10. 2. 1. 0. 1. 0. 2. 0. 2. 11. 10. 7. 4. 6. 53. 9. 3. 24. 12. 3.
      5. 0. 0. 8. 31. 27. 5. 3. 2. 0. 2. 1. 6. 8. 0. 1. 0. 3. 1. 2. 4.
      1. 28. 35. 11. 4. 9. 63. 13. 1. 1. 7. 2. 0. 10. 1. 2. 6. 31. 22.
      5. 3. 2. 0. 2. 6. 3. 3. 11. 20. 16. 12. 15. 58. 7. 4. 17. 20. 9.
      2. 2. 2. 9. 31. 34. 11. 6. 0. 0. 0. 2. 2. 3. 0. 0. 4. 3. 4. 1. 1.
      0. 3. 2. 3. 0. 3. 26. 3. 0. 1. 26. 3. 0. 7. 2. 6. 8. 49. 20. 0. 0.
      0. 0. 0. 1. 2. 0. 3. 2. 1. 6. 4. 3. 1. 8. 13. 22. 14. 3. 0. 1. 12.
      40. 38. 9. 0. 0. 5. 2. 0. 2. 0. 2. 0. 9. 5. 2. 0. 2. 2. 28. 45. 7.
      0. 0. 45. 16. 1. 1. 27. 8. 1. 10. 2. 5. 12. 52. 24. 1. 4. 6. 3. 3.
      8. 5. 6. 7. 18. 7. 10. 4. 12. 4. 2. 6. 11. 1. 8. 7. 6. 3. 13. 59.
      13. 11. 1. 4. 3. 9. 10. 3. 2. 1. 4. 0. 12. 6. 1. 0. 5. 6. 6. 1. 2.
      42. 5. 3. 2. 26. 2. 1. 4. 1. 8. 6. 56. 8. 6. 2. 6. 0. 3. 4. 0. 4.
      8. 14. 4. 3. 5. 8. 5. 1. 3. 25. 21. 6. 1. 1. 2. 5. 70. 10. 5. 1.
      0. 11. 21. 17. 4. 1. 1. 1. 10. 66. 12. 0. 0. 1. 17. 11. 2. 3. 13.
      4. 1. 1. 13. 1. 2. 1. 4. 5. 7. 33. 15. 5. 3. 2. 4. 2. 8. 3. 3. 12.
      28. 7. 10. 6. 23. 9. 3. 12. 7. 2. 6. 1. 2. 6. 15. 10. 6. 6. 2. 3.
      0. 5. 3. 7. 2. 0. 3. 10. 5. 1. 3. 1. 25. 56. 3. 1. 10. 28. 14. 0.
      1. 6. 3. 1. 6. 1. 13. 10. 55. 23. 6. 3. 2. 2. 2. 5. 0. 2. 10. 13.
      6. 2. 6. 24. 9. 1. 2. 1. 3. 8. 3. 1. 5. 3. 5. 1. 1. 1. 1. 9. 7.
      16. 8. 7. 2. 8. 26. 19. 8. 9. 3. 8. 69. 25. 3. 7. 6. 8. 3. 1. 9.
      3. 4. 3. 1. 6. 10. 55. 24. 8. 2. 4. 2. 1. 5. 7. 4. 18. 14. 9. 3.
      7. 20. 8. 4. 7. 18. 10. 4. 2. 2. 7. 18. 21. 12. 3. 3. 8. 7. 10.
      14. 0. 1. 3. 7. 9. 15. 5. 1. 0. 12. 17. 8. 2. 7. 17. 9. 0. 1. 8.
      0. 2. 3. 2. 6. 8. 65. 16. 4. 5. 6. 4. 5. 4. 1. 1. 7. 9. 2. 4. 14.
      15. 4. 1. 2. 10. 12. 11. 1. 3. 5. 17. 1. 5. 3. 1. 4. 2. 8. 1. 3.
      2. 0. 10. 20. 68. 1. 3. 3. 16. 17. 7. 5. 3. 37. 15. 7. 5. 7. 7. 2.
      4. 1. 5. 5. 53.</_>
    <_>
      5. 3. 2. 2. 4. 4. 4. 2. 3. 4. 11. 3. 5. 31. 28. 7. 2. 13. 15. 91.
      27. 1. 1. 6. 7. 17. 9. 4. 2. 1. 7. 4. 2. 2. 2. 1. 2. 4. 9. 2. 0.
      0. 19. 22. 3. 2. 3. 29. 11. 0. 0. 11. 4. 3. 4. 0. 5. 5. 24. 20. 5.
      8. 6. 6. 7. 12. 4. 4. 9. 6. 4. 8. 17. 24. 8. 5. 9. 7. 37. 13. 0.
      4. 5. 0. 0. 6. 1. 2. 5. 6. 8. 4. 10. 5. 0. 1. 16. 23. 10. 3. 2. 3.
      33. 16. 6. 7. 0. 1. 1. 2. 0. 4. 1. 2. 3. 3. 13. 69. 20. 5. 1. 4.
      2. 1. 2. 0. 2. 9. 7. 8. 5. 4. 10. 3. 8. 10. 15. 12. 2. 2. 9. 13.
      13. 44. 4. 1. 1. 3. 7. 12. 8. 5. 6. 3. 8. 10. 23. 7. 3. 1. 13. 38.
      9. 3. 8. 9. 10. 2. 0. 6. 1. 6. 2. 1. 1. 10. 62. 16. 7. 4. 4. 5. 5.
      8. 1. 3. 6. 5. 5. 0. 15. 18. 4. 2. 5. 4. 17. 4. 2. 6. 4. 4. 3. 2.
      0. 1. 6. 3. 22. 18. 12. 3. 1. 3. 8. 27. 12. 4. 4. 35. 54. 13. 5.
      5. 12. 15. 1. 4. 1. 1. 0. 0. 1. 1. 5. 58. 14. 3. 4. 3. 6. 1. 8. 2.
      1. 2. 19. 1. 2. 4. 12. 3. 6. 9. 15. 11. 6. 0. 7. 4. 10. 40. 11. 2.
      2. 6. 4. 15. 11. 8. 1. 0. 3. 18. 48. 5. 5. 2. 8. 17. 6. 6. 4. 14.
      6. 2. 3. 10. 3. 4. 4. 1. 2. 9. 61. 13. 7. 2. 14. 6. 7. 16. 1. 0.
      9. 28. 4. 2. 5. 10. 10. 2. 3. 5. 7. 7. 0. 2. 6. 10. 14. 1. 2. 0.
      4. 11. 13. 7. 7. 2. 2. 9. 23. 12. 5. 5. 3. 22. 47. 11. 2. 11. 34.
      10. 1. 1. 6. 0. 0. 1. 1. 2. 7. 42. 9. 4. 1. 18. 0. 10. 25. 0. 3.
      15. 28. 1. 1. 4. 27. 6. 0. 0. 0. 5. 6. 4. 0. 1. 1. 1. 0. 4. 1. 7.
      9. 25. 36. 11. 5. 0. 6. 25. 11. 6. 1. 2. 20. 36. 1. 2. 3. 21. 11.
      4. 6. 2. 1. 1. 3. 0. 3. 9. 52. 14. 5. 3. 14. 1. 7. 7. 0. 4. 10.
      16. 1. 1. 1. 25. 4. 2. 1. 0. 0. 1. 1. 2. 4. 0. 0. 0. 1. 0. 7. 26.
      35. 17. 6. 4. 0. 8. 33. 78. 18. 5. 2. 4. 12. 30. 8. 2. 2. 1. 1. 1.
      1. 0. 4. 2. 1. 1. 11. 49. 20. 7. 2. 3. 0. 0. 2. 0. 0. 0. 0. 1. 0.
      0. 0. 0. 1. 0. 0. 0. 0. 0. 4. 3. 1. 0. 0. 0. 0. 21. 31. 14. 7. 0.
      0. 0. 10. 87. 78. 8. 3. 0. 12. 31. 38. 8. 6. 3. 6. 7. 3. 1. 2. 1.
      0. 0. 2. 6. 65.</_>
    <_>
      20. 9. 3. 7. 3. 3. 9. 0. 7. 3. 2. 4. 4. 4. 6. 4. 1. 4. 8. 32. 4.
      1. 8. 0. 12. 14. 6. 2. 1. 3. 2. 17. 15. 6. 2. 6. 5. 14. 42. 11. 7.
      1. 10. 26. 13. 9. 9. 18. 7. 5. 3. 5. 2. 3. 4. 1. 4. 9. 54. 32. 2.
      2. 6. 8. 3. 7. 8. 5. 2. 20. 5. 6. 5. 1. 5. 5. 5. 7. 20. 2. 1. 5.
      9. 4. 18. 3. 1. 1. 6. 3. 10. 6. 10. 4. 1. 6. 12. 41. 3. 8. 2. 13.
      11. 9. 2. 5. 25. 13. 7. 2. 5. 2. 5. 0. 2. 2. 9. 72. 22. 4. 3. 6.
      3. 6. 6. 2. 5. 10. 25. 3. 4. 8. 12. 10. 2. 8. 6. 5. 9. 3. 9. 9. 3.
      27. 5. 1. 0. 5. 6. 9. 6. 9. 4. 5. 4. 11. 15. 5. 3. 7. 7. 16. 10.
      10. 12. 13. 7. 5. 2. 4. 3. 2. 0. 2. 5. 12. 79. 23. 8. 2. 3. 1. 2.
      7. 5. 2. 10. 5. 5. 3. 4. 8. 4. 4. 2. 0. 0. 4. 2. 3. 2. 2. 1. 0. 1.
      0. 8. 13. 14. 13. 5. 2. 1. 9. 23. 49. 10. 7. 2. 20. 35. 18. 8. 8.
      18. 12. 5. 1. 0. 1. 1. 5. 2. 3. 15. 73. 22. 9. 3. 3. 2. 4. 26. 6.
      3. 20. 53. 4. 5. 13. 15. 11. 5. 3. 11. 11. 14. 3. 0. 3. 7. 16. 7.
      4. 1. 4. 6. 6. 18. 14. 2. 0. 4. 10. 12. 5. 1. 1. 10. 4. 4. 3. 3.
      8. 3. 3. 3. 3. 0. 3. 0. 2. 3. 5. 70. 39. 5. 7. 3. 1. 2. 5. 3. 3.
      14. 26. 5. 1. 4. 10. 4. 6. 6. 2. 0. 4. 3. 2. 12. 5. 13. 2. 5. 3.
      5. 10. 5. 9. 2. 3. 4. 12. 1. 5. 3. 0. 0. 20. 6. 0. 3. 8. 43. 12.
      2. 3. 11. 2. 3. 5. 3. 7. 14. 98. 38. 10. 4. 5. 4. 3. 21. 5. 3. 11.
      19. 4. 2. 3. 3. 3. 2. 4. 7. 5. 2. 2. 2. 7. 12. 8. 7. 8. 5. 13. 3.
      4. 5. 10. 4. 0. 6. 9. 1. 2. 1. 1. 11. 7. 5. 6. 2. 29. 8. 1. 2. 23.
      3. 3. 1. 1. 6. 9. 109. 43. 13. 7. 3. 2. 4. 3. 2. 4. 15. 4. 5. 5.
      13. 58. 9. 7. 3. 5. 6. 7. 2. 5. 8. 4. 5. 4. 4. 2. 11. 2. 2. 3. 2.
      2. 0. 7. 5. 6. 3. 1. 4. 21. 12. 4. 4. 3. 12. 8. 6. 1. 3. 1. 2. 1.
      2. 3. 8. 103. 83. 12. 6. 4. 6. 2. 4. 10. 4. 1. 2. 8. 2. 2. 2. 3.
      9. 2. 0. 1. 2. 0. 8. 2. 10. 5. 1. 3. 2. 10. 5. 0. 1. 2. 1. 5. 8.
      3. 5. 5. 2. 3. 4. 5. 1. 1. 5. 8. 4. 2. 2. 0. 4. 5. 2. 1. 7. 19.
      178.</_>
    <_>
      46. 6. 10. 6. 7. 9. 5. 10. 11. 23. 17. 10. 8. 15. 47. 8. 6. 1. 0.
      1. 4. 3. 2. 5. 2. 0. 1. 5. 6. 6. 3. 0. 4. 9. 2. 2. 6. 5. 4. 2. 5.
      4. 4. 20. 7. 6. 9. 2. 2. 2. 0. 1. 1. 0. 3. 1. 2. 9. 99. 73. 10. 8.
      5. 4. 3. 3. 13. 4. 2. 7. 18. 5. 1. 2. 2. 11. 9. 4. 2. 2. 1. 5. 7.
      9. 3. 3. 1. 5. 9. 2. 1. 2. 1. 1. 0. 3. 1. 0. 1. 3. 1. 3. 3. 1. 0.
      4. 6. 2. 0. 1. 10. 4. 1. 5. 4. 6. 25. 172. 60. 6. 0. 0. 4. 0. 0.
      9. 3. 1. 0. 13. 6. 0. 2. 0. 19. 20. 10. 5. 0. 2. 8. 14. 34. 17. 4.
      6. 2. 7. 2. 1. 0. 0. 0. 1. 4. 1. 0. 1. 0. 3. 8. 5. 4. 1. 3. 27. 5.
      1. 1. 26. 7. 0. 8. 5. 3. 16. 109. 33. 8. 2. 2. 4. 3. 5. 10. 7. 18.
      15. 14. 9. 8. 19. 6. 7. 8. 10. 9. 13. 5. 4. 8. 8. 20. 11. 5. 2. 2.
      4. 1. 0. 3. 1. 3. 3. 4. 0. 0. 2. 3. 9. 8. 5. 3. 0. 30. 9. 1. 1. 9.
      7. 0. 7. 1. 11. 6. 88. 36. 6. 4. 8. 2. 2. 10. 4. 3. 8. 11. 9. 9.
      23. 25. 3. 6. 7. 15. 22. 9. 3. 1. 1. 14. 11. 4. 3. 0. 6. 4. 11.
      10. 8. 2. 3. 5. 5. 16. 6. 2. 2. 10. 9. 5. 5. 5. 10. 5. 2. 2. 7. 4.
      1. 4. 1. 3. 9. 73. 53. 11. 8. 2. 7. 1. 4. 6. 3. 14. 15. 16. 3. 3.
      4. 9. 6. 5. 2. 1. 2. 0. 4. 9. 10. 2. 5. 3. 1. 8. 8. 3. 3. 5. 2. 0.
      6. 8. 5. 0. 4. 5. 17. 22. 4. 4. 5. 11. 5. 2. 2. 7. 2. 0. 4. 5. 5.
      18. 115. 46. 8. 3. 1. 3. 4. 7. 4. 11. 8. 2. 7. 8. 10. 14. 2. 4. 6.
      5. 13. 2. 1. 1. 8. 5. 2. 4. 4. 3. 5. 3. 17. 19. 4. 2. 1. 8. 9. 21.
      13. 4. 3. 9. 18. 10. 1. 8. 10. 8. 2. 5. 3. 0. 1. 1. 1. 4. 11. 97.
      20. 4. 5. 1. 11. 2. 7. 8. 5. 9. 12. 3. 6. 12. 7. 5. 4. 8. 14. 23.
      7. 10. 3. 3. 9. 13. 12. 6. 3. 9. 2. 3. 28. 3. 0. 1. 5. 6. 13. 5.
      0. 0. 16. 16. 2. 1. 4. 33. 7. 0. 1. 13. 3. 2. 3. 1. 4. 10. 71. 42.
      3. 6. 3. 2. 3. 1. 5. 1. 12. 17. 4. 5. 8. 17. 9. 7. 5. 23. 20. 11.
      5. 6. 5. 10. 11. 9. 4. 2. 3. 3. 7. 1. 4. 1. 4. 0. 3. 10. 4. 2. 2.
      8. 10. 0. 1. 6. 21. 4. 5. 0. 7. 4. 4. 5. 2. 9. 6. 102.</_>
    <_>
      26. 5. 3. 7. 3. 5. 8. 2. 4. 4. 15. 4. 2. 2. 1. 3. 3. 2. 7. 7. 2.
      3. 6. 5. 8. 24. 7. 4. 2. 4. 6. 21. 25. 13. 3. 2. 5. 7. 33. 21. 3.
      1. 11. 10. 13. 7. 1. 30. 2. 7. 3. 4. 1. 4. 2. 4. 2. 9. 66. 23. 7.
      6. 5. 7. 6. 10. 1. 1. 7. 11. 4. 2. 3. 6. 2. 7. 0. 1. 4. 2. 0. 2.
      2. 3. 0. 0. 0. 1. 7. 5. 38. 33. 9. 5. 4. 6. 25. 55. 10. 4. 4. 9.
      19. 19. 6. 4. 6. 3. 6. 6. 0. 2. 3. 1. 2. 2. 9. 69. 37. 10. 6. 5.
      5. 4. 2. 3. 2. 7. 13. 5. 0. 4. 5. 4. 1. 4. 3. 1. 0. 1. 6. 6. 1. 0.
      2. 0. 1. 6. 8. 28. 63. 9. 2. 1. 8. 9. 20. 13. 6. 3. 18. 26. 15. 6.
      6. 11. 9. 3. 6. 0. 1. 1. 0. 0. 0. 11. 67. 31. 9. 3. 6. 4. 3. 4. 3.
      3. 7. 15. 1. 1. 5. 13. 2. 6. 5. 2. 2. 3. 5. 2. 3. 1. 1. 1. 0. 2.
      3. 10. 20. 15. 8. 4. 4. 7. 15. 20. 9. 7. 6. 15. 38. 12. 1. 2. 5.
      10. 4. 2. 2. 2. 3. 0. 2. 5. 14. 106. 18. 6. 5. 4. 0. 9. 8. 8. 7.
      14. 29. 11. 5. 9. 13. 6. 2. 2. 6. 9. 4. 4. 4. 1. 5. 18. 3. 2. 6.
      12. 7. 18. 8. 8. 3. 6. 6. 9. 18. 8. 3. 3. 11. 11. 5. 3. 0. 15. 10.
      7. 7. 8. 2. 0. 3. 0. 2. 7. 76. 33. 15. 4. 7. 1. 1. 11. 0. 2. 5.
      24. 3. 0. 1. 2. 5. 6. 5. 0. 0. 0. 1. 3. 9. 6. 2. 0. 1. 2. 16. 12.
      11. 5. 0. 0. 0. 11. 20. 21. 1. 0. 2. 25. 22. 4. 4. 4. 25. 15. 2.
      5. 7. 3. 0. 2. 6. 3. 14. 105. 64. 13. 8. 5. 4. 2. 6. 2. 6. 7. 18.
      7. 3. 3. 9. 3. 13. 6. 1. 3. 3. 0. 6. 8. 9. 3. 2. 2. 7. 8. 8. 3. 1.
      1. 0. 1. 4. 5. 2. 2. 4. 1. 10. 10. 1. 1. 7. 17. 6. 4. 3. 7. 3. 2.
      3. 5. 4. 13. 135. 54. 14. 13. 5. 3. 3. 5. 2. 2. 13. 12. 3. 0. 4.
      20. 8. 5. 0. 1. 0. 3. 0. 4. 1. 2. 0. 2. 2. 0. 16. 18. 4. 6. 0. 1.
      0. 11. 22. 7. 7. 4. 0. 16. 28. 14. 6. 9. 0. 7. 4. 0. 0. 3. 3. 1.
      5. 3. 12. 106. 102. 9. 6. 5. 4. 3. 0. 4. 3. 0. 0. 10. 1. 1. 1. 2.
      17. 3. 0. 0. 0. 0. 9. 5. 3. 2. 1. 0. 0. 20. 6. 6. 4. 1. 1. 3. 7.
      2. 4. 0. 1. 4. 6. 6. 5. 3. 9. 4. 3. 5. 4. 1. 0. 4. 4. 3. 9. 23.
      155.</_>
    <_>
      16. 5. 1. 1. 0. 1. 6. 6. 1. 9. 30. 22. 7. 15. 7. 4. 3. 24. 13. 5.
      3. 2. 2. 6. 31. 35. 10. 11. 3. 1. 5. 0. 1. 1. 2. 1. 0. 2. 2. 0. 1.
      1. 7. 4. 1. 1. 12. 32. 4. 1. 0. 17. 2. 0. 13. 4. 18. 14. 68. 11.
      2. 1. 0. 0. 0. 0. 11. 4. 7. 3. 12. 11. 13. 9. 5. 4. 21. 28. 8. 3.
      5. 4. 6. 31. 122. 15. 6. 5. 4. 0. 1. 1. 0. 0. 1. 1. 1. 1. 0. 2. 0.
      1. 1. 0. 1. 3. 5. 2. 1. 0. 23. 4. 1. 5. 3. 9. 9. 67. 40. 4. 3. 3.
      3. 0. 1. 4. 2. 1. 0. 13. 3. 1. 1. 1. 11. 14. 31. 10. 2. 1. 3. 6.
      21. 72. 16. 2. 4. 3. 2. 0. 0. 0. 1. 1. 4. 0. 0. 0. 1. 0. 9. 2. 0.
      0. 5. 24. 4. 2. 1. 14. 3. 0. 6. 5. 9. 14. 111. 12. 9. 0. 1. 1. 3.
      3. 2. 3. 6. 24. 9. 4. 6. 11. 4. 3. 8. 18. 10. 7. 0. 1. 6. 23. 38.
      12. 6. 4. 3. 2. 1. 3. 2. 0. 1. 3. 4. 3. 0. 0. 1. 13. 7. 6. 4. 2.
      62. 17. 1. 2. 17. 4. 2. 4. 1. 13. 16. 66. 16. 7. 5. 9. 2. 3. 12.
      3. 4. 3. 14. 8. 6. 3. 10. 3. 3. 9. 13. 15. 8. 0. 2. 5. 9. 27. 6.
      4. 2. 5. 7. 18. 31. 11. 4. 3. 4. 12. 28. 14. 3. 3. 5. 13. 13. 0.
      3. 5. 4. 2. 3. 6. 5. 1. 6. 2. 4. 10. 58. 14. 2. 3. 1. 1. 1. 0. 2.
      3. 5. 7. 6. 6. 15. 15. 3. 5. 9. 15. 21. 4. 1. 4. 4. 39. 36. 11. 3.
      0. 4. 8. 6. 2. 4. 2. 1. 6. 10. 15. 6. 4. 0. 16. 30. 5. 4. 3. 43.
      9. 2. 3. 21. 1. 2. 6. 2. 5. 4. 34. 17. 4. 2. 4. 8. 7. 11. 5. 2. 8.
      6. 4. 11. 5. 14. 2. 3. 5. 9. 4. 5. 4. 5. 1. 5. 37. 5. 2. 0. 3. 8.
      14. 27. 4. 5. 4. 9. 18. 14. 5. 6. 4. 10. 33. 20. 2. 13. 18. 6. 4.
      0. 3. 4. 0. 5. 1. 4. 8. 47. 18. 4. 0. 1. 4. 3. 4. 3. 4. 3. 11. 7.
      9. 3. 26. 3. 2. 5. 6. 8. 11. 2. 6. 3. 18. 113. 15. 3. 3. 4. 3. 7.
      21. 3. 0. 0. 3. 0. 6. 7. 0. 2. 3. 6. 1. 1. 1. 22. 4. 1. 2. 17. 1.
      1. 4. 1. 5. 8. 62. 35. 3. 2. 3. 4. 8. 5. 5. 4. 11. 10. 3. 5. 14.
      23. 10. 4. 5. 13. 19. 10. 3. 8. 5. 12. 11. 5. 5. 3. 2. 1. 7. 2. 3.
      2. 2. 5. 3. 48. 2. 2. 5. 10. 7. 1. 1. 4. 16. 6. 1. 1. 12. 3. 7. 5.
      3. 5. 6. 74.</_>
    <_>
      30. 11. 5. 5. 2. 3. 3. 5. 5. 6. 8. 11. 5. 10. 8. 2. 4. 4. 4. 9. 6.
      2. 2. 4. 5. 1. 3. 4. 2. 5. 8. 3. 2. 1. 0. 1. 6. 10. 6. 5. 1. 3.
      15. 88. 11. 5. 12. 8. 7. 2. 2. 1. 1. 0. 1. 1. 7. 16. 97. 52. 7. 3.
      5. 5. 6. 7. 6. 7. 10. 20. 8. 2. 8. 13. 8. 8. 3. 5. 0. 1. 1. 7. 9.
      11. 7. 1. 2. 3. 10. 7. 6. 16. 7. 1. 1. 3. 8. 5. 5. 6. 2. 7. 5. 4.
      6. 3. 7. 4. 4. 6. 5. 4. 3. 2. 0. 5. 17. 110. 86. 17. 16. 4. 7. 6.
      2. 6. 5. 5. 5. 8. 6. 1. 3. 4. 7. 7. 4. 2. 3. 4. 5. 2. 1. 1. 3. 7.
      1. 8. 0. 3. 4. 3. 4. 2. 5. 2. 2. 0. 5. 3. 5. 3. 1. 6. 8. 5. 3. 4.
      1. 2. 3. 2. 4. 2. 7. 24. 145. 29. 12. 2. 0. 0. 1. 3. 4. 3. 11. 12.
      8. 3. 10. 9. 1. 5. 6. 9. 12. 7. 3. 3. 6. 22. 12. 2. 2. 0. 6. 1. 2.
      3. 2. 0. 1. 6. 6. 2. 0. 1. 1. 24. 16. 2. 5. 6. 69. 21. 2. 3. 19.
      2. 0. 4. 2. 11. 9. 71. 18. 11. 5. 11. 2. 8. 6. 1. 5. 28. 19. 4. 4.
      7. 48. 19. 1. 5. 10. 7. 6. 0. 2. 6. 4. 2. 6. 1. 2. 5. 9. 5. 6. 1.
      3. 1. 2. 15. 20. 6. 7. 1. 3. 29. 4. 2. 10. 10. 1. 1. 1. 0. 0. 1.
      0. 1. 3. 17. 82. 55. 8. 14. 9. 2. 7. 11. 6. 8. 11. 22. 9. 4. 5.
      10. 8. 10. 2. 2. 2. 1. 1. 4. 1. 4. 0. 1. 2. 2. 5. 6. 5. 11. 8. 2.
      4. 2. 9. 10. 7. 5. 4. 5. 8. 6. 2. 12. 19. 2. 1. 2. 1. 1. 1. 2. 1.
      8. 12. 112. 24. 0. 1. 3. 5. 5. 5. 1. 2. 5. 1. 9. 7. 14. 5. 2. 11.
      7. 18. 16. 10. 0. 3. 3. 20. 38. 18. 3. 1. 6. 3. 6. 21. 1. 1. 2. 1.
      5. 7. 3. 2. 0. 8. 11. 4. 2. 3. 22. 6. 0. 2. 12. 3. 3. 11. 8. 9.
      15. 80. 12. 3. 2. 0. 3. 1. 5. 11. 2. 11. 9. 4. 12. 15. 21. 3. 8.
      8. 17. 34. 9. 3. 1. 6. 15. 29. 15. 2. 3. 3. 1. 1. 5. 4. 2. 0. 1.
      4. 2. 0. 1. 1. 19. 16. 2. 3. 2. 30. 7. 0. 2. 11. 5. 2. 5. 3. 5.
      13. 80. 27. 2. 3. 3. 3. 0. 7. 5. 1. 8. 14. 3. 3. 14. 7. 7. 4. 1.
      26. 27. 8. 6. 4. 1. 8. 39. 15. 6. 2. 4. 2. 4. 14. 4. 0. 3. 1. 4.
      15. 5. 2. 0. 16. 12. 5. 3. 6. 24. 9. 0. 1. 7. 7. 1. 3. 2. 7. 10.
      69.</_>
    <_>
      17. 3. 1. 0. 2. 2. 6. 4. 6. 8. 20. 7. 8. 9. 16. 5. 7. 11. 19. 24.
      11. 3. 4. 9. 9. 5. 12. 4. 1. 0. 3. 1. 0. 8. 3. 0. 2. 1. 0. 2. 4.
      1. 28. 58. 4. 3. 6. 26. 25. 1. 1. 4. 1. 1. 3. 5. 4. 8. 58. 24. 3.
      3. 2. 2. 0. 9. 5. 7. 21. 13. 2. 13. 8. 36. 13. 6. 16. 30. 8. 3. 4.
      2. 8. 25. 51. 16. 4. 1. 2. 2. 2. 1. 5. 1. 1. 4. 2. 3. 3. 0. 0. 1.
      1. 1. 0. 1. 8. 3. 1. 1. 20. 5. 2. 12. 5. 4. 9. 59. 10. 0. 2. 0. 2.
      0. 0. 4. 1. 0. 0. 5. 4. 2. 0. 1. 8. 21. 54. 14. 2. 1. 5. 6. 42.
      146. 24. 0. 2. 2. 0. 1. 1. 1. 3. 1. 3. 4. 8. 2. 3. 0. 6. 6. 5. 0.
      0. 4. 0. 1. 1. 21. 1. 1. 6. 4. 1. 7. 45. 15. 0. 1. 2. 4. 4. 7. 4.
      5. 2. 10. 3. 2. 3. 5. 0. 2. 5. 14. 12. 4. 6. 7. 2. 8. 53. 9. 3. 3.
      3. 6. 17. 31. 8. 3. 1. 6. 5. 19. 13. 1. 4. 21. 7. 10. 3. 4. 32.
      12. 2. 5. 16. 3. 2. 2. 0. 3. 6. 54. 12. 2. 0. 4. 1. 7. 10. 0. 6.
      6. 25. 0. 2. 3. 7. 3. 1. 5. 24. 12. 3. 1. 5. 2. 10. 23. 17. 0. 0.
      2. 9. 34. 36. 4. 3. 5. 4. 14. 33. 12. 3. 6. 13. 11. 4. 4. 1. 24.
      2. 6. 2. 7. 2. 3. 1. 0. 2. 9. 47. 19. 7. 3. 0. 2. 2. 6. 8. 11. 24.
      18. 7. 10. 13. 37. 14. 2. 8. 13. 6. 10. 5. 3. 4. 8. 13. 4. 6. 0.
      4. 3. 2. 2. 7. 4. 0. 2. 4. 4. 1. 0. 2. 12. 49. 3. 3. 6. 22. 8. 3.
      2. 5. 4. 4. 0. 3. 6. 9. 57. 14. 6. 2. 8. 5. 3. 11. 1. 2. 7. 8. 6.
      2. 10. 23. 7. 3. 6. 3. 1. 10. 2. 2. 8. 6. 3. 3. 1. 3. 6. 8. 11.
      43. 7. 3. 4. 6. 15. 10. 7. 4. 3. 23. 25. 8. 3. 4. 33. 12. 6. 1. 5.
      6. 3. 1. 1. 9. 11. 50. 21. 6. 8. 6. 3. 6. 6. 4. 8. 14. 22. 2. 6.
      10. 22. 12. 3. 2. 4. 15. 8. 8. 4. 3. 4. 17. 9. 1. 2. 4. 5. 28. 12.
      3. 1. 1. 11. 11. 42. 17. 3. 2. 0. 3. 5. 7. 3. 6. 4. 7. 3. 4. 2. 4.
      1. 0. 1. 6. 62. 11. 1. 1. 4. 2. 1. 8. 4. 1. 8. 12. 3. 2. 4. 5. 2.
      2. 4. 3. 6. 6. 4. 4. 7. 0. 10. 5. 2. 1. 6. 12. 37. 6. 2. 1. 1. 10.
      21. 121. 16. 0. 0. 8. 11. 9. 1. 0. 26. 4. 6. 3. 10. 0. 4. 1. 0. 5.
      10. 40.</_>
    <_>
      13. 7. 0. 0. 0. 1. 0. 7. 6. 23. 24. 8. 13. 13. 40. 10. 6. 19. 18.
      27. 10. 5. 3. 7. 12. 14. 12. 6. 4. 2. 0. 0. 2. 5. 3. 1. 0. 2. 0.
      0. 2. 1. 13. 9. 3. 3. 6. 24. 11. 1. 1. 6. 2. 1. 8. 5. 4. 12. 59.
      25. 0. 2. 3. 2. 2. 1. 11. 8. 10. 4. 8. 13. 20. 36. 8. 7. 12. 26.
      16. 12. 4. 3. 8. 6. 38. 18. 6. 3. 1. 1. 4. 4. 0. 2. 4. 0. 4. 20.
      4. 0. 1. 0. 4. 0. 0. 2. 2. 0. 0. 1. 7. 5. 2. 5. 1. 6. 10. 92. 23.
      1. 1. 1. 3. 3. 1. 12. 0. 0. 2. 3. 5. 4. 1. 0. 9. 27. 17. 15. 2. 0.
      5. 11. 32. 39. 8. 4. 1. 5. 7. 6. 8. 5. 1. 2. 4. 7. 10. 5. 1. 0.
      17. 11. 1. 0. 3. 20. 3. 3. 2. 27. 4. 4. 12. 4. 3. 13. 76. 17. 5.
      3. 6. 6. 5. 7. 7. 6. 14. 15. 6. 2. 11. 14. 9. 3. 2. 17. 10. 7. 4.
      7. 6. 10. 29. 12. 6. 4. 4. 2. 19. 11. 1. 1. 3. 3. 7. 15. 9. 2. 1.
      7. 9. 3. 4. 2. 16. 6. 4. 2. 17. 2. 0. 1. 1. 1. 14. 77. 22. 6. 1.
      2. 3. 2. 11. 3. 8. 1. 6. 5. 7. 6. 3. 5. 1. 7. 32. 32. 6. 5. 1. 4.
      4. 36. 17. 7. 2. 0. 5. 14. 14. 8. 6. 3. 3. 6. 37. 5. 5. 1. 4. 9.
      10. 4. 3. 4. 6. 2. 1. 8. 4. 2. 2. 4. 6. 5. 68. 26. 3. 2. 1. 3. 3.
      2. 6. 10. 11. 20. 13. 19. 13. 32. 7. 4. 11. 10. 12. 15. 4. 2. 8.
      7. 11. 11. 10. 3. 1. 0. 2. 0. 3. 1. 0. 4. 1. 5. 2. 1. 0. 6. 24. 4.
      0. 3. 13. 11. 2. 0. 10. 6. 2. 4. 5. 9. 17. 79. 24. 9. 4. 9. 3. 5.
      15. 0. 3. 17. 22. 5. 2. 0. 22. 13. 1. 4. 0. 3. 3. 2. 2. 4. 4. 2.
      1. 2. 1. 8. 8. 10. 19. 12. 5. 2. 1. 3. 6. 8. 9. 3. 8. 25. 6. 3. 8.
      16. 11. 1. 2. 9. 0. 3. 2. 2. 7. 20. 95. 35. 6. 9. 6. 3. 7. 7. 7.
      9. 13. 14. 6. 6. 6. 15. 14. 5. 6. 10. 8. 5. 4. 6. 3. 12. 18. 5. 7.
      3. 3. 4. 3. 4. 3. 3. 2. 2. 3. 1. 3. 3. 1. 5. 7. 1. 2. 4. 6. 3. 4.
      6. 15. 1. 3. 3. 3. 6. 19. 116. 30. 8. 6. 5. 6. 3. 6. 3. 6. 11. 10.
      3. 1. 4. 15. 8. 8. 1. 5. 12. 6. 3. 9. 2. 6. 6. 3. 1. 1. 15. 4. 17.
      4. 5. 1. 0. 5. 9. 16. 7. 2. 1. 9. 10. 11. 4. 2. 14. 8. 9. 7. 3. 4.
      6. 4. 3. 4. 19. 103.</_>
    <_>
      19. 4. 3. 1. 9. 11. 14. 0. 7. 12. 17. 2. 3. 13. 21. 11. 1. 4. 10.
      47. 11. 11. 9. 2. 5. 13. 5. 7. 2. 3. 3. 8. 42. 10. 4. 17. 5. 1.
      10. 6. 1. 0. 6. 6. 4. 3. 1. 8. 6. 2. 1. 6. 2. 6. 1. 1. 2. 8. 47.
      21. 1. 10. 2. 4. 9. 7. 2. 8. 9. 23. 6. 1. 12. 20. 13. 2. 5. 14.
      27. 6. 2. 2. 4. 7. 10. 7. 1. 2. 4. 6. 10. 12. 12. 5. 0. 5. 6. 20.
      10. 5. 0. 13. 14. 5. 3. 2. 24. 8. 2. 1. 3. 3. 1. 0. 1. 2. 10. 70.
      45. 4. 3. 2. 1. 4. 2. 7. 3. 12. 11. 9. 3. 9. 15. 6. 4. 9. 9. 3. 1.
      1. 4. 4. 6. 11. 1. 4. 1. 2. 3. 8. 16. 8. 3. 6. 5. 2. 11. 9. 2. 3.
      16. 17. 8. 4. 1. 14. 9. 9. 5. 2. 3. 3. 2. 1. 8. 14. 106. 15. 2. 4.
      4. 9. 3. 18. 3. 11. 23. 33. 2. 6. 24. 29. 18. 4. 5. 8. 14. 11. 4.
      3. 3. 9. 4. 1. 2. 1. 1. 1. 10. 29. 17. 7. 4. 2. 7. 22. 8. 4. 0. 9.
      15. 11. 3. 4. 8. 6. 1. 0. 1. 2. 0. 1. 1. 0. 8. 39. 11. 1. 1. 2. 7.
      4. 11. 5. 4. 7. 34. 5. 9. 7. 8. 5. 2. 10. 10. 19. 5. 6. 2. 5. 15.
      50. 13. 5. 4. 2. 3. 15. 8. 12. 1. 0. 4. 18. 13. 9. 1. 1. 8. 13.
      14. 2. 3. 8. 1. 7. 1. 15. 5. 0. 2. 2. 2. 7. 50. 19. 6. 6. 9. 0. 4.
      17. 0. 3. 15. 28. 4. 4. 4. 27. 4. 3. 7. 12. 4. 10. 3. 3. 4. 12.
      16. 9. 4. 0. 4. 5. 6. 3. 2. 3. 0. 10. 8. 4. 1. 3. 1. 21. 23. 1. 5.
      9. 51. 15. 2. 0. 15. 1. 0. 1. 0. 6. 5. 52. 11. 6. 9. 10. 4. 8. 28.
      3. 3. 16. 65. 3. 2. 4. 29. 11. 0. 1. 2. 4. 8. 4. 2. 1. 3. 1. 1. 5.
      3. 3. 8. 13. 12. 19. 10. 4. 6. 15. 1. 5. 5. 2. 12. 13. 3. 1. 6.
      21. 5. 0. 2. 5. 0. 1. 4. 0. 7. 10. 54. 14. 7. 6. 5. 0. 1. 7. 0. 4.
      12. 6. 1. 2. 2. 41. 5. 3. 0. 1. 2. 2. 0. 1. 2. 3. 0. 0. 1. 1. 5.
      26. 26. 10. 1. 3. 0. 10. 47. 66. 19. 3. 2. 12. 21. 32. 13. 4. 6.
      1. 4. 1. 1. 0. 0. 1. 0. 4. 3. 44. 18. 14. 3. 8. 1. 4. 1. 1. 4. 1.
      1. 2. 1. 1. 6. 1. 3. 0. 0. 0. 0. 2. 3. 3. 0. 0. 0. 1. 0. 10. 16.
      38. 18. 6. 1. 0. 18. 58. 33. 21. 3. 2. 11. 62. 27. 12. 4. 1. 8. 2.
      4. 0. 2. 1. 0. 2. 1. 3. 51.</_>
    <_>
      22. 4. 3. 3. 2. 2. 12. 6. 5. 13. 26. 7. 6. 12. 21. 8. 5. 3. 4. 10.
      9. 3. 6. 4. 4. 11. 5. 3. 9. 3. 3. 8. 14. 10. 5. 4. 1. 5. 51. 6. 6.
      1. 1. 8. 5. 3. 0. 9. 2. 0. 2. 9. 4. 1. 1. 1. 2. 13. 88. 21. 4. 5.
      3. 5. 3. 11. 7. 8. 3. 14. 4. 5. 11. 7. 6. 7. 4. 19. 15. 4. 1. 4.
      2. 3. 14. 10. 0. 2. 3. 5. 10. 20. 13. 1. 2. 4. 16. 50. 15. 1. 2.
      5. 13. 17. 1. 2. 7. 3. 0. 4. 1. 2. 4. 2. 2. 5. 10. 72. 45. 5. 2.
      4. 7. 2. 9. 6. 3. 10. 24. 11. 3. 5. 5. 5. 12. 4. 18. 2. 5. 2. 6.
      2. 2. 39. 4. 1. 1. 4. 4. 10. 15. 9. 3. 0. 1. 5. 13. 9. 4. 1. 3.
      10. 12. 5. 6. 11. 6. 4. 0. 4. 2. 1. 3. 3. 5. 14. 83. 17. 3. 3. 3.
      2. 3. 14. 5. 2. 12. 30. 5. 3. 17. 27. 8. 1. 5. 5. 4. 7. 0. 4. 2.
      6. 11. 0. 4. 3. 2. 3. 9. 27. 15. 4. 2. 3. 7. 22. 4. 5. 2. 11. 11.
      12. 3. 8. 23. 11. 4. 2. 7. 3. 2. 0. 1. 3. 12. 70. 21. 7. 3. 1. 6.
      3. 14. 6. 5. 12. 31. 6. 2. 14. 20. 12. 3. 5. 16. 41. 9. 3. 3. 0.
      5. 17. 10. 3. 2. 5. 2. 20. 17. 6. 0. 3. 3. 4. 27. 14. 2. 2. 2. 4.
      3. 3. 2. 14. 2. 2. 3. 7. 2. 0. 2. 2. 0. 7. 54. 19. 6. 2. 5. 2. 2.
      15. 5. 0. 7. 22. 1. 2. 4. 6. 4. 4. 5. 7. 5. 4. 5. 3. 4. 17. 17. 5.
      5. 4. 10. 9. 6. 42. 3. 3. 2. 10. 12. 19. 3. 4. 1. 4. 9. 6. 4. 8.
      41. 6. 2. 1. 9. 0. 1. 4. 2. 4. 12. 70. 25. 4. 5. 11. 3. 2. 25. 3.
      3. 10. 35. 7. 3. 9. 10. 12. 1. 1. 4. 7. 6. 8. 1. 1. 1. 3. 4. 6. 1.
      5. 6. 16. 31. 20. 4. 2. 7. 11. 7. 3. 8. 3. 1. 1. 3. 6. 6. 9. 2. 0.
      3. 2. 0. 2. 1. 1. 1. 15. 107. 17. 5. 2. 6. 1. 6. 20. 2. 2. 5. 25.
      2. 3. 2. 5. 4. 1. 2. 3. 2. 3. 1. 2. 1. 7. 2. 0. 3. 0. 5. 17. 47.
      28. 8. 2. 0. 6. 33. 54. 27. 4. 1. 7. 19. 16. 8. 4. 2. 6. 4. 4. 1.
      1. 1. 0. 1. 0. 5. 49. 22. 8. 6. 17. 1. 0. 11. 2. 0. 1. 0. 3. 2. 2.
      0. 2. 2. 2. 2. 1. 4. 1. 3. 1. 1. 0. 1. 2. 0. 14. 17. 51. 75. 9. 2.
      2. 10. 8. 30. 39. 7. 1. 0. 3. 10. 6. 6. 3. 0. 4. 4. 2. 1. 0. 0. 1.
      1. 8. 83.</_>
    <_>
      7. 1. 0. 5. 0. 5. 11. 4. 3. 9. 14. 11. 13. 5. 22. 6. 1. 20. 25. 8.
      4. 0. 0. 7. 35. 28. 14. 1. 2. 0. 0. 1. 1. 9. 2. 0. 3. 5. 1. 1. 2.
      2. 20. 23. 2. 4. 9. 66. 8. 1. 1. 11. 1. 0. 6. 1. 12. 6. 35. 4. 0.
      0. 0. 1. 0. 1. 5. 4. 10. 37. 7. 9. 8. 35. 6. 3. 29. 28. 8. 4. 1.
      0. 2. 62. 82. 24. 5. 0. 0. 0. 0. 0. 1. 0. 0. 1. 0. 0. 0. 0. 0. 6.
      0. 0. 0. 0. 37. 0. 0. 0. 38. 4. 0. 13. 2. 0. 0. 17. 15. 0. 1. 1.
      1. 1. 0. 3. 2. 0. 1. 9. 9. 4. 3. 0. 11. 20. 37. 19. 3. 1. 6. 8.
      37. 66. 22. 4. 1. 1. 0. 0. 0. 0. 0. 0. 3. 3. 0. 0. 0. 0. 16. 13.
      0. 0. 1. 49. 10. 2. 1. 14. 2. 1. 15. 4. 7. 8. 59. 22. 5. 2. 1. 0.
      3. 3. 6. 2. 5. 26. 12. 8. 5. 6. 10. 3. 9. 21. 19. 9. 1. 2. 1. 20.
      37. 16. 13. 3. 2. 3. 1. 1. 1. 0. 0. 3. 1. 7. 2. 1. 0. 11. 5. 1. 0.
      4. 70. 8. 3. 1. 19. 1. 3. 6. 2. 8. 9. 51. 17. 7. 6. 6. 4. 4. 16.
      2. 3. 13. 33. 8. 3. 5. 27. 13. 5. 5. 17. 10. 11. 0. 2. 2. 21. 28.
      9. 3. 1. 2. 4. 7. 22. 14. 5. 1. 4. 2. 29. 9. 5. 2. 3. 8. 4. 1. 1.
      13. 2. 2. 1. 10. 6. 2. 4. 0. 2. 5. 43. 15. 4. 0. 0. 4. 0. 4. 3. 2.
      9. 34. 4. 4. 5. 11. 7. 2. 5. 6. 1. 1. 2. 1. 7. 38. 25. 1. 3. 2. 4.
      5. 1. 2. 4. 0. 1. 2. 9. 2. 1. 0. 2. 21. 35. 6. 0. 5. 79. 9. 2. 0.
      24. 1. 2. 2. 1. 8. 6. 60. 28. 7. 4. 4. 1. 5. 6. 1. 5. 3. 9. 9. 4.
      3. 11. 3. 6. 4. 4. 0. 11. 1. 7. 2. 2. 54. 1. 0. 3. 2. 4. 14. 27.
      4. 3. 1. 2. 8. 23. 5. 4. 5. 4. 40. 11. 4. 5. 6. 6. 3. 2. 5. 1. 2.
      3. 4. 6. 10. 82. 11. 1. 0. 3. 3. 0. 5. 6. 4. 9. 16. 2. 6. 5. 21.
      8. 4. 6. 18. 10. 19. 3. 2. 3. 29. 120. 16. 7. 3. 2. 2. 0. 3. 3. 1.
      1. 1. 1. 0. 0. 0. 0. 8. 9. 0. 2. 4. 28. 8. 0. 0. 27. 1. 0. 4. 1.
      4. 5. 39. 20. 2. 2. 2. 9. 2. 5. 4. 6. 9. 12. 7. 9. 21. 42. 10. 7.
      11. 18. 18. 12. 4. 5. 3. 13. 11. 10. 6. 4. 0. 3. 1. 0. 2. 2. 3. 2.
      4. 28. 1. 0. 2. 10. 7. 6. 0. 0. 24. 7. 2. 0. 8. 3. 6. 7. 5. 16. 4.
      57.</_>
    <_>
      36. 4. 6. 2. 4. 3. 9. 5. 2. 3. 7. 8. 2. 2. 7. 1. 6. 11. 14. 24. 3.
      0. 7. 6. 11. 19. 11. 2. 4. 5. 1. 6. 6. 7. 4. 1. 3. 2. 33. 5. 2. 1.
      3. 3. 8. 3. 7. 17. 7. 3. 3. 10. 3. 3. 3. 3. 2. 17. 104. 28. 3. 4.
      5. 10. 2. 4. 7. 1. 5. 13. 4. 4. 3. 2. 7. 6. 2. 9. 20. 2. 1. 3. 2.
      4. 10. 3. 1. 2. 1. 1. 27. 11. 6. 6. 3. 3. 14. 63. 20. 10. 1. 2.
      11. 14. 2. 2. 7. 4. 1. 4. 1. 3. 1. 1. 5. 3. 9. 91. 47. 4. 5. 3. 7.
      2. 10. 10. 3. 4. 21. 5. 6. 8. 1. 5. 9. 7. 8. 8. 5. 4. 11. 4. 6.
      37. 2. 2. 3. 6. 4. 7. 22. 11. 2. 4. 2. 5. 7. 2. 5. 4. 8. 7. 6. 6.
      2. 7. 5. 5. 2. 5. 2. 3. 2. 2. 4. 13. 87. 21. 9. 6. 6. 6. 7. 6. 5.
      1. 3. 3. 4. 4. 7. 11. 5. 1. 3. 3. 7. 11. 1. 6. 1. 2. 3. 1. 1. 2.
      1. 9. 14. 8. 5. 6. 1. 8. 15. 28. 12. 8. 4. 13. 35. 17. 3. 5. 14.
      13. 4. 3. 4. 2. 1. 6. 1. 5. 17. 86. 18. 6. 6. 2. 2. 4. 8. 8. 14.
      12. 25. 6. 9. 12. 24. 11. 2. 7. 13. 20. 17. 7. 2. 4. 9. 33. 12. 7.
      3. 1. 3. 7. 11. 8. 3. 4. 4. 2. 9. 4. 5. 1. 1. 1. 3. 7. 0. 12. 4.
      2. 1. 8. 1. 3. 2. 2. 3. 8. 71. 19. 7. 6. 6. 3. 7. 6. 3. 8. 16. 17.
      1. 4. 7. 14. 16. 4. 6. 3. 10. 10. 4. 4. 5. 9. 12. 2. 4. 2. 9. 8.
      6. 5. 6. 5. 0. 10. 13. 19. 1. 2. 2. 7. 15. 13. 5. 7. 19. 7. 4. 5.
      7. 3. 1. 2. 2. 10. 8. 78. 21. 4. 1. 9. 1. 4. 10. 1. 1. 6. 32. 2.
      2. 4. 9. 5. 1. 0. 1. 2. 4. 1. 8. 2. 3. 2. 2. 3. 1. 6. 20. 9. 21.
      7. 2. 0. 10. 33. 15. 13. 6. 3. 12. 30. 26. 7. 4. 22. 12. 6. 2. 3.
      2. 1. 0. 0. 1. 16. 63. 9. 2. 3. 11. 1. 5. 8. 0. 1. 15. 17. 1. 0.
      3. 27. 13. 0. 1. 0. 2. 5. 0. 1. 1. 0. 0. 1. 0. 0. 9. 21. 59. 27.
      6. 1. 0. 4. 28. 101. 30. 1. 0. 2. 1. 15. 12. 2. 2. 1. 1. 5. 0. 0.
      0. 0. 0. 0. 3. 36. 12. 6. 4. 3. 1. 1. 1. 1. 1. 0. 0. 3. 1. 0. 1.
      0. 1. 0. 3. 2. 1. 1. 6. 1. 2. 1. 0. 0. 0. 10. 25. 23. 8. 2. 1. 1.
      12. 44. 76. 21. 3. 1. 17. 23. 32. 11. 5. 5. 8. 9. 6. 0. 0. 3. 2.
      1. 1. 12. 79.</_>
    <_>
      37. 5. 5. 4. 7. 4. 8. 2. 0. 3. 5. 2. 2. 4. 1. 1. 4. 3. 5. 17. 3.
      1. 11. 4. 3. 9. 6. 2. 2. 5. 8. 19. 17. 4. 2. 7. 7. 19. 15. 6. 3.
      2. 12. 26. 9. 4. 6. 23. 4. 2. 3. 10. 3. 3. 3. 1. 7. 15. 89. 20. 3.
      11. 11. 5. 7. 7. 1. 2. 5. 11. 2. 4. 11. 10. 6. 3. 5. 4. 15. 4. 0.
      5. 5. 6. 1. 1. 0. 0. 4. 9. 25. 21. 13. 1. 2. 6. 15. 42. 15. 4. 2.
      13. 19. 8. 5. 6. 10. 10. 5. 2. 3. 0. 2. 0. 0. 3. 14. 70. 37. 2. 2.
      1. 4. 5. 4. 3. 0. 17. 10. 9. 4. 4. 20. 5. 6. 5. 2. 4. 3. 1. 4. 4.
      2. 0. 0. 1. 0. 4. 7. 24. 33. 8. 11. 2. 3. 11. 10. 16. 3. 0. 25.
      18. 11. 2. 3. 20. 14. 3. 1. 3. 1. 3. 3. 0. 1. 12. 83. 31. 9. 6. 8.
      6. 4. 8. 2. 3. 6. 4. 11. 5. 2. 7. 2. 8. 7. 0. 1. 3. 0. 4. 5. 8. 3.
      1. 0. 0. 4. 3. 8. 11. 2. 2. 0. 11. 11. 21. 10. 5. 5. 31. 41. 13.
      3. 5. 15. 15. 3. 1. 4. 2. 2. 2. 2. 6. 16. 86. 17. 9. 3. 6. 3. 3.
      10. 2. 6. 13. 41. 6. 9. 6. 23. 6. 4. 6. 8. 13. 9. 5. 0. 4. 21. 14.
      5. 2. 2. 3. 4. 10. 25. 6. 4. 3. 4. 11. 10. 5. 2. 3. 12. 6. 3. 0.
      7. 30. 2. 2. 1. 9. 0. 1. 1. 2. 5. 6. 61. 31. 12. 9. 4. 0. 1. 5. 3.
      2. 9. 27. 7. 3. 1. 11. 4. 5. 5. 0. 1. 3. 2. 1. 7. 11. 3. 5. 4. 0.
      21. 10. 4. 6. 3. 0. 0. 14. 7. 5. 4. 4. 1. 32. 30. 3. 3. 5. 35. 14.
      1. 0. 7. 0. 1. 2. 3. 2. 5. 96. 21. 7. 3. 3. 0. 2. 16. 5. 5. 16.
      13. 11. 1. 7. 13. 3. 4. 7. 1. 4. 5. 1. 1. 7. 11. 4. 3. 4. 4. 6.
      12. 13. 68. 10. 1. 1. 5. 4. 5. 8. 0. 2. 12. 4. 0. 0. 4. 43. 6. 0.
      4. 6. 2. 0. 6. 4. 7. 7. 72. 39. 3. 4. 4. 5. 2. 3. 4. 1. 21. 5. 6.
      4. 12. 52. 8. 7. 7. 4. 5. 3. 2. 4. 7. 11. 4. 2. 2. 1. 7. 4. 2. 0.
      0. 0. 1. 9. 15. 8. 0. 1. 5. 26. 29. 2. 1. 2. 21. 12. 2. 0. 3. 3.
      2. 2. 2. 3. 13. 87. 84. 10. 6. 3. 4. 0. 2. 2. 1. 1. 0. 3. 3. 0. 0.
      0. 8. 3. 1. 1. 1. 0. 8. 10. 4. 1. 1. 3. 2. 18. 9. 2. 2. 0. 1. 2.
      12. 9. 4. 4. 0. 1. 19. 19. 9. 3. 4. 6. 8. 4. 6. 2. 3. 2. 1. 5. 3.
      19. 155.</_>
    <_>
      22. 10. 3. 4. 3. 2. 6. 2. 3. 9. 19. 1. 5. 4. 29. 7. 5. 9. 4. 6. 8.
      3. 1. 2. 9. 23. 3. 7. 2. 2. 6. 6. 8. 5. 2. 1. 3. 15. 5. 2. 5. 1.
      21. 38. 8. 1. 9. 32. 13. 0. 1. 13. 3. 1. 3. 2. 6. 9. 62. 35. 4. 4.
      7. 2. 4. 2. 2. 2. 15. 25. 5. 2. 2. 31. 12. 9. 14. 6. 1. 1. 0. 3.
      12. 9. 6. 3. 0. 1. 3. 6. 12. 13. 6. 3. 0. 10. 13. 21. 7. 1. 1. 15.
      15. 5. 2. 1. 7. 9. 5. 1. 12. 4. 3. 7. 7. 1. 9. 76. 23. 7. 9. 9. 2.
      4. 3. 2. 1. 6. 9. 5. 7. 11. 15. 4. 10. 9. 12. 5. 3. 0. 7. 5. 6. 4.
      6. 3. 1. 5. 8. 17. 17. 7. 3. 2. 8. 12. 31. 9. 4. 4. 16. 32. 15. 3.
      5. 14. 7. 0. 1. 2. 0. 2. 3. 3. 2. 10. 64. 18. 1. 3. 3. 2. 2. 14.
      1. 11. 6. 31. 3. 11. 18. 8. 1. 3. 4. 30. 54. 8. 3. 6. 1. 6. 18.
      18. 5. 3. 1. 4. 6. 35. 8. 2. 2. 1. 6. 11. 6. 4. 1. 9. 10. 9. 3. 0.
      9. 5. 2. 1. 3. 1. 3. 2. 0. 0. 2. 56. 18. 2. 7. 1. 3. 7. 12. 2. 2.
      4. 18. 5. 0. 6. 8. 2. 2. 3. 20. 31. 13. 5. 8. 5. 7. 45. 22. 2. 2.
      5. 2. 23. 32. 10. 3. 2. 4. 4. 13. 7. 1. 2. 3. 9. 6. 6. 0. 16. 6.
      3. 3. 13. 3. 2. 1. 2. 0. 2. 49. 10. 4. 0. 3. 1. 0. 5. 4. 4. 11.
      12. 8. 15. 15. 57. 8. 4. 8. 14. 11. 14. 1. 1. 2. 23. 35. 10. 2. 0.
      2. 2. 5. 10. 4. 0. 0. 2. 1. 9. 3. 1. 0. 14. 10. 4. 2. 6. 45. 11.
      2. 0. 23. 1. 0. 4. 0. 15. 2. 34. 8. 3. 1. 0. 0. 1. 2. 8. 5. 18.
      39. 13. 10. 19. 20. 11. 3. 5. 19. 6. 6. 3. 1. 3. 30. 37. 5. 5. 7.
      3. 0. 1. 0. 3. 2. 0. 0. 3. 0. 0. 1. 0. 6. 11. 4. 1. 2. 59. 8. 0.
      1. 9. 2. 2. 6. 2. 18. 7. 55. 18. 2. 1. 1. 0. 1. 3. 6. 8. 4. 20. 8.
      16. 12. 28. 6. 7. 14. 37. 29. 13. 3. 0. 1. 16. 59. 25. 9. 4. 0. 3.
      0. 1. 3. 2. 1. 0. 2. 0. 0. 0. 0. 5. 1. 1. 3. 2. 14. 3. 2. 0. 10.
      4. 0. 9. 0. 5. 6. 66. 12. 1. 1. 3. 1. 2. 12. 6. 4. 6. 33. 6. 10.
      11. 10. 6. 4. 8. 42. 36. 19. 8. 0. 1. 4. 78. 28. 14. 3. 2. 3. 7.
      10. 9. 0. 1. 4. 3. 0. 2. 1. 0. 5. 1. 1. 1. 1. 9. 5. 1. 0. 8. 1. 1.
      1. 0. 2. 1. 45.</_>
    <_>
      14. 4. 4. 0. 6. 3. 5. 3. 2. 10. 12. 5. 12. 24. 42. 8. 5. 19. 24.
      32. 17. 1. 0. 1. 17. 26. 13. 10. 0. 0. 4. 1. 2. 8. 1. 1. 2. 1. 2.
      1. 5. 2. 7. 17. 3. 2. 5. 15. 4. 1. 1. 6. 0. 1. 6. 5. 7. 5. 60. 10.
      1. 0. 0. 1. 0. 0. 7. 5. 7. 2. 8. 10. 23. 30. 4. 4. 17. 47. 25. 11.
      4. 0. 3. 33. 114. 22. 7. 1. 0. 0. 0. 0. 0. 0. 0. 1. 0. 0. 0. 0. 1.
      0. 0. 0. 0. 0. 3. 1. 1. 1. 21. 3. 0. 13. 2. 2. 6. 43. 24. 1. 0. 0.
      0. 0. 0. 7. 0. 0. 0. 13. 3. 2. 0. 0. 12. 25. 41. 11. 0. 2. 1. 14.
      45. 55. 24. 6. 4. 4. 1. 0. 0. 1. 0. 0. 2. 1. 0. 0. 0. 0. 10. 8. 0.
      1. 0. 29. 5. 0. 2. 21. 6. 0. 14. 5. 8. 12. 74. 13. 4. 1. 6. 2. 2.
      5. 2. 3. 12. 20. 4. 2. 11. 19. 11. 3. 6. 21. 13. 11. 4. 1. 1. 20.
      76. 12. 3. 2. 4. 2. 3. 4. 1. 1. 1. 3. 3. 13. 2. 2. 0. 6. 7. 4. 0.
      6. 47. 8. 1. 0. 19. 2. 2. 5. 3. 10. 5. 40. 21. 4. 4. 6. 2. 3. 9.
      0. 1. 4. 18. 7. 3. 5. 7. 6. 1. 3. 15. 5. 4. 3. 2. 2. 12. 27. 13.
      7. 2. 5. 4. 29. 34. 11. 3. 2. 1. 7. 44. 25. 3. 3. 2. 3. 11. 4. 0.
      9. 5. 0. 1. 5. 0. 3. 5. 3. 5. 5. 66. 14. 3. 3. 3. 3. 5. 3. 4. 8.
      11. 18. 9. 16. 17. 30. 10. 2. 5. 9. 10. 14. 1. 4. 5. 24. 8. 7. 7.
      5. 3. 2. 2. 4. 8. 1. 0. 2. 17. 4. 0. 0. 0. 14. 35. 5. 2. 7. 18.
      10. 2. 1. 6. 2. 1. 1. 1. 9. 12. 67. 17. 6. 2. 6. 5. 7. 17. 4. 1.
      15. 18. 5. 5. 1. 12. 7. 1. 1. 3. 2. 2. 4. 3. 2. 3. 8. 2. 2. 4. 2.
      14. 11. 58. 10. 2. 7. 3. 15. 23. 7. 10. 3. 5. 30. 15. 7. 3. 5. 2.
      2. 3. 3. 2. 3. 2. 3. 1. 11. 67. 22. 4. 2. 5. 4. 5. 5. 5. 2. 5. 4.
      8. 7. 9. 23. 4. 4. 6. 8. 9. 10. 3. 5. 3. 13. 89. 15. 8. 2. 3. 2.
      9. 16. 4. 3. 6. 3. 2. 26. 4. 0. 3. 2. 4. 3. 0. 2. 5. 1. 0. 1. 17.
      2. 4. 1. 1. 7. 7. 67. 39. 4. 7. 3. 8. 3. 3. 1. 4. 6. 7. 4. 7. 8.
      28. 6. 7. 5. 12. 17. 9. 4. 8. 4. 8. 10. 8. 5. 2. 5. 2. 8. 1. 1. 1.
      5. 5. 6. 43. 6. 1. 1. 12. 2. 0. 0. 3. 23. 8. 1. 0. 7. 3. 3. 2. 2.
      13. 16. 77.</_>
    <_>
      13. 3. 3. 4. 3. 5. 1. 4. 10. 6. 20. 4. 6. 23. 18. 5. 10. 9. 13.
      67. 21. 8. 0. 7. 11. 14. 6. 8. 2. 8. 10. 0. 5. 1. 3. 4. 4. 3. 7.
      2. 0. 1. 8. 5. 1. 0. 1. 29. 3. 0. 0. 10. 3. 5. 6. 4. 4. 7. 56. 21.
      9. 0. 10. 6. 3. 6. 4. 7. 13. 10. 5. 7. 26. 17. 5. 5. 7. 12. 58.
      11. 5. 3. 5. 6. 4. 8. 2. 2. 2. 2. 8. 7. 8. 1. 2. 5. 7. 5. 7. 1. 2.
      11. 18. 5. 4. 2. 10. 5. 4. 2. 5. 1. 1. 3. 3. 1. 15. 70. 26. 5. 1.
      4. 1. 2. 3. 1. 3. 8. 7. 4. 2. 6. 8. 9. 4. 9. 11. 6. 1. 2. 4. 8.
      27. 75. 5. 1. 2. 2. 5. 7. 8. 7. 1. 2. 5. 4. 9. 4. 4. 1. 16. 30. 7.
      1. 11. 25. 14. 3. 0. 14. 6. 1. 1. 1. 2. 8. 50. 22. 3. 3. 6. 5. 5.
      10. 0. 4. 7. 7. 4. 4. 16. 21. 3. 6. 5. 9. 28. 3. 0. 3. 11. 8. 8.
      5. 1. 0. 2. 2. 8. 22. 7. 2. 0. 4. 7. 23. 9. 4. 5. 20. 41. 11. 3.
      3. 24. 13. 2. 0. 6. 3. 0. 1. 2. 0. 7. 56. 16. 2. 2. 7. 4. 4. 14.
      4. 2. 9. 12. 3. 1. 7. 24. 7. 6. 9. 10. 15. 7. 1. 4. 6. 15. 10. 7.
      1. 1. 2. 6. 12. 23. 13. 3. 0. 2. 10. 28. 8. 4. 1. 9. 12. 9. 0. 3.
      33. 6. 1. 5. 7. 9. 0. 7. 0. 5. 8. 58. 14. 7. 3. 5. 1. 3. 13. 0. 1.
      14. 22. 8. 4. 10. 22. 7. 3. 5. 4. 8. 10. 3. 3. 6. 9. 14. 2. 9. 1.
      2. 8. 5. 5. 2. 3. 2. 6. 24. 7. 4. 0. 0. 30. 33. 8. 2. 8. 40. 17.
      4. 1. 9. 0. 0. 1. 0. 8. 7. 47. 12. 10. 0. 5. 5. 2. 19. 0. 3. 13.
      33. 0. 2. 5. 33. 8. 2. 2. 0. 8. 7. 1. 2. 0. 2. 0. 1. 2. 2. 4. 9.
      7. 44. 10. 6. 4. 5. 13. 2. 5. 1. 1. 17. 34. 1. 1. 5. 43. 16. 1. 1.
      5. 1. 1. 6. 1. 7. 12. 52. 20. 6. 5. 9. 4. 7. 8. 2. 0. 10. 1. 4. 8.
      4. 44. 6. 6. 4. 1. 4. 3. 3. 4. 3. 2. 0. 3. 6. 0. 6. 16. 21. 5. 5.
      2. 1. 14. 24. 36. 13. 3. 3. 6. 22. 16. 10. 4. 8. 4. 4. 1. 1. 1. 0.
      3. 1. 1. 13. 73. 8. 4. 0. 0. 0. 1. 1. 1. 0. 0. 1. 4. 0. 0. 0. 0.
      1. 0. 0. 0. 0. 0. 2. 2. 1. 0. 0. 1. 0. 8. 18. 13. 7. 1. 1. 2. 16.
      97. 40. 5. 0. 1. 29. 119. 48. 9. 0. 10. 5. 8. 1. 0. 0. 2. 1. 1. 0.
      5. 20.</_>
    <_>
      15. 3. 2. 7. 7. 1. 9. 1. 3. 6. 28. 1. 8. 11. 14. 6. 4. 4. 18. 33.
      13. 0. 4. 5. 6. 24. 8. 4. 7. 1. 5. 9. 10. 7. 1. 1. 4. 11. 12. 6.
      2. 3. 5. 12. 10. 3. 3. 35. 8. 4. 1. 16. 5. 1. 6. 0. 1. 7. 53. 12.
      4. 6. 15. 3. 14. 12. 0. 3. 13. 11. 2. 1. 13. 28. 16. 1. 3. 1. 4.
      10. 2. 2. 1. 1. 0. 1. 2. 1. 0. 5. 32. 43. 19. 4. 1. 2. 21. 72. 22.
      6. 0. 3. 16. 13. 6. 0. 1. 0. 3. 0. 0. 3. 1. 2. 2. 0. 2. 33. 21. 5.
      4. 8. 3. 2. 7. 3. 3. 3. 20. 4. 3. 4. 6. 5. 6. 3. 4. 9. 2. 1. 10.
      1. 5. 36. 6. 0. 2. 8. 8. 9. 24. 10. 2. 2. 11. 11. 28. 15. 3. 0. 8.
      24. 17. 5. 6. 7. 7. 10. 2. 4. 1. 9. 0. 0. 2. 8. 67. 8. 4. 1. 8. 3.
      2. 12. 2. 2. 7. 8. 2. 3. 7. 22. 3. 2. 0. 5. 4. 3. 0. 7. 4. 4. 11.
      1. 0. 0. 3. 7. 40. 69. 14. 2. 0. 1. 18. 47. 29. 6. 1. 8. 29. 20.
      2. 2. 2. 10. 2. 1. 5. 1. 0. 0. 1. 0. 3. 36. 15. 6. 3. 7. 0. 5. 29.
      1. 4. 7. 37. 5. 2. 5. 12. 9. 2. 5. 4. 8. 2. 4. 1. 7. 7. 4. 6. 3.
      1. 4. 11. 23. 21. 23. 0. 0. 7. 15. 30. 5. 7. 1. 11. 9. 8. 8. 3.
      29. 11. 1. 3. 10. 1. 4. 2. 1. 1. 5. 39. 24. 12. 4. 10. 6. 5. 14.
      1. 4. 9. 31. 7. 0. 3. 22. 10. 3. 3. 3. 7. 5. 0. 3. 7. 4. 1. 1. 3.
      1. 7. 1. 15. 15. 7. 4. 1. 4. 11. 10. 10. 1. 1. 25. 35. 4. 4. 16.
      23. 11. 3. 1. 3. 0. 0. 4. 0. 2. 9. 64. 16. 5. 1. 7. 3. 5. 23. 5.
      2. 21. 66. 2. 9. 8. 29. 9. 2. 2. 1. 1. 11. 4. 3. 2. 9. 7. 4. 5. 1.
      2. 6. 6. 12. 14. 2. 3. 4. 6. 2. 0. 4. 0. 9. 11. 1. 4. 1. 42. 7. 4.
      0. 7. 2. 2. 6. 1. 6. 11. 56. 47. 7. 1. 2. 5. 4. 10. 4. 7. 7. 8. 8.
      8. 5. 6. 3. 6. 6. 7. 2. 11. 8. 11. 6. 17. 26. 7. 3. 3. 7. 4. 4.
      16. 3. 1. 6. 9. 3. 5. 3. 0. 1. 7. 3. 3. 2. 3. 11. 3. 2. 0. 8. 0.
      10. 5. 2. 7. 13. 108. 49. 16. 5. 2. 5. 4. 0. 7. 1. 1. 0. 7. 4. 6.
      2. 2. 12. 6. 5. 0. 2. 1. 3. 7. 7. 4. 2. 3. 4. 10. 10. 3. 1. 0. 2.
      2. 14. 17. 4. 2. 1. 2. 19. 27. 9. 7. 4. 14. 6. 5. 4. 9. 1. 1. 5.
      1. 4. 14. 129.</_>
    <_>
      17. 2. 3. 7. 3. 1. 9. 3. 5. 6. 17. 3. 6. 13. 8. 5. 5. 7. 11. 47.
      16. 1. 5. 8. 3. 21. 12. 5. 2. 0. 7. 5. 6. 5. 3. 0. 2. 10. 10. 1.
      3. 1. 11. 32. 8. 6. 3. 41. 12. 3. 0. 15. 2. 1. 1. 0. 4. 8. 43. 22.
      9. 9. 5. 6. 9. 9. 1. 3. 7. 42. 7. 0. 4. 16. 8. 6. 5. 2. 5. 7. 1.
      7. 9. 2. 6. 1. 1. 0. 3. 5. 9. 6. 15. 5. 1. 6. 21. 31. 7. 7. 0. 5.
      44. 17. 3. 5. 2. 3. 3. 2. 2. 1. 2. 1. 2. 2. 10. 65. 22. 4. 4. 7.
      5. 2. 5. 2. 4. 9. 19. 5. 3. 6. 22. 9. 6. 4. 1. 4. 3. 0. 12. 5. 6.
      38. 2. 1. 1. 2. 6. 10. 11. 10. 4. 2. 4. 11. 14. 10. 5. 0. 15. 40.
      12. 3. 12. 12. 9. 2. 1. 2. 1. 5. 0. 1. 2. 14. 63. 15. 4. 2. 6. 9.
      5. 8. 1. 3. 4. 6. 6. 4. 6. 9. 4. 6. 3. 1. 6. 4. 2. 5. 7. 4. 4. 2.
      1. 1. 2. 4. 18. 14. 9. 1. 1. 5. 20. 73. 15. 4. 1. 16. 47. 28. 4.
      6. 13. 12. 2. 1. 6. 7. 1. 0. 4. 2. 4. 36. 7. 0. 2. 1. 2. 3. 11. 3.
      4. 19. 32. 0. 8. 10. 10. 7. 2. 6. 16. 11. 11. 4. 0. 3. 17. 73. 9.
      4. 1. 3. 3. 10. 5. 7. 4. 1. 3. 7. 41. 5. 1. 1. 9. 8. 7. 4. 3. 22.
      7. 3. 2. 14. 2. 2. 1. 0. 2. 6. 35. 20. 17. 2. 11. 1. 8. 20. 0. 0.
      14. 39. 5. 0. 0. 18. 10. 4. 2. 0. 0. 3. 1. 3. 1. 3. 0. 0. 0. 0. 0.
      4. 11. 15. 13. 4. 0. 3. 8. 4. 5. 5. 2. 33. 60. 2. 3. 15. 32. 19.
      1. 0. 3. 0. 0. 2. 1. 6. 11. 50. 14. 20. 3. 9. 0. 6. 37. 0. 0. 11.
      58. 8. 1. 2. 21. 6. 3. 1. 0. 0. 2. 1. 0. 2. 2. 1. 0. 2. 1. 8. 9.
      3. 22. 17. 5. 0. 7. 8. 2. 1. 1. 1. 20. 27. 0. 2. 13. 48. 7. 2. 2.
      3. 1. 0. 2. 0. 17. 5. 50. 14. 5. 2. 8. 0. 1. 1. 2. 1. 14. 32. 3.
      0. 1. 37. 10. 2. 3. 1. 0. 1. 1. 2. 3. 3. 2. 1. 0. 1. 8. 10. 5. 1.
      1. 0. 0. 8. 63. 33. 5. 2. 2. 14. 90. 27. 8. 7. 4. 5. 2. 1. 1. 2.
      0. 3. 0. 1. 2. 38. 55. 9. 5. 7. 7. 3. 6. 7. 0. 0. 4. 5. 4. 1. 2.
      0. 9. 4. 1. 2. 1. 0. 11. 2. 3. 6. 3. 2. 1. 9. 13. 8. 10. 2. 3. 2.
      7. 38. 18. 7. 0. 0. 11. 26. 14. 5. 4. 5. 4. 6. 2. 3. 0. 1. 1. 2.
      3. 16. 114.</_>
    <_>
      14. 9. 2. 3. 3. 5. 7. 2. 3. 14. 17. 6. 4. 10. 12. 5. 5. 5. 12. 23.
      9. 1. 5. 6. 4. 13. 6. 4. 2. 4. 3. 3. 2. 3. 6. 3. 6. 3. 9. 4. 6. 3.
      18. 63. 8. 1. 4. 42. 14. 4. 4. 7. 2. 0. 3. 0. 3. 7. 48. 12. 3. 6.
      13. 2. 10. 20. 3. 2. 17. 25. 4. 1. 7. 19. 8. 2. 2. 3. 12. 8. 1. 5.
      2. 1. 2. 2. 0. 0. 3. 7. 18. 8. 16. 5. 2. 5. 20. 53. 11. 6. 4. 10.
      44. 21. 6. 2. 3. 6. 2. 0. 0. 2. 3. 0. 2. 1. 5. 37. 29. 4. 3. 5. 6.
      5. 14. 1. 4. 7. 34. 5. 2. 0. 2. 5. 1. 1. 8. 7. 5. 1. 5. 4. 2. 42.
      2. 2. 2. 3. 6. 4. 34. 20. 3. 9. 2. 14. 12. 9. 3. 2. 6. 29. 13. 5.
      4. 6. 3. 5. 1. 0. 1. 3. 0. 0. 2. 15. 72. 7. 4. 2. 6. 2. 5. 9. 1.
      2. 7. 8. 6. 0. 3. 9. 3. 3. 2. 2. 1. 0. 0. 2. 2. 0. 0. 2. 1. 0. 3.
      13. 23. 33. 10. 1. 1. 8. 38. 34. 8. 5. 3. 22. 105. 24. 7. 3. 6. 8.
      6. 0. 2. 2. 2. 2. 0. 1. 5. 30. 15. 3. 2. 4. 6. 6. 22. 6. 3. 11.
      45. 3. 3. 12. 11. 6. 1. 7. 10. 8. 9. 7. 1. 3. 11. 23. 10. 1. 3. 2.
      4. 10. 11. 16. 5. 2. 2. 6. 28. 3. 7. 2. 14. 7. 2. 1. 5. 36. 3. 3.
      1. 8. 1. 3. 1. 0. 4. 7. 48. 20. 13. 6. 8. 0. 4. 20. 1. 1. 16. 33.
      6. 1. 5. 44. 6. 5. 2. 0. 3. 6. 3. 0. 2. 3. 1. 1. 1. 0. 1. 10. 8.
      8. 9. 5. 1. 6. 13. 7. 4. 5. 4. 23. 30. 9. 5. 5. 28. 12. 1. 1. 4.
      1. 1. 0. 0. 5. 11. 66. 22. 13. 5. 8. 2. 4. 19. 1. 0. 18. 29. 4. 4.
      2. 6. 6. 5. 7. 3. 0. 6. 2. 1. 2. 12. 1. 5. 12. 4. 9. 11. 12. 8.
      11. 2. 1. 5. 13. 6. 5. 6. 1. 21. 13. 10. 3. 4. 53. 7. 0. 1. 11. 5.
      0. 2. 1. 4. 9. 57. 17. 7. 4. 5. 0. 5. 0. 1. 1. 24. 20. 2. 2. 3.
      46. 12. 6. 2. 0. 1. 2. 0. 4. 3. 8. 2. 1. 1. 0. 6. 10. 4. 2. 6. 0.
      0. 10. 37. 17. 2. 3. 2. 16. 71. 26. 1. 3. 16. 4. 2. 3. 4. 0. 0. 3.
      0. 3. 7. 57. 64. 12. 14. 9. 3. 3. 11. 4. 4. 4. 4. 11. 3. 3. 6. 0.
      10. 2. 1. 2. 2. 1. 5. 4. 3. 3. 2. 2. 3. 7. 16. 2. 3. 3. 2. 2. 10.
      9. 5. 2. 1. 5. 6. 11. 9. 1. 5. 9. 3. 2. 5. 4. 0. 6. 2. 5. 6. 17.
      141.</_>
    <_>
      23. 3. 2. 1. 3. 4. 6. 2. 3. 5. 12. 5. 10. 3. 8. 5. 3. 3. 8. 16. 3.
      3. 5. 10. 10. 9. 6. 3. 2. 0. 2. 10. 11. 10. 7. 1. 6. 12. 13. 4. 1.
      3. 15. 24. 11. 4. 4. 39. 14. 7. 6. 9. 1. 1. 2. 3. 9. 12. 77. 19.
      4. 6. 2. 3. 2. 7. 1. 1. 4. 27. 2. 5. 9. 7. 3. 2. 8. 2. 18. 1. 0.
      1. 7. 13. 7. 1. 2. 1. 3. 8. 14. 17. 7. 5. 1. 6. 22. 51. 12. 4. 1.
      9. 19. 19. 4. 4. 17. 5. 5. 3. 8. 0. 0. 5. 2. 3. 7. 68. 17. 5. 1.
      1. 1. 2. 3. 6. 0. 7. 14. 0. 3. 9. 8. 2. 4. 11. 4. 13. 2. 1. 10. 5.
      5. 32. 2. 2. 0. 7. 4. 8. 17. 8. 3. 8. 9. 11. 15. 9. 1. 3. 17. 36.
      22. 4. 7. 11. 15. 9. 3. 6. 2. 5. 5. 1. 1. 9. 68. 15. 9. 1. 2. 2.
      4. 5. 1. 2. 6. 8. 9. 1. 5. 12. 5. 1. 2. 3. 5. 1. 2. 0. 7. 0. 0. 3.
      2. 0. 3. 7. 20. 30. 12. 0. 1. 2. 30. 44. 12. 3. 2. 21. 50. 24. 8.
      4. 8. 12. 4. 1. 4. 3. 3. 4. 3. 4. 11. 51. 15. 0. 0. 2. 0. 6. 8. 1.
      6. 13. 23. 3. 6. 19. 17. 7. 4. 8. 21. 10. 7. 8. 6. 6. 15. 51. 4.
      3. 2. 3. 9. 7. 9. 1. 1. 0. 10. 18. 7. 0. 0. 0. 11. 16. 11. 4. 3.
      19. 3. 1. 4. 14. 4. 0. 4. 2. 3. 11. 48. 20. 14. 3. 5. 1. 3. 10. 1.
      1. 13. 49. 2. 2. 1. 13. 8. 4. 0. 2. 2. 4. 1. 1. 1. 8. 3. 2. 2. 3.
      4. 15. 13. 7. 5. 1. 1. 9. 27. 14. 6. 3. 0. 16. 36. 15. 7. 9. 45.
      10. 4. 3. 2. 0. 0. 0. 0. 6. 7. 50. 21. 17. 6. 8. 2. 5. 16. 1. 2.
      8. 21. 4. 0. 2. 22. 5. 0. 3. 1. 1. 6. 1. 0. 5. 11. 3. 0. 3. 2. 13.
      13. 4. 5. 6. 2. 0. 6. 12. 10. 9. 7. 2. 12. 13. 4. 9. 11. 40. 9. 3.
      3. 10. 2. 1. 7. 3. 5. 14. 83. 13. 5. 3. 8. 3. 1. 8. 1. 0. 9. 20.
      2. 0. 1. 11. 9. 2. 0. 0. 0. 0. 0. 6. 2. 1. 1. 0. 0. 1. 7. 18. 15.
      3. 2. 1. 0. 14. 51. 49. 7. 1. 1. 17. 67. 35. 7. 5. 8. 9. 6. 7. 1.
      2. 0. 0. 1. 0. 3. 50. 46. 18. 10. 3. 6. 3. 8. 2. 2. 0. 6. 4. 1. 2.
      1. 0. 2. 1. 0. 0. 1. 1. 4. 5. 1. 1. 1. 0. 1. 18. 22. 18. 11. 6. 3.
      1. 12. 21. 7. 7. 4. 2. 7. 19. 10. 11. 4. 8. 8. 3. 9. 3. 0. 2. 0.
      2. 3. 18. 125.</_>
    <_>
      27. 11. 0. 6. 3. 2. 13. 5. 4. 3. 10. 6. 2. 1. 3. 2. 7. 10. 11. 21.
      4. 5. 2. 8. 22. 21. 5. 3. 0. 3. 5. 3. 13. 9. 4. 5. 1. 3. 4. 2. 4.
      2. 11. 16. 3. 4. 4. 43. 13. 3. 4. 14. 2. 0. 2. 2. 4. 11. 83. 18.
      3. 4. 5. 5. 8. 9. 6. 6. 9. 17. 5. 7. 10. 15. 9. 3. 7. 11. 14. 5.
      2. 2. 4. 6. 6. 4. 3. 0. 4. 2. 10. 15. 12. 3. 1. 4. 13. 41. 7. 4.
      4. 3. 15. 9. 4. 9. 13. 6. 3. 3. 0. 3. 2. 0. 0. 8. 17. 76. 36. 1.
      2. 3. 8. 4. 5. 5. 1. 14. 14. 9. 6. 7. 17. 8. 5. 9. 11. 7. 3. 0. 8.
      3. 4. 34. 7. 1. 1. 6. 3. 2. 10. 11. 6. 3. 1. 10. 9. 4. 1. 0. 12.
      19. 9. 8. 7. 9. 11. 4. 2. 2. 2. 6. 2. 1. 2. 13. 86. 18. 2. 4. 1.
      8. 5. 5. 2. 4. 3. 5. 2. 4. 24. 12. 4. 5. 11. 5. 13. 11. 3. 5. 3.
      5. 3. 4. 4. 0. 4. 7. 14. 16. 6. 3. 2. 6. 11. 30. 13. 4. 3. 20. 44.
      12. 9. 2. 21. 12. 5. 0. 2. 1. 1. 2. 3. 7. 8. 51. 22. 0. 2. 5. 7.
      4. 8. 3. 3. 9. 15. 3. 11. 9. 12. 7. 7. 5. 11. 24. 5. 3. 3. 4. 17.
      12. 4. 6. 3. 5. 7. 5. 17. 4. 2. 4. 6. 17. 10. 1. 3. 1. 11. 14. 6.
      0. 10. 16. 1. 4. 3. 6. 1. 5. 3. 3. 4. 17. 84. 15. 3. 2. 8. 2. 4.
      6. 6. 8. 3. 11. 3. 2. 14. 35. 4. 4. 4. 4. 2. 13. 3. 4. 5. 4. 7. 2.
      1. 2. 4. 13. 9. 5. 1. 1. 1. 9. 23. 22. 6. 2. 1. 21. 58. 11. 4. 4.
      29. 11. 3. 5. 7. 2. 2. 0. 2. 5. 6. 46. 7. 3. 3. 9. 0. 7. 23. 0. 6.
      13. 16. 1. 1. 1. 33. 6. 2. 1. 2. 3. 3. 2. 0. 1. 0. 3. 2. 4. 1. 4.
      13. 25. 49. 11. 3. 0. 8. 36. 13. 10. 4. 0. 17. 34. 7. 3. 4. 25. 6.
      2. 4. 4. 2. 0. 3. 1. 6. 7. 40. 14. 13. 5. 9. 1. 6. 12. 1. 5. 3.
      10. 7. 4. 1. 9. 7. 0. 1. 0. 1. 1. 0. 0. 2. 2. 0. 0. 2. 1. 5. 22.
      23. 10. 3. 2. 1. 11. 45. 54. 10. 2. 1. 12. 33. 25. 5. 10. 13. 6.
      4. 6. 2. 0. 1. 0. 0. 6. 10. 55. 11. 2. 0. 6. 1. 2. 1. 0. 0. 0. 0.
      1. 0. 0. 0. 0. 0. 0. 0. 0. 0. 0. 3. 1. 0. 0. 0. 0. 0. 14. 35. 65.
      15. 1. 0. 0. 9. 46. 117. 34. 1. 2. 3. 23. 29. 11. 2. 0. 2. 2. 7.
      1. 1. 0. 0. 0. 0. 5. 41.</_>
    <_>
      26. 8. 5. 4. 3. 5. 9. 5. 12. 11. 14. 9. 8. 14. 36. 9. 3. 18. 7.
      14. 9. 3. 2. 9. 6. 4. 3. 3. 3. 6. 2. 2. 7. 7. 7. 2. 5. 0. 2. 2. 4.
      5. 8. 16. 4. 5. 9. 11. 7. 1. 2. 1. 4. 2. 4. 3. 7. 18. 79. 38. 7.
      5. 2. 4. 4. 2. 5. 1. 13. 12. 15. 7. 17. 24. 7. 4. 10. 20. 4. 6. 2.
      4. 8. 24. 24. 9. 4. 4. 5. 1. 1. 2. 1. 1. 1. 3. 2. 0. 0. 2. 3. 7.
      0. 2. 1. 4. 12. 6. 0. 3. 17. 1. 3. 6. 2. 11. 14. 97. 75. 7. 4. 4.
      9. 3. 2. 7. 4. 2. 2. 12. 6. 1. 3. 0. 10. 10. 6. 1. 0. 1. 5. 5. 5.
      7. 8. 4. 1. 9. 1. 1. 3. 4. 2. 4. 2. 6. 2. 0. 2. 4. 2. 6. 3. 0. 6.
      5. 4. 2. 4. 5. 4. 0. 4. 3. 11. 28. 163. 13. 3. 1. 4. 2. 1. 5. 6.
      8. 15. 27. 2. 9. 9. 14. 7. 2. 10. 17. 24. 10. 5. 3. 5. 19. 33. 15.
      5. 3. 2. 5. 7. 9. 2. 2. 2. 3. 0. 5. 2. 0. 1. 8. 7. 2. 2. 0. 57. 7.
      1. 0. 21. 4. 3. 6. 0. 1. 9. 49. 24. 2. 2. 6. 2. 5. 6. 4. 7. 10.
      13. 7. 9. 10. 21. 6. 8. 10. 15. 10. 4. 2. 5. 7. 18. 27. 13. 3. 3.
      1. 3. 14. 9. 4. 0. 2. 4. 3. 26. 7. 2. 3. 5. 5. 2. 2. 1. 9. 1. 1.
      3. 6. 4. 6. 7. 3. 8. 14. 80. 31. 3. 1. 3. 2. 3. 4. 5. 3. 13. 14.
      7. 10. 6. 14. 6. 12. 10. 10. 12. 4. 6. 4. 13. 25. 13. 4. 5. 2. 3.
      3. 7. 2. 2. 3. 1. 4. 6. 16. 3. 1. 1. 11. 21. 4. 1. 4. 15. 2. 1. 1.
      12. 2. 1. 3. 1. 14. 14. 90. 27. 4. 5. 3. 4. 6. 12. 2. 7. 13. 17.
      5. 4. 8. 27. 7. 0. 7. 2. 9. 6. 5. 1. 2. 4. 10. 3. 1. 3. 1. 4. 6.
      28. 10. 8. 3. 4. 8. 7. 6. 8. 6. 9. 24. 15. 1. 4. 17. 5. 2. 2. 5.
      2. 0. 4. 2. 3. 11. 85. 24. 5. 5. 1. 4. 1. 12. 2. 3. 3. 5. 3. 9. 7.
      11. 5. 8. 4. 11. 20. 12. 5. 1. 6. 15. 72. 11. 3. 1. 3. 3. 8. 22.
      6. 1. 2. 4. 2. 1. 0. 2. 1. 3. 5. 0. 2. 0. 22. 5. 0. 0. 19. 4. 3.
      5. 0. 2. 14. 86. 25. 3. 1. 0. 4. 0. 5. 3. 8. 5. 6. 2. 16. 17. 13.
      3. 4. 7. 22. 46. 17. 5. 5. 8. 16. 26. 18. 8. 1. 4. 3. 1. 6. 2. 2.
      9. 5. 5. 0. 1. 0. 2. 7. 7. 2. 1. 2. 22. 10. 1. 1. 14. 1. 3. 5. 2.
      9. 10. 63.</_>
    <_>
      32. 8. 10. 6. 5. 4. 6. 5. 3. 1. 13. 7. 2. 8. 2. 2. 3. 3. 7. 32. 7.
      1. 5. 1. 1. 8. 7. 2. 3. 10. 8. 6. 5. 14. 3. 2. 3. 14. 20. 11. 1.
      2. 9. 33. 14. 5. 3. 17. 11. 5. 2. 9. 2. 0. 0. 2. 2. 8. 79. 21. 2.
      4. 2. 13. 4. 12. 6. 2. 3. 14. 3. 5. 5. 2. 6. 4. 2. 20. 27. 3. 0.
      4. 3. 3. 7. 11. 1. 2. 9. 7. 21. 26. 16. 4. 3. 2. 13. 53. 19. 3. 3.
      3. 9. 18. 3. 5. 2. 5. 1. 0. 0. 0. 1. 3. 5. 0. 5. 64. 31. 6. 3. 12.
      3. 5. 13. 2. 4. 1. 21. 7. 4. 4. 2. 1. 4. 4. 18. 3. 3. 1. 10. 6. 2.
      15. 14. 1. 3. 8. 5. 10. 20. 14. 5. 2. 6. 17. 15. 7. 9. 2. 9. 15.
      11. 4. 8. 9. 12. 7. 1. 2. 1. 1. 2. 2. 3. 10. 74. 18. 5. 4. 2. 1.
      0. 2. 1. 4. 8. 11. 4. 4. 0. 15. 1. 2. 2. 0. 0. 0. 1. 1. 1. 2. 0.
      0. 0. 0. 8. 11. 30. 21. 8. 3. 0. 8. 28. 50. 18. 8. 5. 16. 54. 18.
      7. 8. 17. 16. 4. 3. 0. 1. 0. 0. 2. 4. 9. 48. 23. 6. 3. 1. 1. 2. 8.
      7. 9. 7. 43. 7. 6. 2. 5. 8. 3. 8. 15. 17. 5. 6. 4. 13. 18. 23. 7.
      3. 2. 7. 4. 3. 4. 5. 1. 1. 6. 10. 4. 0. 0. 1. 12. 7. 4. 1. 4. 17.
      5. 2. 4. 10. 6. 4. 1. 3. 3. 14. 89. 33. 11. 11. 9. 3. 2. 18. 3. 0.
      8. 32. 5. 2. 2. 9. 11. 0. 0. 0. 1. 8. 2. 1. 6. 2. 7. 3. 2. 1. 6.
      11. 14. 4. 8. 3. 1. 9. 19. 6. 3. 6. 0. 20. 32. 5. 3. 9. 22. 17. 2.
      1. 4. 0. 1. 0. 0. 4. 11. 81. 30. 17. 9. 12. 4. 3. 11. 2. 2. 4. 11.
      6. 2. 1. 5. 5. 7. 7. 6. 5. 2. 2. 0. 1. 9. 4. 3. 4. 3. 7. 8. 11.
      16. 3. 1. 2. 4. 6. 4. 10. 2. 2. 14. 5. 2. 5. 9. 42. 8. 1. 1. 10.
      2. 1. 8. 3. 10. 13. 107. 32. 6. 4. 6. 5. 8. 2. 5. 3. 15. 31. 4. 0.
      2. 37. 8. 1. 1. 0. 1. 7. 3. 4. 3. 4. 0. 4. 1. 2. 11. 11. 3. 2. 6.
      3. 0. 11. 21. 9. 8. 1. 1. 14. 58. 15. 5. 4. 3. 4. 5. 1. 3. 1. 0.
      2. 0. 2. 13. 78. 74. 7. 5. 1. 3. 3. 1. 7. 2. 1. 1. 13. 8. 2. 2. 1.
      11. 4. 3. 3. 2. 2. 10. 8. 4. 0. 1. 3. 2. 8. 7. 4. 0. 1. 2. 2. 4.
      3. 4. 3. 5. 1. 8. 8. 5. 3. 4. 6. 3. 1. 2. 3. 4. 1. 5. 4. 6. 32.
      171.</_>
    <_>
      38. 6. 6. 5. 2. 3. 4. 3. 0. 5. 4. 6. 2. 1. 4. 2. 11. 2. 4. 2. 2.
      1. 3. 8. 1. 3. 4. 1. 0. 8. 5. 1. 1. 3. 1. 2. 8. 7. 3. 1. 4. 1. 32.
      43. 2. 2. 9. 14. 17. 5. 4. 1. 3. 3. 0. 8. 8. 18. 147. 55. 8. 10.
      6. 7. 10. 6. 16. 5. 7. 29. 8. 5. 6. 14. 7. 3. 0. 5. 6. 5. 3. 3. 2.
      2. 2. 0. 5. 4. 7. 6. 2. 4. 3. 3. 2. 4. 3. 1. 3. 2. 2. 2. 1. 2. 3.
      4. 2. 1. 0. 5. 3. 0. 3. 1. 1. 10. 20. 155. 65. 8. 8. 3. 6. 3. 2.
      7. 2. 1. 1. 13. 1. 0. 3. 1. 14. 8. 2. 1. 5. 0. 8. 6. 7. 3. 0. 5.
      4. 15. 4. 2. 4. 3. 3. 5. 3. 8. 6. 5. 2. 2. 5. 5. 9. 4. 4. 8. 3. 2.
      8. 4. 0. 2. 6. 5. 4. 20. 156. 28. 7. 0. 1. 3. 0. 4. 2. 2. 1. 2. 3.
      1. 3. 2. 0. 9. 6. 6. 17. 1. 2. 7. 17. 4. 12. 6. 0. 0. 12. 2. 2. 9.
      4. 0. 3. 11. 14. 8. 4. 0. 0. 39. 16. 5. 3. 1. 41. 20. 3. 5. 9. 4.
      4. 5. 3. 3. 15. 103. 18. 5. 10. 8. 5. 0. 9. 4. 5. 7. 7. 5. 1. 6.
      7. 4. 5. 11. 21. 24. 8. 3. 7. 3. 8. 22. 14. 1. 0. 2. 4. 5. 30. 9.
      5. 3. 3. 7. 9. 9. 3. 2. 13. 9. 6. 4. 3. 17. 12. 1. 1. 4. 2. 1. 8.
      1. 5. 13. 75. 40. 4. 4. 2. 5. 7. 4. 4. 9. 22. 21. 12. 7. 6. 28.
      12. 5. 1. 1. 2. 6. 6. 3. 0. 6. 2. 2. 3. 3. 7. 0. 3. 2. 9. 4. 2. 4.
      7. 4. 1. 2. 2. 15. 37. 8. 1. 7. 18. 11. 1. 1. 4. 3. 3. 2. 1. 5.
      10. 93. 31. 3. 0. 0. 1. 0. 3. 6. 5. 6. 7. 10. 6. 6. 11. 4. 4. 4.
      4. 3. 3. 3. 4. 7. 6. 4. 5. 3. 4. 6. 3. 0. 1. 1. 1. 1. 5. 1. 3. 0.
      0. 2. 41. 32. 8. 1. 7. 46. 24. 3. 4. 9. 7. 1. 7. 6. 8. 11. 102.
      23. 5. 4. 1. 9. 3. 6. 5. 8. 3. 22. 4. 10. 15. 11. 5. 6. 10. 17.
      14. 11. 11. 4. 5. 16. 21. 9. 6. 7. 7. 3. 6. 20. 5. 3. 6. 5. 3. 2.
      3. 2. 2. 4. 2. 2. 1. 3. 7. 4. 1. 2. 9. 0. 5. 4. 2. 4. 12. 94. 24.
      4. 5. 2. 1. 2. 5. 9. 2. 12. 12. 6. 6. 0. 9. 9. 14. 5. 14. 7. 4. 3.
      11. 7. 12. 21. 4. 6. 3. 13. 8. 2. 1. 1. 1. 0. 7. 8. 10. 2. 1. 0.
      13. 9. 3. 1. 2. 49. 4. 3. 2. 8. 3. 4. 6. 4. 4. 10. 96.</_>
    <_>
      19. 5. 2. 8. 2. 2. 13. 1. 9. 3. 8. 1. 1. 9. 9. 6. 2. 6. 7. 20. 8.
      2. 3. 5. 5. 9. 6. 1. 0. 6. 9. 16. 18. 6. 3. 8. 9. 19. 28. 9. 4. 3.
      7. 15. 6. 14. 9. 7. 8. 6. 3. 10. 2. 0. 3. 4. 6. 14. 70. 18. 4. 5.
      6. 6. 4. 15. 0. 1. 6. 13. 5. 1. 6. 3. 6. 2. 3. 2. 15. 3. 1. 4. 6.
      2. 1. 0. 0. 1. 5. 7. 30. 19. 9. 3. 5. 4. 15. 64. 19. 7. 2. 14. 29.
      8. 4. 11. 9. 9. 8. 2. 0. 2. 3. 2. 1. 1. 9. 54. 11. 4. 3. 17. 3. 9.
      14. 1. 1. 7. 13. 3. 2. 5. 11. 8. 2. 3. 2. 6. 4. 0. 5. 1. 3. 8. 0.
      0. 0. 4. 9. 29. 28. 21. 8. 0. 3. 13. 66. 21. 12. 2. 4. 11. 19. 4.
      10. 6. 8. 2. 0. 8. 3. 2. 1. 0. 3. 7. 44. 17. 5. 9. 9. 4. 4. 6. 1.
      4. 5. 27. 2. 3. 0. 3. 6. 4. 3. 1. 2. 0. 0. 2. 4. 4. 3. 3. 0. 0. 1.
      5. 21. 10. 5. 0. 2. 3. 16. 51. 13. 5. 2. 31. 35. 22. 4. 5. 19. 17.
      3. 1. 2. 3. 4. 1. 2. 6. 14. 60. 16. 3. 3. 4. 1. 3. 13. 6. 3. 16.
      32. 11. 11. 11. 11. 6. 7. 7. 4. 16. 9. 1. 1. 2. 25. 18. 6. 3. 0.
      6. 3. 5. 22. 4. 1. 1. 1. 10. 6. 1. 4. 4. 8. 5. 4. 5. 2. 34. 1. 1.
      2. 9. 1. 2. 5. 1. 8. 13. 76. 29. 4. 2. 5. 3. 4. 5. 3. 7. 14. 29.
      10. 5. 10. 24. 8. 6. 6. 5. 4. 10. 2. 1. 11. 9. 12. 3. 5. 0. 7. 9.
      2. 4. 1. 0. 0. 5. 9. 3. 2. 0. 0. 20. 25. 5. 4. 8. 34. 18. 3. 2.
      12. 4. 1. 3. 2. 11. 6. 58. 25. 8. 4. 5. 1. 4. 11. 0. 1. 16. 21.
      14. 4. 5. 19. 4. 6. 7. 5. 2. 4. 2. 5. 3. 12. 2. 4. 9. 4. 4. 2. 3.
      2. 3. 3. 0. 2. 4. 4. 0. 3. 1. 26. 9. 0. 0. 8. 54. 15. 4. 1. 15. 3.
      0. 5. 0. 10. 21. 85. 30. 7. 5. 4. 1. 5. 11. 3. 2. 10. 26. 7. 4. 3.
      19. 7. 6. 7. 4. 1. 3. 1. 2. 11. 25. 12. 6. 5. 1. 5. 6. 6. 4. 2. 2.
      1. 11. 8. 1. 2. 3. 1. 19. 11. 3. 3. 3. 51. 7. 3. 2. 11. 1. 0. 5.
      2. 5. 10. 78. 44. 13. 7. 7. 5. 4. 12. 3. 2. 1. 5. 6. 0. 2. 1. 1.
      6. 4. 7. 3. 4. 2. 6. 8. 11. 18. 9. 6. 1. 15. 6. 12. 10. 8. 3. 1.
      6. 13. 11. 11. 5. 1. 4. 14. 10. 4. 5. 2. 2. 5. 3. 7. 4. 3. 6. 3.
      3. 15. 104.</_>
    <_>
      16. 4. 0. 0. 2. 3. 0. 4. 5. 13. 22. 17. 20. 11. 20. 12. 5. 11. 13.
      6. 9. 1. 3. 2. 20. 9. 10. 8. 4. 3. 1. 0. 1. 6. 0. 0. 2. 4. 0. 0.
      2. 1. 20. 39. 7. 6. 9. 19. 18. 0. 1. 3. 1. 2. 6. 1. 18. 9. 65. 21.
      2. 2. 0. 3. 0. 1. 4. 8. 17. 20. 7. 9. 9. 44. 13. 6. 22. 10. 5. 4.
      2. 0. 8. 52. 25. 7. 2. 1. 1. 1. 0. 1. 1. 1. 0. 1. 0. 0. 0. 1. 0.
      3. 4. 0. 1. 2. 54. 0. 1. 1. 45. 6. 1. 7. 2. 5. 5. 46. 79. 17. 5.
      1. 4. 1. 1. 7. 5. 2. 3. 11. 3. 2. 2. 1. 6. 5. 19. 6. 2. 5. 2. 5.
      5. 5. 4. 5. 1. 5. 3. 4. 1. 4. 3. 4. 3. 2. 2. 2. 1. 0. 4. 3. 1. 9.
      15. 5. 5. 5. 1. 9. 3. 2. 4. 2. 12. 23. 143. 16. 5. 0. 3. 1. 1. 7.
      3. 5. 8. 19. 13. 3. 4. 21. 4. 8. 14. 10. 10. 10. 4. 1. 3. 19. 26.
      12. 5. 0. 0. 4. 0. 4. 7. 0. 0. 1. 1. 2. 0. 0. 1. 23. 12. 4. 1. 3.
      70. 15. 3. 3. 31. 3. 0. 9. 1. 8. 7. 46. 16. 5. 1. 5. 4. 6. 9. 2.
      2. 10. 14. 4. 6. 8. 31. 3. 5. 9. 5. 1. 3. 2. 3. 7. 18. 14. 1. 2.
      2. 3. 3. 24. 31. 9. 4. 2. 2. 10. 37. 15. 3. 0. 4. 9. 7. 4. 3. 23.
      1. 4. 0. 12. 2. 2. 2. 1. 4. 5. 70. 25. 7. 1. 5. 2. 2. 1. 5. 4. 9.
      13. 11. 9. 12. 16. 6. 8. 11. 12. 13. 3. 2. 2. 6. 29. 16. 10. 4. 1.
      5. 2. 0. 4. 7. 1. 2. 4. 6. 5. 2. 1. 0. 15. 26. 3. 0. 6. 45. 10. 1.
      0. 11. 2. 0. 9. 1. 9. 7. 65. 19. 1. 1. 1. 3. 2. 5. 1. 2. 3. 5. 10.
      2. 7. 11. 2. 7. 5. 13. 5. 10. 6. 3. 6. 19. 53. 12. 6. 0. 4. 1. 5.
      27. 6. 0. 1. 3. 4. 12. 5. 0. 1. 20. 20. 7. 3. 0. 50. 13. 0. 2. 22.
      2. 1. 6. 1. 6. 5. 47. 19. 7. 4. 2. 1. 2. 5. 1. 0. 9. 4. 5. 5. 10.
      59. 7. 6. 6. 13. 18. 12. 0. 2. 3. 23. 59. 8. 1. 2. 2. 4. 2. 7. 3.
      1. 0. 0. 3. 4. 4. 0. 2. 5. 14. 4. 5. 3. 30. 4. 0. 2. 21. 0. 0. 5.
      2. 12. 7. 55. 28. 4. 4. 4. 5. 3. 7. 1. 4. 7. 6. 10. 7. 14. 13. 5.
      3. 10. 28. 42. 11. 3. 3. 3. 19. 13. 8. 7. 3. 4. 6. 11. 7. 4. 2. 3.
      6. 4. 7. 2. 1. 1. 11. 7. 0. 0. 5. 26. 6. 1. 0. 16. 1. 1. 9. 3. 11.
      6. 58.</_>
    <_>
      52. 7. 6. 2. 3. 4. 6. 4. 4. 11. 9. 13. 6. 6. 10. 2. 17. 17. 4. 4.
      5. 3. 1. 10. 12. 13. 9. 1. 3. 5. 4. 5. 2. 4. 4. 1. 3. 3. 2. 0. 5.
      0. 14. 13. 5. 5. 6. 9. 5. 2. 1. 12. 4. 1. 3. 4. 8. 10. 110. 68. 6.
      1. 1. 5. 4. 4. 5. 6. 15. 15. 18. 4. 3. 11. 4. 4. 5. 2. 1. 3. 3. 6.
      6. 9. 4. 2. 3. 2. 6. 0. 3. 0. 5. 1. 0. 4. 2. 1. 0. 2. 0. 13. 11.
      3. 0. 1. 13. 3. 4. 1. 5. 1. 0. 7. 4. 10. 18. 156. 104. 16. 4. 2.
      2. 1. 0. 6. 6. 1. 0. 16. 2. 1. 1. 1. 13. 6. 2. 1. 1. 0. 9. 9. 3.
      2. 1. 1. 4. 9. 1. 1. 0. 0. 2. 3. 9. 3. 0. 4. 1. 2. 2. 3. 0. 3. 6.
      1. 2. 1. 2. 2. 1. 4. 3. 2. 4. 19. 189. 27. 10. 5. 6. 11. 3. 4. 3.
      3. 8. 7. 10. 5. 4. 14. 4. 5. 4. 12. 17. 6. 3. 2. 5. 3. 11. 5. 2.
      0. 6. 7. 8. 6. 8. 2. 3. 4. 10. 3. 1. 0. 2. 28. 14. 4. 3. 4. 23.
      10. 0. 2. 7. 1. 4. 3. 3. 8. 19. 102. 34. 3. 4. 3. 5. 3. 3. 4. 2.
      3. 4. 2. 5. 8. 14. 4. 13. 12. 12. 18. 5. 1. 6. 7. 10. 7. 3. 2. 2.
      5. 5. 11. 7. 2. 7. 2. 7. 11. 9. 4. 2. 5. 20. 13. 5. 4. 4. 18. 1.
      1. 4. 3. 3. 1. 1. 5. 6. 9. 120. 77. 13. 3. 1. 2. 3. 1. 10. 6. 6.
      1. 19. 5. 9. 6. 2. 18. 5. 1. 7. 3. 2. 3. 4. 4. 0. 1. 6. 3. 6. 6.
      1. 3. 1. 1. 1. 9. 1. 1. 0. 2. 2. 12. 13. 5. 3. 4. 6. 10. 2. 3. 2.
      1. 2. 1. 4. 9. 17. 145. 31. 5. 4. 3. 8. 1. 5. 4. 1. 2. 7. 5. 6. 6.
      6. 0. 9. 4. 12. 20. 5. 7. 7. 4. 9. 33. 11. 5. 3. 8. 2. 2. 12. 7.
      2. 2. 6. 5. 4. 3. 2. 0. 19. 10. 7. 2. 2. 16. 11. 5. 2. 7. 7. 3. 3.
      4. 6. 14. 98. 25. 3. 2. 2. 3. 3. 8. 4. 3. 12. 7. 3. 0. 5. 17. 4.
      4. 5. 12. 8. 6. 5. 4. 3. 23. 41. 12. 4. 5. 6. 7. 4. 15. 4. 2. 5.
      5. 3. 2. 2. 0. 1. 22. 16. 2. 1. 1. 34. 9. 4. 5. 10. 4. 1. 3. 1. 4.
      6. 82. 49. 6. 4. 0. 6. 2. 1. 4. 2. 9. 4. 18. 3. 6. 19. 3. 8. 4. 7.
      48. 5. 3. 2. 8. 7. 2. 3. 3. 2. 5. 2. 0. 3. 0. 3. 4. 5. 3. 0. 0. 0.
      2. 21. 16. 2. 1. 2. 23. 9. 0. 2. 2. 4. 6. 3. 2. 3. 23. 110.</_>
    <_>
      35. 10. 3. 3. 4. 2. 6. 4. 4. 9. 24. 5. 1. 9. 19. 9. 4. 4. 3. 9. 6.
      1. 1. 1. 4. 0. 0. 2. 1. 7. 14. 0. 1. 5. 0. 0. 12. 11. 2. 1. 1. 4.
      20. 57. 10. 7. 15. 15. 14. 7. 2. 1. 1. 1. 1. 0. 5. 13. 84. 51. 13.
      9. 13. 3. 12. 15. 5. 4. 15. 23. 7. 2. 5. 13. 9. 6. 3. 3. 3. 1. 2.
      4. 5. 1. 2. 1. 0. 2. 8. 6. 3. 5. 12. 6. 3. 2. 4. 5. 4. 7. 8. 4. 2.
      2. 4. 8. 1. 0. 2. 1. 3. 0. 1. 4. 2. 3. 9. 143. 77. 14. 5. 4. 4. 4.
      0. 6. 3. 6. 1. 12. 2. 3. 3. 1. 16. 8. 2. 0. 0. 2. 6. 14. 14. 1. 2.
      1. 0. 11. 4. 4. 4. 2. 1. 3. 9. 7. 9. 5. 3. 0. 9. 12. 3. 5. 8. 16.
      6. 3. 3. 3. 5. 1. 2. 4. 3. 20. 118. 16. 4. 1. 2. 0. 0. 0. 4. 4. 5.
      2. 6. 11. 17. 18. 3. 12. 10. 17. 35. 9. 2. 2. 14. 25. 27. 20. 2.
      4. 1. 1. 1. 0. 0. 0. 1. 4. 0. 0. 0. 0. 1. 34. 10. 1. 0. 1. 61. 22.
      2. 1. 20. 6. 1. 2. 4. 7. 3. 38. 25. 6. 5. 1. 3. 3. 5. 6. 4. 14.
      15. 9. 8. 20. 29. 6. 3. 9. 7. 16. 19. 2. 3. 3. 11. 13. 6. 2. 3. 3.
      7. 9. 5. 5. 3. 0. 2. 5. 12. 9. 2. 3. 16. 22. 3. 4. 3. 14. 6. 3. 2.
      5. 1. 0. 9. 3. 5. 5. 72. 52. 17. 9. 2. 2. 6. 3. 1. 3. 8. 17. 6. 0.
      1. 9. 5. 11. 3. 4. 2. 1. 3. 2. 3. 2. 0. 1. 1. 0. 10. 8. 1. 8. 9.
      3. 2. 10. 11. 8. 2. 6. 0. 26. 36. 9. 8. 8. 13. 13. 2. 3. 2. 0. 2.
      2. 4. 6. 13. 95. 11. 3. 0. 4. 3. 4. 4. 2. 2. 8. 7. 8. 5. 9. 14. 4.
      2. 10. 18. 8. 9. 0. 9. 5. 18. 47. 15. 4. 5. 4. 3. 4. 22. 2. 2. 1.
      5. 2. 7. 5. 6. 1. 13. 21. 7. 3. 2. 31. 11. 2. 1. 15. 3. 2. 9. 0.
      9. 9. 54. 14. 2. 1. 1. 5. 2. 2. 5. 4. 2. 17. 2. 6. 14. 8. 4. 2. 7.
      35. 44. 15. 5. 1. 4. 25. 47. 22. 9. 5. 0. 0. 0. 15. 6. 4. 1. 3. 1.
      0. 0. 1. 1. 13. 8. 1. 0. 1. 30. 13. 0. 0. 25. 4. 3. 5. 0. 2. 6.
      41. 22. 0. 2. 1. 7. 1. 3. 4. 2. 4. 8. 6. 7. 14. 8. 5. 6. 6. 33.
      49. 11. 5. 4. 1. 12. 59. 23. 6. 2. 3. 2. 0. 6. 3. 3. 2. 1. 0. 27.
      0. 1. 0. 3. 4. 2. 0. 1. 17. 5. 0. 0. 11. 5. 1. 3. 2. 8. 15. 58.</_>
    <_>
      27. 14. 2. 3. 1. 6. 4. 3. 3. 5. 17. 9. 5. 17. 19. 6. 4. 0. 5. 21.
      17. 2. 3. 5. 3. 8. 8. 5. 1. 4. 5. 3. 1. 9. 2. 3. 6. 14. 11. 5. 3.
      3. 11. 30. 7. 5. 5. 27. 10. 1. 5. 6. 1. 3. 5. 5. 3. 9. 69. 32. 4.
      3. 10. 7. 5. 10. 3. 0. 9. 19. 5. 2. 2. 12. 8. 5. 2. 0. 3. 5. 1. 3.
      1. 4. 0. 2. 0. 2. 5. 10. 19. 19. 17. 5. 2. 6. 12. 81. 18. 4. 3. 2.
      7. 8. 6. 5. 0. 1. 1. 3. 2. 0. 1. 0. 2. 0. 9. 87. 27. 10. 12. 7. 2.
      6. 10. 1. 3. 6. 24. 3. 1. 3. 8. 6. 3. 4. 3. 2. 4. 1. 3. 4. 3. 1.
      1. 2. 1. 3. 12. 17. 19. 16. 4. 0. 7. 23. 22. 21. 3. 4. 9. 33. 16.
      5. 12. 3. 8. 3. 2. 4. 0. 1. 1. 0. 3. 10. 72. 17. 6. 5. 6. 1. 5. 4.
      2. 2. 2. 6. 6. 3. 0. 3. 2. 0. 1. 1. 0. 3. 2. 0. 2. 3. 3. 0. 0. 1.
      3. 17. 29. 17. 12. 4. 0. 1. 35. 77. 24. 9. 2. 7. 56. 30. 7. 3. 7.
      4. 2. 0. 2. 2. 0. 0. 1. 1. 7. 49. 24. 3. 0. 4. 2. 4. 8. 4. 6. 15.
      40. 7. 5. 4. 27. 7. 4. 13. 6. 9. 9. 0. 1. 4. 18. 15. 5. 1. 1. 1.
      6. 7. 12. 10. 3. 1. 7. 9. 14. 3. 5. 2. 9. 8. 7. 3. 6. 27. 2. 1. 2.
      9. 2. 2. 3. 6. 9. 7. 65. 24. 10. 5. 13. 0. 3. 15. 2. 4. 13. 51. 3.
      2. 0. 14. 2. 3. 3. 0. 1. 2. 2. 0. 3. 4. 6. 2. 2. 3. 5. 13. 8. 7.
      13. 3. 0. 5. 13. 19. 4. 2. 3. 22. 20. 10. 7. 13. 37. 8. 2. 1. 5.
      2. 1. 1. 1. 5. 6. 66. 28. 22. 11. 13. 3. 8. 25. 2. 1. 18. 26. 6.
      2. 2. 21. 11. 2. 3. 0. 1. 5. 0. 0. 2. 2. 1. 1. 2. 4. 4. 5. 8. 10.
      15. 4. 0. 2. 10. 3. 5. 6. 4. 15. 13. 1. 1. 9. 36. 14. 0. 3. 3. 1.
      1. 4. 1. 17. 8. 69. 35. 15. 2. 11. 4. 6. 6. 6. 4. 20. 9. 6. 7. 5.
      39. 10. 8. 4. 1. 5. 2. 1. 0. 3. 2. 0. 1. 2. 1. 7. 17. 4. 4. 5. 2.
      2. 8. 9. 8. 4. 3. 4. 19. 10. 12. 7. 9. 13. 5. 1. 4. 1. 2. 2. 0. 0.
      5. 13. 99. 58. 6. 5. 3. 7. 2. 7. 10. 5. 5. 3. 14. 11. 2. 2. 1. 9.
      3. 5. 6. 2. 4. 5. 9. 3. 7. 2. 3. 3. 6. 4. 5. 12. 2. 0. 1. 6. 11.
      3. 6. 4. 2. 2. 13. 5. 2. 9. 3. 5. 3. 2. 1. 2. 2. 3. 3. 8. 16. 151.</_>
    <_>
      38. 17. 0. 6. 1. 5. 6. 3. 3. 21. 28. 14. 3. 4. 15. 7. 0. 3. 1. 1.
      2. 1. 1. 6. 1. 1. 1. 0. 1. 10. 15. 4. 1. 3. 1. 1. 3. 7. 1. 2. 8.
      4. 12. 27. 11. 7. 15. 27. 9. 2. 3. 2. 0. 1. 2. 0. 15. 9. 102. 52.
      14. 7. 3. 3. 4. 10. 4. 5. 13. 36. 12. 1. 1. 14. 7. 4. 3. 0. 0. 0.
      1. 1. 4. 9. 0. 0. 2. 1. 10. 5. 0. 0. 3. 1. 0. 7. 3. 1. 2. 0. 2.
      16. 10. 3. 7. 8. 18. 9. 1. 3. 6. 6. 0. 7. 2. 10. 18. 125. 46. 5.
      1. 3. 1. 2. 5. 3. 0. 2. 3. 6. 1. 2. 0. 0. 8. 9. 1. 2. 0. 0. 2. 12.
      15. 1. 1. 0. 1. 9. 7. 3. 3. 4. 3. 0. 6. 4. 1. 4. 2. 2. 25. 11. 3.
      4. 7. 111. 11. 2. 2. 21. 5. 1. 5. 5. 6. 12. 83. 18. 6. 3. 5. 1. 4.
      9. 5. 7. 17. 18. 10. 5. 13. 32. 5. 5. 1. 7. 12. 11. 9. 5. 4. 8.
      12. 8. 6. 0. 1. 2. 4. 1. 7. 6. 1. 2. 9. 2. 2. 4. 1. 17. 11. 3. 2.
      7. 54. 10. 0. 0. 6. 4. 1. 7. 3. 7. 12. 62. 29. 12. 4. 7. 1. 4. 4.
      4. 2. 7. 33. 8. 1. 9. 21. 11. 3. 4. 3. 4. 3. 1. 5. 3. 7. 5. 2. 0.
      0. 3. 10. 12. 9. 8. 5. 1. 4. 16. 22. 8. 4. 3. 7. 21. 10. 4. 10.
      13. 7. 3. 2. 2. 3. 1. 2. 0. 9. 15. 83. 35. 18. 6. 5. 3. 5. 9. 2.
      2. 16. 18. 7. 1. 3. 21. 7. 4. 2. 0. 0. 3. 1. 1. 4. 5. 1. 1. 1. 0.
      7. 13. 6. 7. 7. 6. 0. 9. 14. 13. 7. 9. 2. 13. 42. 14. 4. 16. 13.
      6. 1. 1. 1. 1. 0. 0. 0. 5. 13. 83. 20. 5. 5. 6. 7. 4. 8. 5. 5. 9.
      12. 4. 7. 12. 21. 6. 3. 10. 6. 9. 4. 7. 1. 6. 5. 22. 4. 2. 3. 4.
      3. 5. 12. 10. 0. 1. 4. 11. 6. 6. 4. 1. 19. 54. 7. 3. 7. 12. 9. 2.
      3. 4. 2. 2. 3. 1. 4. 13. 64. 18. 9. 5. 5. 6. 3. 13. 4. 3. 10. 18.
      6. 4. 7. 19. 5. 3. 4. 12. 28. 9. 9. 0. 0. 8. 19. 4. 3. 7. 3. 6. 2.
      20. 10. 3. 4. 1. 8. 4. 3. 7. 0. 20. 25. 2. 1. 3. 13. 8. 0. 0. 2.
      5. 0. 6. 5. 10. 9. 73. 37. 7. 8. 9. 6. 5. 7. 5. 5. 11. 19. 7. 3.
      1. 9. 11. 6. 1. 2. 46. 3. 4. 5. 5. 1. 5. 5. 1. 5. 4. 4. 9. 3. 14.
      2. 5. 0. 2. 11. 7. 3. 6. 9. 18. 6. 1. 2. 16. 11. 0. 1. 4. 7. 6. 0.
      3. 4. 9. 88.</_>
    <_>
      17. 4. 4. 1. 0. 1. 4. 0. 3. 17. 40. 12. 7. 3. 27. 12. 7. 17. 16.
      3. 1. 0. 1. 8. 10. 18. 4. 2. 2. 1. 0. 0. 0. 7. 1. 2. 2. 2. 0. 0.
      1. 1. 27. 34. 5. 4. 13. 40. 17. 1. 0. 8. 2. 1. 3. 2. 15. 7. 57.
      47. 8. 10. 5. 4. 3. 7. 9. 9. 28. 26. 5. 10. 7. 19. 14. 4. 12. 7.
      2. 6. 2. 5. 3. 19. 15. 7. 2. 1. 2. 0. 1. 1. 2. 4. 2. 3. 6. 13. 1.
      4. 3. 4. 5. 0. 0. 7. 6. 0. 0. 1. 6. 0. 0. 3. 1. 9. 13. 101. 78.
      16. 8. 5. 3. 3. 1. 7. 5. 4. 5. 13. 3. 9. 5. 2. 10. 5. 17. 5. 2. 1.
      3. 5. 8. 9. 4. 5. 0. 7. 3. 1. 1. 3. 1. 3. 1. 3. 0. 3. 3. 4. 1. 1.
      2. 4. 4. 3. 2. 3. 4. 2. 4. 3. 3. 5. 8. 21. 150. 11. 4. 1. 4. 1. 4.
      6. 5. 4. 1. 16. 5. 6. 4. 3. 1. 3. 10. 23. 14. 6. 3. 3. 8. 39. 59.
      18. 7. 3. 1. 1. 5. 8. 3. 1. 2. 3. 2. 2. 2. 1. 0. 8. 2. 3. 2. 2.
      87. 6. 2. 1. 21. 5. 2. 6. 3. 5. 4. 32. 30. 4. 4. 4. 0. 6. 11. 6.
      5. 23. 23. 7. 4. 15. 34. 13. 4. 7. 11. 20. 12. 3. 0. 4. 7. 13. 4.
      5. 1. 2. 2. 10. 11. 13. 1. 0. 3. 6. 27. 7. 6. 0. 0. 3. 6. 6. 1.
      11. 5. 2. 2. 5. 3. 1. 4. 4. 3. 6. 64. 15. 6. 2. 5. 5. 3. 12. 2. 1.
      17. 30. 7. 10. 17. 28. 10. 1. 11. 8. 1. 3. 2. 3. 7. 21. 18. 6. 3.
      4. 9. 6. 4. 3. 11. 2. 1. 7. 9. 6. 5. 3. 1. 11. 12. 5. 1. 9. 22. 7.
      1. 3. 9. 1. 3. 1. 2. 2. 7. 73. 18. 2. 2. 2. 5. 9. 9. 4. 9. 6. 2.
      4. 7. 4. 29. 4. 2. 6. 7. 4. 4. 2. 2. 2. 12. 35. 6. 4. 3. 4. 5. 14.
      14. 3. 5. 1. 4. 14. 20. 8. 7. 0. 7. 34. 11. 1. 7. 19. 9. 1. 2. 15.
      2. 0. 7. 0. 6. 11. 58. 20. 4. 0. 0. 6. 1. 1. 4. 2. 6. 8. 6. 10.
      13. 27. 5. 3. 8. 11. 33. 12. 6. 2. 2. 19. 111. 13. 12. 5. 4. 1. 0.
      2. 5. 0. 0. 1. 1. 1. 0. 1. 0. 8. 4. 2. 0. 2. 10. 6. 0. 0. 15. 1.
      0. 7. 3. 6. 5. 59. 23. 0. 1. 2. 6. 4. 1. 2. 4. 3. 8. 6. 15. 33.
      25. 3. 3. 9. 36. 41. 27. 3. 9. 5. 18. 24. 13. 16. 0. 1. 2. 2. 2.
      0. 1. 1. 1. 1. 29. 3. 2. 0. 2. 2. 0. 1. 1. 10. 0. 3. 0. 10. 2. 3.
      6. 5. 7. 9. 48.</_>
    <_>
      38. 11. 11. 7. 6. 7. 3. 9. 5. 13. 8. 17. 6. 9. 9. 5. 5. 6. 1. 1.
      6. 2. 2. 3. 3. 1. 6. 3. 2. 4. 6. 4. 3. 6. 1. 3. 3. 6. 5. 4. 9. 2.
      14. 40. 9. 5. 12. 2. 4. 3. 2. 1. 2. 3. 3. 2. 11. 13. 107. 61. 9.
      6. 6. 5. 13. 12. 6. 6. 6. 9. 9. 6. 4. 7. 4. 11. 5. 4. 3. 1. 0. 4.
      7. 7. 8. 1. 2. 1. 9. 2. 2. 3. 7. 4. 3. 6. 3. 1. 1. 2. 3. 9. 3. 2.
      1. 10. 7. 8. 0. 5. 6. 2. 2. 4. 2. 5. 22. 137. 79. 12. 6. 4. 3. 0.
      2. 4. 3. 1. 0. 23. 5. 3. 0. 0. 13. 6. 1. 2. 5. 0. 6. 13. 5. 5. 4.
      3. 0. 6. 8. 2. 1. 2. 1. 2. 2. 3. 0. 1. 3. 1. 13. 4. 2. 5. 8. 14.
      4. 2. 1. 9. 2. 5. 6. 2. 9. 27. 141. 19. 3. 3. 1. 3. 2. 1. 8. 3. 4.
      8. 12. 8. 8. 10. 7. 8. 16. 17. 3. 15. 4. 1. 9. 26. 36. 11. 9. 2.
      3. 3. 1. 4. 3. 0. 2. 2. 1. 1. 3. 0. 2. 14. 18. 1. 2. 4. 47. 13. 3.
      2. 20. 3. 0. 6. 0. 6. 13. 60. 26. 10. 5. 9. 2. 5. 9. 5. 7. 16. 19.
      8. 6. 21. 32. 10. 4. 6. 4. 9. 11. 3. 3. 3. 13. 5. 2. 1. 1. 1. 5.
      14. 15. 6. 5. 2. 2. 12. 10. 9. 6. 1. 10. 11. 5. 1. 7. 9. 3. 1. 1.
      4. 3. 3. 2. 2. 5. 7. 77. 44. 18. 2. 0. 4. 2. 2. 9. 1. 13. 13. 14.
      4. 7. 14. 4. 10. 5. 4. 5. 5. 2. 5. 7. 4. 1. 1. 1. 2. 11. 5. 3. 1.
      5. 5. 0. 7. 11. 5. 2. 6. 0. 9. 31. 9. 3. 12. 4. 9. 0. 4. 4. 2. 0.
      4. 4. 10. 15. 110. 13. 4. 0. 2. 7. 5. 7. 1. 3. 3. 1. 4. 10. 10. 8.
      1. 4. 8. 21. 20. 8. 2. 2. 3. 18. 44. 15. 6. 2. 2. 3. 5. 29. 6. 2.
      4. 5. 7. 8. 3. 3. 2. 18. 20. 15. 1. 3. 24. 13. 1. 2. 14. 4. 2. 3.
      1. 7. 8. 47. 13. 2. 3. 2. 3. 3. 2. 6. 2. 3. 7. 5. 8. 17. 17. 1. 2.
      15. 15. 18. 17. 4. 3. 7. 26. 49. 12. 5. 2. 4. 4. 1. 14. 0. 1. 3.
      3. 8. 1. 1. 0. 0. 16. 10. 4. 0. 6. 34. 9. 3. 1. 28. 4. 0. 8. 1. 6.
      2. 53. 27. 1. 5. 5. 11. 9. 1. 4. 4. 9. 4. 3. 10. 21. 32. 5. 3. 11.
      12. 18. 13. 5. 7. 5. 11. 28. 11. 8. 2. 2. 5. 5. 3. 2. 3. 2. 4. 2.
      26. 2. 1. 3. 6. 13. 0. 0. 0. 10. 4. 1. 2. 13. 1. 1. 8. 5. 11. 12.
      62.</_>
    <_>
      12. 6. 4. 11. 1. 7. 29. 4. 5. 23. 28. 5. 3. 13. 42. 15. 1. 1. 2.
      6. 11. 3. 0. 1. 0. 1. 3. 2. 2. 2. 16. 21. 34. 14. 4. 2. 4. 13. 6.
      10. 5. 4. 1. 22. 8. 4. 8. 3. 0. 1. 1. 0. 0. 0. 0. 0. 4. 9. 57. 7.
      5. 4. 26. 0. 3. 31. 0. 0. 0. 9. 0. 0. 0. 1. 2. 0. 0. 0. 0. 0. 0.
      2. 0. 1. 0. 0. 0. 0. 2. 12. 70. 101. 25. 0. 1. 3. 14. 45. 51. 9.
      1. 6. 17. 14. 7. 1. 3. 0. 1. 1. 0. 0. 0. 0. 0. 0. 3. 16. 20. 8. 8.
      13. 3. 4. 24. 1. 0. 7. 23. 0. 1. 0. 7. 10. 1. 3. 2. 2. 1. 0. 1. 2.
      5. 3. 0. 0. 0. 7. 10. 43. 65. 33. 7. 0. 3. 4. 23. 25. 7. 2. 9. 3.
      6. 6. 3. 21. 1. 5. 0. 5. 1. 2. 0. 0. 0. 3. 51. 28. 5. 9. 6. 8. 10.
      13. 5. 5. 28. 25. 7. 8. 9. 26. 12. 8. 5. 5. 6. 7. 4. 3. 3. 15. 14.
      10. 6. 2. 1. 2. 11. 4. 8. 6. 1. 5. 5. 5. 3. 6. 4. 2. 3. 2. 1. 3.
      19. 2. 4. 1. 9. 3. 3. 5. 3. 6. 2. 73. 15. 6. 2. 7. 3. 6. 17. 5. 6.
      13. 28. 2. 0. 20. 33. 6. 2. 6. 14. 25. 10. 2. 2. 4. 6. 14. 4. 4.
      1. 0. 6. 19. 27. 10. 5. 4. 3. 8. 9. 9. 2. 3. 8. 12. 7. 5. 2. 8. 4.
      3. 0. 6. 2. 1. 4. 2. 5. 9. 48. 14. 16. 5. 5. 3. 7. 41. 0. 3. 10.
      39. 2. 3. 11. 15. 6. 0. 0. 3. 5. 8. 3. 1. 2. 5. 4. 2. 1. 1. 3. 13.
      16. 42. 22. 5. 0. 0. 6. 14. 17. 4. 2. 10. 34. 12. 7. 10. 9. 8. 0.
      0. 0. 0. 0. 0. 1. 5. 5. 34. 25. 8. 13. 9. 5. 8. 22. 4. 6. 14. 35.
      9. 5. 9. 19. 7. 2. 4. 3. 13. 10. 2. 2. 1. 3. 1. 1. 3. 1. 4. 12.
      16. 19. 22. 5. 2. 1. 11. 16. 14. 7. 2. 1. 4. 8. 5. 1. 6. 2. 2. 1.
      2. 1. 0. 2. 0. 3. 11. 70. 12. 1. 3. 4. 1. 4. 24. 4. 5. 10. 25. 6.
      6. 15. 21. 5. 7. 14. 28. 16. 8. 4. 1. 1. 23. 15. 10. 5. 1. 1. 6.
      9. 25. 12. 0. 2. 4. 9. 14. 4. 0. 0. 4. 10. 8. 1. 3. 8. 3. 2. 1.
      11. 2. 1. 8. 2. 5. 4. 56. 30. 6. 10. 3. 6. 2. 4. 2. 5. 8. 13. 7.
      17. 9. 14. 10. 6. 3. 14. 25. 15. 2. 5. 3. 7. 6. 16. 3. 0. 3. 6. 4.
      8. 3. 1. 4. 3. 4. 37. 3. 5. 0. 8. 8. 5. 2. 1. 10. 2. 2. 3. 10. 1.
      3. 5. 2. 11. 10. 79.</_>
    <_>
      16. 0. 4. 2. 4. 7. 6. 6. 8. 4. 14. 5. 4. 8. 8. 6. 4. 4. 17. 33. 8.
      4. 6. 3. 8. 24. 10. 6. 2. 7. 2. 5. 11. 4. 6. 8. 2. 3. 17. 7. 3. 5.
      4. 4. 6. 2. 1. 21. 5. 3. 2. 12. 2. 0. 2. 1. 5. 17. 96. 25. 3. 8.
      5. 8. 8. 14. 1. 2. 9. 18. 2. 3. 6. 29. 11. 4. 5. 0. 19. 5. 0. 4.
      3. 4. 8. 0. 0. 1. 2. 1. 10. 9. 16. 4. 2. 3. 13. 58. 7. 10. 3. 8.
      12. 13. 2. 1. 6. 5. 5. 3. 2. 1. 0. 1. 2. 4. 8. 78. 37. 2. 3. 7. 8.
      5. 7. 6. 5. 16. 18. 9. 5. 5. 20. 12. 4. 1. 10. 2. 1. 0. 7. 4. 0.
      29. 7. 2. 1. 3. 8. 5. 10. 11. 5. 1. 3. 6. 6. 7. 5. 1. 7. 13. 7. 3.
      6. 10. 7. 5. 3. 1. 1. 1. 0. 1. 4. 15. 106. 18. 6. 3. 14. 8. 1. 8.
      1. 2. 8. 12. 5. 4. 4. 29. 10. 2. 11. 4. 10. 2. 2. 4. 4. 5. 10. 5.
      4. 0. 1. 6. 12. 14. 11. 4. 2. 4. 15. 48. 11. 6. 3. 7. 37. 14. 3.
      6. 10. 6. 3. 1. 3. 1. 3. 2. 2. 2. 13. 48. 15. 5. 2. 2. 5. 2. 3. 2.
      7. 10. 15. 3. 7. 11. 18. 10. 2. 9. 29. 27. 9. 3. 2. 6. 19. 34. 16.
      2. 0. 0. 5. 8. 9. 5. 5. 2. 4. 16. 21. 2. 5. 2. 11. 10. 9. 5. 7.
      13. 5. 1. 3. 9. 5. 4. 3. 1. 3. 4. 42. 16. 5. 4. 7. 0. 9. 15. 1. 3.
      12. 19. 3. 2. 15. 22. 13. 4. 5. 5. 12. 13. 1. 3. 6. 4. 3. 7. 3. 2.
      3. 7. 10. 5. 6. 2. 0. 3. 15. 43. 5. 4. 4. 21. 41. 12. 2. 6. 18. 9.
      0. 0. 4. 3. 1. 5. 0. 2. 6. 43. 8. 6. 2. 18. 2. 8. 16. 0. 2. 13.
      26. 2. 0. 5. 34. 5. 1. 1. 0. 4. 5. 0. 1. 0. 0. 0. 2. 2. 0. 7. 16.
      21. 6. 9. 3. 0. 3. 32. 52. 10. 6. 0. 10. 24. 14. 4. 7. 21. 10. 0.
      2. 2. 0. 0. 0. 1. 6. 11. 54. 3. 2. 3. 12. 1. 9. 14. 0. 1. 12. 8.
      0. 0. 1. 21. 7. 0. 0. 0. 0. 0. 0. 0. 0. 0. 0. 0. 0. 1. 2. 10. 44.
      20. 6. 2. 0. 1. 40. 197. 21. 6. 2. 0. 5. 18. 0. 5. 0. 0. 1. 1. 0.
      0. 0. 0. 0. 0. 1. 17. 9. 2. 5. 2. 2. 4. 4. 0. 0. 6. 3. 0. 2. 4. 3.
      3. 4. 7. 9. 10. 0. 0. 3. 8. 7. 8. 3. 0. 0. 3. 8. 35. 10. 3. 0. 1.
      7. 57. 98. 19. 1. 1. 6. 55. 22. 6. 2. 8. 3. 1. 0. 2. 4. 3. 3. 0.
      0. 3. 25.</_>
    <_>
      17. 6. 1. 1. 2. 1. 2. 7. 2. 2. 9. 10. 7. 12. 5. 0. 2. 12. 20. 98.
      8. 3. 2. 7. 24. 8. 2. 4. 2. 1. 2. 2. 3. 5. 0. 3. 2. 0. 2. 6. 0. 4.
      6. 11. 5. 2. 5. 50. 4. 2. 1. 5. 0. 2. 3. 1. 14. 13. 64. 14. 4. 2.
      6. 2. 8. 7. 5. 4. 18. 9. 10. 5. 9. 46. 7. 4. 7. 14. 18. 5. 2. 5.
      2. 18. 49. 3. 3. 4. 4. 4. 8. 12. 5. 3. 3. 3. 8. 26. 6. 1. 4. 8. 5.
      3. 3. 4. 4. 2. 1. 0. 6. 1. 5. 2. 5. 1. 9. 58. 7. 0. 0. 0. 2. 0. 0.
      2. 1. 3. 6. 3. 4. 4. 7. 5. 5. 6. 35. 15. 2. 0. 7. 10. 32. 130. 16.
      2. 2. 1. 5. 2. 1. 4. 0. 2. 3. 5. 12. 2. 0. 0. 10. 33. 4. 2. 0. 31.
      9. 4. 1. 16. 6. 0. 1. 1. 1. 6. 26. 27. 7. 4. 7. 6. 3. 3. 4. 2. 6.
      3. 7. 10. 11. 5. 0. 7. 11. 27. 18. 5. 2. 5. 5. 8. 27. 20. 5. 3. 3.
      4. 9. 14. 3. 1. 3. 3. 10. 11. 9. 3. 2. 8. 22. 9. 5. 3. 6. 5. 3. 1.
      13. 4. 1. 1. 3. 9. 9. 69. 21. 4. 5. 4. 5. 2. 9. 3. 10. 6. 19. 6.
      2. 15. 9. 5. 4. 4. 15. 38. 10. 4. 5. 2. 13. 23. 10. 4. 4. 3. 5. 6.
      24. 11. 1. 2. 7. 4. 2. 4. 0. 1. 9. 8. 3. 4. 9. 21. 4. 4. 3. 6. 3.
      2. 2. 2. 5. 8. 70. 11. 6. 4. 4. 1. 8. 3. 5. 5. 12. 12. 11. 9. 28.
      41. 5. 5. 5. 20. 19. 17. 3. 3. 6. 16. 19. 10. 5. 1. 2. 5. 2. 4. 0.
      3. 0. 3. 5. 3. 7. 2. 2. 17. 15. 1. 0. 2. 48. 10. 1. 0. 3. 4. 1. 4.
      1. 4. 8. 43. 16. 9. 4. 10. 6. 5. 13. 3. 0. 1. 15. 14. 3. 6. 9. 2.
      0. 3. 1. 3. 4. 1. 1. 0. 7. 1. 2. 2. 2. 8. 14. 14. 55. 14. 3. 4. 3.
      10. 12. 7. 8. 1. 7. 18. 5. 5. 3. 21. 7. 2. 0. 5. 0. 0. 2. 2. 18.
      17. 86. 37. 7. 3. 9. 6. 1. 10. 7. 3. 17. 29. 11. 3. 10. 28. 16. 1.
      8. 2. 17. 15. 7. 4. 4. 7. 2. 3. 1. 0. 5. 10. 4. 3. 5. 3. 1. 5. 4.
      5. 7. 3. 0. 12. 7. 2. 4. 5. 10. 3. 2. 4. 4. 2. 1. 4. 2. 12. 14.
      83. 36. 5. 3. 9. 6. 4. 5. 2. 1. 5. 7. 4. 3. 2. 2. 3. 4. 5. 2. 2.
      3. 3. 1. 6. 7. 9. 5. 2. 1. 7. 16. 12. 14. 3. 4. 1. 17. 21. 6. 6.
      2. 1. 27. 38. 19. 6. 4. 24. 11. 4. 3. 8. 1. 3. 3. 0. 4. 6. 76.</_>
    <_>
      12. 3. 0. 2. 1. 4. 2. 2. 3. 14. 32. 6. 8. 22. 49. 9. 4. 18. 14.
      13. 12. 0. 2. 1. 19. 16. 10. 3. 4. 1. 1. 1. 3. 4. 2. 3. 1. 2. 2.
      1. 2. 1. 18. 27. 2. 3. 5. 57. 10. 0. 0. 5. 1. 0. 5. 3. 12. 6. 31.
      19. 2. 5. 1. 2. 0. 3. 4. 3. 13. 16. 21. 9. 8. 17. 7. 5. 27. 21. 8.
      7. 2. 1. 4. 32. 61. 20. 8. 0. 3. 1. 1. 3. 1. 0. 0. 0. 0. 0. 2. 1.
      0. 6. 4. 0. 1. 2. 16. 2. 2. 1. 30. 2. 0. 15. 1. 10. 7. 57. 16. 1.
      0. 0. 1. 1. 0. 0. 1. 0. 0. 5. 3. 3. 0. 1. 8. 25. 17. 3. 1. 0. 3.
      23. 62. 63. 2. 1. 0. 3. 1. 0. 0. 1. 0. 0. 6. 1. 1. 1. 0. 0. 18. 8.
      1. 1. 2. 72. 14. 2. 0. 39. 1. 1. 12. 8. 2. 9. 50. 12. 1. 3. 2. 3.
      0. 11. 3. 2. 4. 14. 7. 3. 2. 5. 3. 1. 6. 26. 12. 6. 1. 2. 7. 17.
      52. 19. 2. 0. 1. 5. 15. 30. 4. 1. 0. 5. 6. 6. 10. 1. 0. 11. 12. 2.
      2. 2. 52. 8. 2. 0. 22. 1. 0. 7. 0. 4. 9. 50. 13. 4. 2. 4. 2. 1. 7.
      1. 3. 4. 14. 3. 2. 10. 21. 6. 1. 9. 16. 10. 7. 0. 0. 0. 15. 42.
      12. 1. 3. 2. 15. 14. 15. 9. 1. 0. 4. 15. 40. 13. 2. 1. 13. 19. 17.
      3. 7. 20. 5. 1. 1. 7. 3. 1. 2. 3. 5. 5. 38. 5. 3. 0. 2. 2. 0. 3.
      3. 6. 13. 17. 10. 16. 12. 43. 8. 3. 15. 14. 6. 5. 0. 0. 6. 24. 10.
      8. 4. 0. 2. 4. 5. 5. 4. 0. 0. 4. 5. 1. 2. 2. 0. 35. 47. 4. 2. 2.
      62. 14. 0. 0. 11. 1. 0. 1. 1. 11. 5. 26. 15. 9. 4. 4. 1. 6. 37. 0.
      3. 5. 37. 7. 1. 2. 14. 1. 2. 1. 0. 3. 4. 5. 1. 1. 7. 1. 1. 1. 0.
      4. 11. 13. 42. 27. 7. 3. 4. 14. 17. 10. 16. 2. 10. 20. 19. 8. 3.
      6. 5. 3. 5. 4. 2. 1. 1. 1. 1. 5. 57. 34. 5. 3. 5. 6. 1. 16. 6. 6.
      14. 33. 4. 9. 10. 18. 7. 0. 5. 8. 8. 7. 6. 3. 2. 12. 22. 7. 7. 3.
      4. 3. 8. 13. 5. 0. 0. 4. 1. 9. 6. 5. 3. 4. 4. 1. 6. 7. 31. 3. 1.
      1. 14. 2. 1. 2. 1. 5. 8. 75. 15. 6. 0. 3. 1. 1. 11. 0. 3. 14. 20.
      3. 1. 3. 19. 11. 4. 8. 10. 7. 11. 3. 6. 6. 7. 11. 7. 6. 1. 5. 8.
      17. 13. 3. 1. 0. 7. 5. 26. 8. 0. 0. 20. 28. 4. 1. 5. 37. 13. 2. 1.
      12. 3. 3. 8. 2. 6. 7. 51.</_>
    <_>
      13. 6. 1. 0. 0. 0. 3. 4. 4. 7. 19. 17. 8. 20. 41. 7. 1. 27. 33.
      38. 8. 2. 3. 4. 9. 20. 20. 2. 2. 1. 0. 1. 0. 1. 3. 3. 1. 3. 0. 0.
      2. 1. 9. 16. 2. 1. 10. 26. 5. 1. 1. 3. 1. 1. 7. 3. 22. 10. 41. 14.
      3. 0. 2. 2. 4. 2. 1. 9. 17. 20. 17. 5. 10. 18. 7. 6. 15. 43. 9. 4.
      0. 1. 5. 41. 76. 16. 7. 5. 1. 0. 0. 1. 3. 1. 2. 0. 0. 0. 0. 0. 2.
      4. 2. 1. 0. 0. 13. 2. 0. 0. 31. 5. 0. 12. 2. 2. 6. 45. 7. 0. 0. 0.
      0. 1. 0. 4. 2. 2. 0. 3. 5. 12. 4. 1. 4. 22. 75. 23. 4. 0. 0. 3.
      47. 128. 38. 4. 3. 0. 0. 0. 0. 0. 0. 1. 3. 0. 0. 0. 0. 0. 1. 3. 0.
      0. 1. 11. 1. 0. 1. 20. 3. 1. 6. 1. 1. 6. 42. 25. 4. 2. 3. 5. 5. 7.
      0. 7. 1. 8. 5. 5. 13. 10. 1. 2. 5. 22. 22. 14. 1. 2. 6. 8. 32. 14.
      11. 4. 4. 2. 4. 1. 2. 3. 0. 0. 1. 0. 2. 2. 2. 7. 11. 7. 2. 3. 44.
      11. 1. 1. 13. 4. 1. 9. 4. 12. 10. 87. 15. 10. 4. 11. 0. 14. 11. 2.
      7. 10. 20. 7. 5. 13. 25. 12. 4. 3. 14. 13. 7. 5. 5. 2. 2. 11. 7.
      5. 3. 3. 1. 12. 24. 14. 6. 4. 1. 15. 27. 8. 4. 6. 2. 6. 7. 2. 2.
      1. 0. 3. 2. 3. 2. 2. 2. 0. 4. 13. 71. 24. 3. 2. 3. 5. 0. 5. 3. 7.
      10. 12. 6. 6. 9. 16. 9. 9. 15. 15. 8. 4. 3. 3. 20. 20. 22. 10. 1.
      1. 3. 4. 3. 6. 7. 0. 2. 6. 12. 6. 1. 2. 0. 12. 19. 11. 1. 1. 25.
      14. 2. 0. 12. 9. 3. 6. 4. 6. 9. 57. 31. 5. 1. 4. 6. 7. 12. 6. 4.
      8. 6. 13. 3. 3. 5. 3. 2. 3. 4. 4. 3. 1. 4. 1. 7. 14. 4. 3. 4. 5.
      10. 8. 29. 8. 3. 4. 5. 13. 8. 4. 4. 3. 7. 34. 10. 5. 5. 7. 6. 2.
      0. 12. 4. 2. 3. 2. 7. 17. 96. 15. 4. 5. 3. 5. 3. 6. 5. 9. 10. 13.
      4. 1. 11. 19. 13. 2. 3. 18. 14. 17. 8. 4. 1. 12. 72. 12. 6. 2. 1.
      2. 20. 17. 4. 0. 4. 3. 5. 19. 5. 1. 0. 3. 7. 1. 0. 3. 8. 2. 2. 1.
      10. 2. 1. 3. 1. 6. 12. 54. 38. 5. 4. 2. 7. 7. 2. 2. 5. 9. 0. 8. 5.
      14. 34. 3. 4. 3. 10. 11. 11. 3. 5. 5. 8. 11. 5. 2. 0. 9. 4. 24. 6.
      3. 3. 4. 3. 5. 36. 6. 3. 2. 9. 11. 4. 0. 1. 7. 7. 2. 2. 8. 2. 4.
      6. 1. 10. 12. 77.</_>
    <_>
      21. 10. 3. 3. 2. 6. 7. 3. 3. 27. 29. 11. 5. 7. 21. 15. 9. 13. 9.
      8. 6. 4. 4. 11. 7. 4. 6. 3. 4. 5. 0. 2. 0. 8. 5. 3. 5. 8. 4. 3. 1.
      0. 13. 19. 4. 1. 5. 9. 9. 2. 2. 7. 6. 1. 6. 2. 9. 15. 79. 33. 8.
      6. 2. 2. 5. 3. 4. 2. 26. 18. 17. 7. 9. 35. 7. 10. 7. 0. 5. 6. 1.
      4. 9. 6. 5. 4. 6. 0. 8. 3. 1. 2. 5. 2. 0. 7. 13. 3. 2. 1. 2. 24.
      43. 12. 1. 7. 12. 8. 2. 1. 4. 1. 0. 3. 0. 8. 10. 62. 71. 13. 7.
      10. 7. 6. 5. 2. 1. 6. 4. 6. 3. 6. 7. 5. 4. 5. 7. 4. 3. 1. 4. 1. 0.
      2. 3. 3. 1. 7. 14. 12. 7. 4. 2. 2. 8. 12. 19. 7. 6. 1. 7. 7. 10.
      8. 8. 4. 2. 2. 1. 0. 1. 2. 3. 0. 4. 18. 119. 15. 1. 4. 3. 14. 3.
      2. 2. 2. 2. 1. 8. 6. 8. 26. 1. 3. 9. 27. 35. 8. 0. 9. 3. 18. 48.
      11. 3. 0. 3. 3. 9. 19. 2. 4. 3. 1. 7. 9. 6. 2. 0. 7. 7. 4. 1. 3.
      25. 2. 5. 2. 12. 7. 9. 4. 1. 8. 12. 45. 15. 4. 3. 8. 1. 2. 11. 2.
      5. 9. 15. 3. 1. 13. 8. 4. 4. 12. 7. 20. 7. 2. 1. 4. 9. 12. 6. 3.
      1. 3. 7. 12. 19. 4. 5. 4. 6. 24. 21. 8. 3. 3. 13. 29. 11. 1. 4.
